{"model_encoding": {"S_su": {"attr": {"x_data_columns": ["inf_fr", "temp", "hrt"], "x_data": [[9.62, 24.21, 9.97], [7.6, 29.05, 9.24], [9.06, 27.98, 3.67], [6.71, 27.84, 4.3], [5.36, 27.03, 11.82], [7.09, 24.66, 6.14], [6.31, 30.7, 9.3], [5.55, 31.95, 7.72], [7.79, 31.75, 11.08], [9.87, 32.81, 2.91], [6.06, 22.9, 4.9], [8.25, 29.43, 2.38], [9.41, 33.07, 4.37], [5.94, 34.29, 7.05], [5.16, 25.28, 8.6], [6.99, 34.67, 5.63], [8.78, 26.17, 10.5], [8.25, 22.25, 1.18], [7.34, 23.58, 6.97], [8.52, 30.11, 1.71]], "x_data_min": [[5.16, 22.25, 1.18]], "x_data_max": [[9.87, 34.67, 11.82]], "x_data_scaled": [[0.9469214437367304, 0.15780998389694045, 0.8261278195488723], [0.5180467091295117, 0.5475040257648953, 0.7575187969924813], [0.8280254777070066, 0.4613526570048309, 0.23402255639097744], [0.3290870488322718, 0.45008051529790655, 0.2932330827067669], [0.04246284501061576, 0.3848631239935588, 1.0], [0.40976645435244163, 0.1940418679549114, 0.46616541353383456], [0.24416135881104029, 0.6803542673107889, 0.7631578947368421], [0.08280254777070059, 0.7809983896940417, 0.6146616541353384], [0.5583864118895967, 0.7648953301127213, 0.9304511278195489], [1.0, 0.8502415458937199, 0.162593984962406], [0.19108280254777063, 0.052334943639291344, 0.349624060150376], [0.6560509554140128, 0.5780998389694041, 0.11278195488721804], [0.902335456475584, 0.8711755233494363, 0.299812030075188], [0.16560509554140135, 0.9694041867954909, 0.5516917293233082], [0.0, 0.2439613526570049, 0.6973684210526315], [0.38853503184713384, 1.0, 0.4182330827067669], [0.7685774946921443, 0.3156199677938809, 0.8759398496240601], [0.6560509554140128, 0.0, 0.0], [0.46284501061571126, 0.10708534621578085, 0.5441729323308271], [0.713375796178344, 0.6328502415458935, 0.04981203007518797]], "optimal_weights": [0.001, 0.00553443932868775, 9.23640489712653], "optimal_p": 2, "optimal_mean": [[10.708718582459415]], "optimal_variance": [[186.46010401001558]], "regularization_parameter": 1.000000000001e-06, "optimal_covariance_matrix": [[1.000001, 0.9564736986819766, 0.039214734401872335, 0.07252824593624756, 0.7555313048545577, 0.3020738120877868, 0.9621072359328168, 0.6597270638439308, 0.9023852503616551, 0.017090468154130675, 0.12272459883379011, 0.009085089939337503, 0.0771981856441746, 0.49663631006467207, 0.8572137849331299, 0.21417262433781506, 0.9771771156614816, 0.00182906510623783, 0.47973114604615735, 0.003818977546471987], [0.9564736986819766, 1.000001, 0.07955088871002011, 0.13654528180839778, 0.5807431444635481, 0.4562328458941836, 0.9995337048616473, 0.8277954202460109, 0.7584462647321234, 0.03801283583660425, 0.21476743015664887, 0.02150511002409431, 0.14432138840052694, 0.6754287383398885, 0.9663818395079434, 0.34493584736582034, 0.8781942222907715, 0.0049823782469469785, 0.6560718359401434, 0.009792667352117389], [0.039214734401872335, 0.07955088871002011, 1.000001, 0.9678952316519608, 0.004427827115333782, 0.6075486092934883, 0.075271490166288, 0.26201652015242616, 0.011329369834968416, 0.9531422809117884, 0.8827050219291968, 0.8729530167161982, 0.9599130497556342, 0.392999415401559, 0.137531085087282, 0.7296264185255716, 0.02223575141725951, 0.6022674553325028, 0.41094010034030887, 0.730811563041345], [0.07252824593624756, 0.13654528180839778, 0.9678952316519608, 1.000001, 0.009913380965990084, 0.7583657641367012, 0.13003264079467802, 0.38483595045012664, 0.023493909037166655, 0.8530218349660378, 0.9701875875355881, 0.7401080757264957, 0.9982916995811564, 0.5387415889599014, 0.22115694026663893, 0.8641611266858, 0.043435056360918094, 0.4513888011065201, 0.5586160604195366, 0.5783218537458056], [0.7555313048545577, 0.5807431444635481, 0.004427827115333782, 0.009913380965990084, 1.000001, 0.07189696366582156, 0.5953341068602012, 0.2535121295638303, 0.9552880150755488, 0.0015351400339958673, 0.020090052933068172, 0.0006953651985480597, 0.01077725231554801, 0.1559465910527541, 0.4291126178650871, 0.04379215609321073, 0.8670049826083785, 9.731074467356401e-05, 0.14664678406143558, 0.0002387854898604243], [0.3020738120877868, 0.4562328458941836, 0.6075486092934883, 0.7583657641367012, 0.07189696366582156, 1.000001, 0.44218403828935654, 0.8140879954288092, 0.136308256594654, 0.4257435784452184, 0.8819615951428164, 0.3152724728365803, 0.7722990818235986, 0.9315095419588527, 0.6102343836994966, 0.9754892240669023, 0.21200566209288532, 0.13433293528142648, 0.9453029817748547, 0.20143471772337113], [0.9621072359328168, 0.9995337048616473, 0.075271490166288, 0.13003264079467802, 0.5953341068602012, 0.44218403828935654, 1.000001, 0.815661944529688, 0.7721026314030643, 0.03571837830497584, 0.20562412896765533, 0.02009822195352319, 0.1375740648795965, 0.6613304997124161, 0.9597416926414137, 0.33304745907972255, 0.8882551867703629, 0.004598129147537852, 0.6409569227070648, 0.009092629851079776], [0.6597270638439308, 0.8277954202460109, 0.26201652015242616, 0.38483595045012664, 0.2535121295638303, 0.8140879954288092, 0.815661944529688, 1.000001, 0.39799750445200643, 0.15130353216220155, 0.5211273579441875, 0.09758300040839485, 0.3999866542810289, 0.9638422786484224, 0.9372700539093677, 0.6999558225779233, 0.5314192265077313, 0.03040036028134835, 0.9526092301904185, 0.05247380640130102], [0.9023852503616551, 0.7584462647321234, 0.011329369834968416, 0.023493909037166655, 0.9552880150755488, 0.136308256594654, 0.7721026314030643, 0.39799750445200643, 1.000001, 0.004313256573422658, 0.04420403080554353, 0.002079755786545935, 0.02538615257307305, 0.26568916095718803, 0.604348101183747, 0.08859626185332298, 0.971798223470994, 0.00033560816095316463, 0.25143375330302775, 0.000774583212248271], [0.017090468154130675, 0.03801283583660425, 0.9531422809117884, 0.8530218349660378, 0.0015351400339958673, 0.4257435784452184, 0.03571837830497584, 0.15130353216220155, 0.004313256573422658, 1.000001, 0.7208893516447232, 0.9768268101789414, 0.8403621832951823, 0.24680930142266047, 0.07104118147549734, 0.5465609077398391, 0.009079884017900984, 0.7801256896449442, 0.259710252720837, 0.8888483479211077], [0.12272459883379011, 0.21476743015664887, 0.8827050219291968, 0.9701875875355881, 0.020090052933068172, 0.8819615951428164, 0.20562412896765533, 0.5211273579441875, 0.04420403080554353, 0.7208893516447232, 1.000001, 0.5946069628526878, 0.9732303884399884, 0.6826383807001563, 0.3272069159584909, 0.9526698358307014, 0.07736057034369544, 0.32327186375188083, 0.7049125199452586, 0.4350157888672681], [0.009085089939337503, 0.02150511002409431, 0.8729530167161982, 0.7401080757264957, 0.0006953651985480597, 0.3152724728365803, 0.02009822195352319, 0.09758300040839485, 0.002079755786545935, 0.9768268101789414, 0.5946069628526878, 1.000001, 0.7235195071887947, 0.16856977180535757, 0.042531526920794746, 0.42197176009531867, 0.0046088897713958184, 0.8875108375948308, 0.1790404952207947, 0.9640190969178849], [0.0771981856441746, 0.14432138840052694, 0.9599130497556342, 0.9982916995811564, 0.01077725231554801, 0.7722990818235986, 0.1375740648795965, 0.3999866542810289, 0.02538615257307305, 0.8403621832951823, 0.9732303884399884, 0.7235195071887947, 1.000001, 0.5562235789435214, 0.23158339081134466, 0.8781981870393011, 0.04653717996238538, 0.4340931796290976, 0.5741004672083008, 0.5612295022979681], [0.49663631006467207, 0.6754287383398885, 0.392999415401559, 0.5387415889599014, 0.1559465910527541, 0.9315095419588527, 0.6613304997124161, 0.9638422786484224, 0.26568916095718803, 0.24680930142266047, 0.6826383807001563, 0.16856977180535757, 0.5562235789435214, 1.000001, 0.8195890526951936, 0.8482614058066205, 0.3776393503084919, 0.059804853558392254, 0.99528526787587, 0.09754685492968548], [0.8572137849331299, 0.9663818395079434, 0.137531085087282, 0.22115694026663893, 0.4291126178650871, 0.6102343836994966, 0.9597416926414137, 0.9372700539093677, 0.604348101183747, 0.07104118147549734, 0.3272069159584909, 0.042531526920794746, 0.23158339081134466, 0.8195890526951936, 1.000001, 0.4853023893367072, 0.7444218904141405, 0.011191135353876131, 0.8048609203509859, 0.02076594457335515], [0.21417262433781506, 0.34493584736582034, 0.7296264185255716, 0.8641611266858, 0.04379215609321073, 0.9754892240669023, 0.33304745907972255, 0.6999558225779233, 0.08859626185332298, 0.5465609077398391, 0.9526698358307014, 0.42197176009531867, 0.8781981870393011, 0.8482614058066205, 0.4853023893367072, 1.000001, 0.14403171655841812, 0.19765584946638098, 0.8599205268643006, 0.28520518635325876], [0.9771771156614816, 0.8781942222907715, 0.02223575141725951, 0.043435056360918094, 0.8670049826083785, 0.21200566209288532, 0.8882551867703629, 0.5314192265077313, 0.971798223470994, 0.009079884017900984, 0.07736057034369544, 0.0046088897713958184, 0.04653717996238538, 0.3776393503084919, 0.7444218904141405, 0.14403171655841812, 1.000001, 0.0008355786373976127, 0.36168607046857737, 0.001828447771983649], [0.00182906510623783, 0.0049823782469469785, 0.6022674553325028, 0.4513888011065201, 9.731074467356401e-05, 0.13433293528142648, 0.004598129147537852, 0.03040036028134835, 0.00033560816095316463, 0.7801256896449442, 0.32327186375188083, 0.8875108375948308, 0.4340931796290976, 0.059804853558392254, 0.011191135353876131, 0.19765584946638098, 0.0008355786373976127, 1.000001, 0.06487949697500078, 0.9751757694428094], [0.47973114604615735, 0.6560718359401434, 0.41094010034030887, 0.5586160604195366, 0.14664678406143558, 0.9453029817748547, 0.6409569227070648, 0.9526092301904185, 0.25143375330302775, 0.259710252720837, 0.7049125199452586, 0.1790404952207947, 0.5741004672083008, 0.99528526787587, 0.8048609203509859, 0.8599205268643006, 0.36168607046857737, 0.06487949697500078, 1.000001, 0.10446506284776211], [0.003818977546471987, 0.009792667352117389, 0.730811563041345, 0.5783218537458056, 0.0002387854898604243, 0.20143471772337113, 0.009092629851079776, 0.05247380640130102, 0.000774583212248271, 0.8888483479211077, 0.4350157888672681, 0.9640190969178849, 0.5612295022979681, 0.09754685492968548, 0.02076594457335515, 0.28520518635325876, 0.001828447771983649, 0.9751757694428094, 0.10446506284776211, 1.000001]], "covariance_matrix_inverse": [[66058.58223552236, -91068.78285284204, 4973.832505033351, -9048.748028735208, 987.3261456178243, -15923.952655820722, 63580.07329527862, 42707.94661324284, 10370.903628707621, -2126.6922427552854, 6141.346806481766, 808.7198018638342, -1816.7849396491958, -34273.288120990306, -19427.273891223693, 14556.458277366544, -51461.965730642834, -574.9759854193087, 14854.05340795426, 774.7974722404413], [-91068.78285346896, 140047.56748266928, -8248.684000866288, 21314.089583749028, -2140.379309990342, 40574.48666322413, -102739.9906555382, -61597.062899316035, -11058.197962834847, 1869.2365104340684, -18336.48268800939, -1083.6378915213336, 3264.2792803637158, 53109.83246626676, 31277.248736976424, -28134.32094542702, 67893.6228379303, 807.0710536263101, -35040.183618993105, -848.4596306140535], [4973.832504851161, -8248.68400040686, 20172.603581384537, 2368.8475784850125, 51.461744982759974, 6890.668920633932, 4073.858296512448, 24642.47456281511, 26.785875623492394, -1762.1205571029059, -11347.459341721536, -10618.482697283216, -17397.293439673696, -27461.903902337144, -5496.693627928838, 17338.687694203552, -1996.0285392744986, -2089.8984516319288, -1969.4736570831506, 7829.434299887258], [-9048.748029481256, 21314.089584734887, 2368.847578147342, 27824.219055835867, -529.6278257979587, 37306.95372025492, -19431.78385392246, 1005.6150200611595, 171.82554966619892, -4231.997959099138, -29128.052427594088, -3547.864175984411, -6705.289128338697, 377.42988078145936, 6004.828129257123, -9002.228925464837, 5850.3440698310815, -1072.7008057679593, -23724.71813834358, 4148.221443339487], [987.3261456711186, -2140.37931005833, 51.461744999976, -529.6278257962856, 190.79055524711634, -1508.8718579688227, 2094.5489322312847, 528.3818471076366, -298.37783403592834, 83.12378484836411, 682.5736222152951, -14.866520710215811, -61.584972837273924, -634.6729401709873, -822.2842166122829, 599.6433855778259, -529.3809799221036, 0.3410997859336937, 1338.4457653361642, -9.911345478330245], [-15923.952657321375, 40574.48666525456, 6890.66892005717, 37306.95372035097, -1508.871857976431, 69217.10789296856, -40165.65423609662, 6189.637128631709, 1553.9984911367396, -8008.267699360282, -46409.55903610005, -4197.861299345392, -7490.647678339215, -1302.2450865946428, 12723.718761805483, -16322.28241744648, 10307.322222932744, -1513.100358220582, -47688.726337796805, 5663.438606930199], [63580.073296079, -102739.99065607892, 4073.858296930053, -19431.783853327197, 2094.5489321900277, -40165.654234820926, 79243.46633767606, 37681.81222773272, 6290.262766185732, -429.9898901958862, 19626.831636098923, 1489.074762567458, -525.1006838523372, -33591.09781603224, -23969.253423996273, 20844.496162942392, -47123.9022705803, -400.50964511802295, 33667.94978560754, -96.04682784408305], [42707.94661287228, -61597.06289808337, 24642.474562980755, 1005.6150210921862, 528.3818470461118, 6189.6371305368975, 37681.812226484435, 79536.15483287294, 4051.3244938382395, -278.3122073839259, -14179.732875002075, -10858.188300862186, -26323.699718861215, -75930.15090574426, -23662.196645344175, 36747.09876487009, -26917.362541801267, -1573.1758566490166, 1662.1626429995656, 6567.531138260726], [10370.903628537975, -11058.19796250627, 26.785875594974286, 171.82554978713054, -298.37783404561054, 1553.9984913724707, 6290.262765911428, 4051.3244937038953, 3224.606148110198, -723.3486472365578, -748.3520904912377, 494.6341151536611, 676.1478672625565, -2083.1216333322195, -763.9739895072681, -407.18882400355835, -9479.867292516145, -77.38027610104821, -1247.304858372551, 34.97082362018332], [-2126.692242650027, 1869.2365102942256, -1762.1205570230898, -4231.99795907581, 83.1237848488865, -8008.26769931551, -429.9898901138445, -278.3122072064868, -723.3486472209278, 6941.951458117624, 6789.235068523448, -2978.196529941349, -3213.865319898874, -1170.0528945773501, -908.180945078542, 4310.667570321707, 1945.4612451265734, 1273.5230397276687, 4554.167658273153, -1909.4087990214257], [6141.346807436721, -18336.48268938657, -11347.459341352007, -29128.052427768675, 682.5736222266621, -46409.55903630042, 19626.831637010226, -14179.732873771829, -748.35209036577, 6789.235068583414, 36811.230340016824, 6508.11058303387, 12245.166224240875, 12667.99224366492, -4384.770185487124, 3486.703661711213, -4351.650036246943, 1966.1226345421908, 29106.18197760951, -7074.512207659755], [808.7198020060599, -1083.637891813095, -10618.482697268159, -3547.864176162487, -14.866520702286282, -4197.861299630382, 1489.0747628091756, -10858.188300705478, 494.63411514947063, -2978.196529895078, 6508.110583216731, 9603.121049510522, 12743.44017466127, 13293.792491904556, 2080.0728271196226, -9920.871511630037, -1420.0825620391918, 841.9133654963576, 1648.1381723970194, -4873.728897593607], [-1816.7849394127181, 3264.2792798281635, -17397.29343967504, -6705.289128696915, -61.584972819652215, -7490.647678940652, -525.1006833837436, -26323.699718648168, 676.1478672423586, -3213.865319815333, 12245.166224628925, 12743.44017468054, 21945.50848500748, 30072.072492188556, 5847.504473142094, -19681.18100048591, -710.7009857835467, 1104.165015585776, 2419.442073441069, -6380.097235067068], [-34273.288120793506, 53109.83246533249, -27461.903902548598, 377.4298798214011, -634.6729401160906, -1302.2450883609824, -33591.09781501531, -75930.15090590592, -2083.1216334770347, -1170.0528944049988, 12667.992244835104, 13293.792492076267, 30072.072492439376, 76095.6053610144, 23128.281326221153, -40920.33623434301, 20041.796475319457, 1665.105195195638, -5629.935567826049, -7452.4723311611315], [-19427.273891472538, 31277.24873708076, -5496.693628101389, 6004.828128965651, -822.2842165945768, 12723.71876122193, -23969.253423914954, -23662.196645780637, -763.9739896086959, -908.180945033056, -4384.770185068927, 2080.072827224776, 5847.504473334088, 23128.281326570388, 11887.172703769129, -13805.223642091312, 12719.755476458204, 256.2473880516074, -11740.249899090013, -975.0503390521073], [14556.458277627135, -28134.3209454586, 17338.687694451583, -9002.228924997202, 599.6433855538397, -16322.282416567781, 20844.49616275787, 36747.098765384566, -407.1888238783345, 4310.667570235334, 3486.703661070441, -9920.871511784819, -19681.181000752425, -40920.33623474671, -13805.223642056048, 29718.420190701505, -7372.522685732613, -708.4841247966432, 14513.695636021108, 4176.9943401499995], [-51461.96573053969, 67893.62283732678, -1996.028539365763, 5850.3440692890135, -529.3809798816378, 10307.322221836317, -47123.902269898055, -26917.362541953273, -9479.867292626057, 1945.4612452007595, -4351.650035570105, -1420.0825619561292, -710.7009856520898, 20041.7964753526, 12719.755476235903, -7372.522685486954, 41931.54609270075, 368.20990752098635, -9524.070544989743, -246.44204176019718], [-574.9759853929703, 807.071053576286, -2089.898451616566, -1072.7008057878957, 0.34109978712992667, -1513.1003582520998, -400.50964507951943, -1573.175856605784, -77.3802761011962, 1273.523039734358, 1966.1226345572454, 841.9133654880058, 1104.1650155690772, 1665.1051951492059, 256.2473880322301, -708.4841247625137, 368.209907505803, 610.4358896907785, 639.2508587882044, -1513.96711311731], [14854.053409042768, -35040.18362041498, -1969.4736566661938, -23724.718138348777, 1338.4457653376905, -47688.72633767999, 33667.949786472695, 1662.1626443762907, -1247.30485818701, 4554.167658289049, 29106.181977390865, 1648.1381721909459, 2419.442073006524, -5629.935569085394, -11740.249899486838, 14513.69563661364, -9524.070545796874, 639.2508587629196, 34822.10746300792, -2586.6640553000843], [774.7974721190276, -848.4596303897662, 7829.434299839701, 4148.22144343578, -9.911345483325135, 5663.438607080635, -96.04682801698597, 6567.531138090108, 34.9708236181751, -1909.4087990504922, -7074.512207741843, -4873.728897570307, -6380.097235014655, -7452.4723309812325, -975.0503389702508, 4176.994340016228, -246.44204168658084, -1513.9671131192442, -2586.664055416106, 4757.63803549498]], "optimal_y_mu": [[-9.97763440071293], [-9.918679098417487], [-8.267999250327144], [-8.73969553885131], [-10.086545465178748], [-9.464073309658083], [-9.923971123025941], [-9.752470894787498], [-10.047720292622628], [-7.332518223966881], [-9.053732398979708], [-6.198119198199053], [-8.779245025798312], [-9.64903584530218], [-9.858458507177492], [-9.320397422435768], [-10.01355035191555], [2.164552249642316], [-9.637669500524288], [-3.2451549245178724]], "training_R2": 0.9999995712642091, "training_rmse": 0.0019041696866005046}, "map": {"x_data_columns": "list", "x_data": "numpy", "x_data_min": "numpy", "x_data_max": "numpy", "x_data_scaled": "numpy", "optimal_weights": "numpy", "optimal_p": "str", "optimal_mean": "numpy", "optimal_variance": "numpy", "regularization_parameter": "str", "optimal_covariance_matrix": "numpy", "covariance_matrix_inverse": "numpy", "optimal_y_mu": "numpy", "training_R2": "str", "training_rmse": "str"}}, "S_aa": {"attr": {"x_data_columns": ["inf_fr", "temp", "hrt"], "x_data": [[9.62, 24.21, 9.97], [7.6, 29.05, 9.24], [9.06, 27.98, 3.67], [6.71, 27.84, 4.3], [5.36, 27.03, 11.82], [7.09, 24.66, 6.14], [6.31, 30.7, 9.3], [5.55, 31.95, 7.72], [7.79, 31.75, 11.08], [9.87, 32.81, 2.91], [6.06, 22.9, 4.9], [8.25, 29.43, 2.38], [9.41, 33.07, 4.37], [5.94, 34.29, 7.05], [5.16, 25.28, 8.6], [6.99, 34.67, 5.63], [8.78, 26.17, 10.5], [8.25, 22.25, 1.18], [7.34, 23.58, 6.97], [8.52, 30.11, 1.71]], "x_data_min": [[5.16, 22.25, 1.18]], "x_data_max": [[9.87, 34.67, 11.82]], "x_data_scaled": [[0.9469214437367304, 0.15780998389694045, 0.8261278195488723], [0.5180467091295117, 0.5475040257648953, 0.7575187969924813], [0.8280254777070066, 0.4613526570048309, 0.23402255639097744], [0.3290870488322718, 0.45008051529790655, 0.2932330827067669], [0.04246284501061576, 0.3848631239935588, 1.0], [0.40976645435244163, 0.1940418679549114, 0.46616541353383456], [0.24416135881104029, 0.6803542673107889, 0.7631578947368421], [0.08280254777070059, 0.7809983896940417, 0.6146616541353384], [0.5583864118895967, 0.7648953301127213, 0.9304511278195489], [1.0, 0.8502415458937199, 0.162593984962406], [0.19108280254777063, 0.052334943639291344, 0.349624060150376], [0.6560509554140128, 0.5780998389694041, 0.11278195488721804], [0.902335456475584, 0.8711755233494363, 0.299812030075188], [0.16560509554140135, 0.9694041867954909, 0.5516917293233082], [0.0, 0.2439613526570049, 0.6973684210526315], [0.38853503184713384, 1.0, 0.4182330827067669], [0.7685774946921443, 0.3156199677938809, 0.8759398496240601], [0.6560509554140128, 0.0, 0.0], [0.46284501061571126, 0.10708534621578085, 0.5441729323308271], [0.713375796178344, 0.6328502415458935, 0.04981203007518797]], "optimal_weights": [0.001, 0.0053791840513387505, 8.011217154633497], "optimal_p": 2, "optimal_mean": [[5.052881012182496]], "optimal_variance": [[31.61247978372781]], "regularization_parameter": 1e-06, "optimal_covariance_matrix": [[1.000001, 0.9620284938344984, 0.06025609724568867, 0.10271048883368078, 0.7840466545826108, 0.35404455698115067, 0.9668336343726404, 0.6969226132492675, 0.9145506993463293, 0.02931260112721671, 0.1620865677669954, 0.016947391136152075, 0.10840152410775401, 0.5447001568050358, 0.8748048767782426, 0.2626275567508124, 0.980156026896592, 0.004220627240365562, 0.5288087807116288, 0.007991648120206795], [0.9620284938344984, 1.000001, 0.11129214867856432, 0.1778180324970638, 0.6241247082820193, 0.5062471367579514, 0.9995753866791294, 0.8487615973348068, 0.7867568581275597, 0.05864929721958516, 0.2633379579896485, 0.035786961536880706, 0.1865557722509815, 0.7114321875886198, 0.9706890229493277, 0.3971950524149803, 0.8934207222671555, 0.010064447363285486, 0.6937187437490716, 0.018088364765920857], [0.06025609724568867, 0.11129214867856432, 1.000001, 0.9720616598012202, 0.00908617293703845, 0.6490235635946586, 0.10607454592742797, 0.31291641820053445, 0.02052501614163914, 0.9591415141271188, 0.8972998665974679, 0.8888186613483307, 0.9650420811915756, 0.44473848299866164, 0.17891165053463406, 0.7606342494083627, 0.03683884631195077, 0.6440871121865855, 0.4623497992199578, 0.76183892088057], [0.10271048883368078, 0.1778180324970638, 0.9720616598012202, 1.000001, 0.018281529916403947, 0.7866755873665154, 0.17043451071655402, 0.43677406125848967, 0.03863815239495836, 0.8710677543365896, 0.9739987594819308, 0.7702337793746944, 0.9983721244709571, 0.5847132234001663, 0.27015163863630276, 0.880904966501262, 0.06584336807774321, 0.5015528864669094, 0.6034310185380252, 0.6218710652575239], [0.7840466545826108, 0.6241247082820193, 0.00908617293703845, 0.018281529916403947, 1.000001, 0.1019408673054155, 0.6376963524324022, 0.3041006768558626, 0.9609876840727225, 0.003624863762534336, 0.03373320795048385, 0.00182412679126393, 0.019651208123221624, 0.19949820510829616, 0.48007021179633436, 0.06629945123542627, 0.8835096690706024, 0.00033133175362354126, 0.18916247292162378, 0.0007217975606836871], [0.35404455698115067, 0.5062471367579514, 0.6490235635946586, 0.7866755873665154, 0.1019408673054155, 1.000001, 0.49266528246611424, 0.8364265659645733, 0.17751808252503462, 0.4766640836448661, 0.8967633391786922, 0.3674037732591355, 0.7989898499922871, 0.9399829285081996, 0.6515379917654034, 0.978337635884322, 0.26043225905001505, 0.1753129986961408, 0.952378124041769, 0.249106797166478], [0.9668336343726404, 0.9995753866791294, 0.10607454592742797, 0.17043451071655402, 0.6376963524324022, 0.49266528246611424, 1.000001, 0.8380001977973828, 0.7990375605111527, 0.05556574348606944, 0.2535676775453749, 0.03374639999441668, 0.17896726078397102, 0.698583390643413, 0.9648731766113408, 0.38531657847321954, 0.9022249087306957, 0.00938659809842008, 0.6797781085768597, 0.016960996924354908], [0.6969226132492675, 0.8487615973348068, 0.31291641820053445, 0.43677406125848967, 0.3041006768558626, 0.8364265659645733, 0.8380001977973828, 1.000001, 0.44971999796913914, 0.1943526749572137, 0.5680106203511549, 0.13286239155592477, 0.45164011449105085, 0.9685414783684251, 0.9452004435090238, 0.7338447820444424, 0.577797734234811, 0.04830021695032875, 0.9584935465011375, 0.07757303827698817], [0.9145506993463293, 0.7867568581275597, 0.02052501614163914, 0.03863815239495836, 0.9609876840727225, 0.17751808252503462, 0.7990375605111527, 0.44971999796913914, 1.000001, 0.008882389902843442, 0.06683482300785776, 0.0047180493398529255, 0.041325085750255945, 0.31674510640800885, 0.6459705641931439, 0.1221863671326008, 0.9753731854861132, 0.0009694494240770316, 0.3018885854986158, 0.002003181198607225], [0.02931260112721671, 0.05864929721958516, 0.9591415141271188, 0.8710677543365896, 0.003624863762534336, 0.4766640836448661, 0.05556574348606944, 0.1943526749572137, 0.008882389902843442, 1.000001, 0.7525307629300001, 0.9798121313140833, 0.8599737302711822, 0.29711165164724923, 0.10085668194362332, 0.5921244929210309, 0.0169379670738357, 0.8058981188593356, 0.3104561697973873, 0.9028153761259589], [0.1620865677669954, 0.2633379579896485, 0.8972998665974679, 0.9739987594819308, 0.03373320795048385, 0.8967633391786922, 0.2535676775453749, 0.5680106203511549, 0.06683482300785776, 0.7525307629300001, 1.000001, 0.6369361677151818, 0.9762951194059577, 0.7177504135270967, 0.3794624581790218, 0.9583135565080205, 0.1086221310942783, 0.37549957210484036, 0.738371163120103, 0.48568652642661586], [0.016947391136152075, 0.035786961536880706, 0.8888186613483307, 0.7702337793746944, 0.00182412679126393, 0.3674037732591355, 0.03374639999441668, 0.13286239155592477, 0.0047180493398529255, 0.9798121313140833, 0.6369361677151818, 1.000001, 0.7552117818610224, 0.2134485612116104, 0.06464819862534248, 0.47308568486012836, 0.009407989293072952, 0.9014970085783055, 0.22489905522030051, 0.9687142708951698], [0.10840152410775401, 0.1865557722509815, 0.9650420811915756, 0.9983721244709571, 0.019651208123221624, 0.7989898499922871, 0.17896726078397102, 0.45164011449105085, 0.041325085750255945, 0.8599737302711822, 0.9762951194059577, 0.7552117818610224, 1.000001, 0.6011845067022562, 0.28108113266905715, 0.8934195993428137, 0.06989316036170894, 0.484688202230645, 0.6177314225877503, 0.6058987961757403], [0.5447001568050358, 0.7114321875886198, 0.44473848299866164, 0.5847132234001663, 0.19949820510829616, 0.9399829285081996, 0.698583390643413, 0.9685414783684251, 0.31674510640800885, 0.29711165164724923, 0.7177504135270967, 0.2134485612116104, 0.6011845067022562, 1.000001, 0.8412470128099045, 0.8669758067164369, 0.4295844619009251, 0.08684591654888633, 0.9954691235493126, 0.13281466504654676], [0.8748048767782426, 0.9706890229493277, 0.17891165053463406, 0.27015163863630276, 0.48007021179633436, 0.6515379917654034, 0.9648731766113408, 0.9452004435090238, 0.6459705641931439, 0.10085668194362332, 0.3794624581790218, 0.06464819862534248, 0.28108113266905715, 0.8412470128099045, 1.000001, 0.5339612704499717, 0.7740815385779881, 0.02030704454809852, 0.8283420378841594, 0.03471232940273709], [0.2626275567508124, 0.3971950524149803, 0.7606342494083627, 0.880904966501262, 0.06629945123542627, 0.978337635884322, 0.38531657847321954, 0.7338447820444424, 0.1221863671326008, 0.5921244929210309, 0.9583135565080205, 0.47308568486012836, 0.8934195993428137, 0.8669758067164369, 0.5339612704499717, 1.000001, 0.1861918412492131, 0.24493457790327186, 0.8769029041542392, 0.33681355327437534], [0.980156026896592, 0.8934207222671555, 0.03683884631195077, 0.06584336807774321, 0.8835096690706024, 0.26043225905001505, 0.9022249087306957, 0.577797734234811, 0.9753731854861132, 0.0169379670738357, 0.1086221310942783, 0.009407989293072952, 0.06989316036170894, 0.4295844619009251, 0.7740815385779881, 0.1861918412492131, 1.000001, 0.002139207021554601, 0.4139060104824089, 0.004219252329673162], [0.004220627240365562, 0.010064447363285486, 0.6440871121865855, 0.5015528864669094, 0.00033133175362354126, 0.1753129986961408, 0.00938659809842008, 0.04830021695032875, 0.0009694494240770316, 0.8058981188593356, 0.37549957210484036, 0.9014970085783055, 0.484688202230645, 0.08684591654888633, 0.02030704454809852, 0.24493457790327186, 0.002139207021554601, 1.000001, 0.09325532420335689, 0.9782056202122039], [0.5288087807116288, 0.6937187437490716, 0.4623497992199578, 0.6034310185380252, 0.18916247292162378, 0.952378124041769, 0.6797781085768597, 0.9584935465011375, 0.3018885854986158, 0.3104561697973873, 0.738371163120103, 0.22489905522030051, 0.6177314225877503, 0.9954691235493126, 0.8283420378841594, 0.8769029041542392, 0.4139060104824089, 0.09325532420335689, 1.000001, 0.14093834822965284], [0.007991648120206795, 0.018088364765920857, 0.76183892088057, 0.6218710652575239, 0.0007217975606836871, 0.249106797166478, 0.016960996924354908, 0.07757303827698817, 0.002003181198607225, 0.9028153761259589, 0.48568652642661586, 0.9687142708951698, 0.6058987961757403, 0.13281466504654676, 0.03471232940273709, 0.33681355327437534, 0.004219252329673162, 0.9782056202122039, 0.14093834822965284, 1.000001]], "covariance_matrix_inverse": [[86707.11001629443, -121938.89703774691, 3400.414266911898, -9754.191801165516, 1589.043499440537, -21666.979006563266, 87182.48734255793, 47911.78285286026, 12581.50525269103, -5173.653970953679, 7672.628326038841, 3055.0857726753607, 2778.135429647553, -35945.53710415119, -25152.848905299532, 12624.306130064831, -67080.34611656379, -964.3838707554173, 21187.08439810855, 1100.7814711168874], [-121938.8970371301, 191977.68914042658, -7163.142928800916, 26612.898228075665, -3169.535382260329, 59352.624123455455, -143833.5907822202, -73622.87012686116, -13125.419618264155, 6923.0190785882005, -25271.09054131177, -4628.90723663288, -3163.8707734201544, 61173.69267853017, 43301.981703013145, -30316.725929218006, 89524.09796913505, 1669.5155154482165, -52700.938329632954, -1771.9180494820732], [3400.4142671450804, -7163.142929108551, 29587.21868974162, 5642.902797228809, 130.64431797999214, 10934.972022882084, 3233.1338338513806, 33837.239337201114, -670.0296836075711, -1931.2257469835367, -18279.618297249184, -15854.819098359512, -27314.235604719936, -39602.41028391097, -7268.689774803123, 26159.38408774957, -134.25566955942253, -2817.2942587991024, -2981.185091973926, 11058.146589005977], [-9754.191800130286, 26612.89822663961, 5642.902797258555, 38908.24557470154, -423.57165999323485, 53709.78785568074, -23787.68059411314, -292.4339824619167, 504.369625857865, -3931.7549777293307, -41984.20305380321, -7451.280996067487, -11683.481754051925, 1632.5070314371687, 8110.738390340626, -12236.844638429822, 5208.430311579234, -1025.5213252617184, -33529.85910213429, 5715.627360817068], [1589.0434994177829, -3169.5353822403013, 130.64431797805696, -423.57166001303915, 256.38879731117333, -1773.0347419062734, 3070.004412210491, 712.3431624633912, -341.4984660533078, 79.51430613235007, 627.1178295946294, -98.70350234694502, -173.5237712757791, -843.0679926051713, -1158.389079417143, 730.7990877718663, -961.1679314133368, -9.585763825461639, 1719.15946418813, 44.91451208310463], [-21666.979004559915, 59352.62412067816, 10934.972022937232, 53709.78785572228, -1773.034741867679, 102595.86228993851, -57663.20277964763, 7083.037506208617, 2460.977942743941, -7441.098729541527, -67572.94298307797, -8369.656320930559, -14481.18942987857, -1215.1061641421045, 18897.748296574093, -22199.360300291028, 12539.882719993971, -1200.1148948861116, -70865.53986006185, 6746.215818722822], [87182.48734182307, -143833.59078179803, 3233.1338336339877, -23787.680595124624, 3070.004412218748, -57663.202781595144, 113049.48485158986, 44743.84197176983, 7415.779829447717, -3892.8004348541267, 26081.924732558327, 3713.9688874737385, 4097.587863082134, -38424.38373165385, -33829.422081019206, 22932.004132916518, -63627.95701184373, -1066.3109024531848, 49971.55452508429, 782.379667850115], [47911.782853320576, -73622.87012785373, 33837.23933723345, -292.43398301819565, 712.3431624830692, 7083.037505078192, 44743.84197262773, 109363.62197077052, 3017.053165999136, -1643.2368409206672, -18736.683343022665, -12867.614016914016, -35610.670007495595, -106759.18583868098, -31927.83382430795, 52570.49056534185, -27392.12048015637, -2182.0029638781593, 3468.2690752829058, 8306.014526041268], [12581.505252791123, -13125.419618487193, -670.0296836572024, 504.36962571178253, -341.49846604840087, 2460.9779424656317, 7415.779829645622, 3017.0531659798735, 3920.5069964494332, -1154.732840529566, -975.3875546838125, 989.638345344512, 1866.8536573261124, -301.2088365677721, -328.61146413817806, -2039.5972013034568, -11611.94337788014, -87.32449118581893, -2051.965340111233, -58.368618892471524], [-5173.653971161394, 6923.019078975059, -1931.2257469927767, -3931.7549776150067, 79.51430612297952, -7441.0987292793625, -3892.800435174327, -1643.2368410361996, -1154.7328405359326, 9266.845231662423, 6964.751023739473, -4275.123337479625, -5092.481671158518, -635.5401739205591, -250.49476637615658, 5050.6473625682165, 4101.696647832196, 1704.9787847363189, 3831.0907806236, -2473.2996315307623], [7672.628324688879, -25271.09053940621, -18279.618297292513, -41984.203053755984, 627.1178295678659, -67572.94298292536, 26081.924731201023, -18736.683343709174, -975.3875548712751, 6964.7510238732375, 53785.513158288966, 11793.9136052444, 21005.514563755714, 17964.0169036331, -6125.1969858353605, 3379.6495801158776, -4628.417683448196, 2170.0558017490844, 41808.58144739671, -9594.015583010027], [3055.085772552156, -4628.907236533507, -15854.819098344014, -7451.280996111889, -98.70350234456788, -8369.656321045044, 3713.968887431352, -12867.614016876274, 989.6383453032809, -4275.123337472866, 11793.913605293874, 14105.685279234782, 19506.89116302644, 17280.975944955597, 2168.353202439942, -13666.398837594996, -3054.7697707183497, 1028.9066859564755, 3431.869003270591, -6806.671307813037], [2778.135429401855, -3163.8707731835575, -27314.235604740054, -11683.481754138365, -173.52377127311988, -14481.189430066695, 4097.587862959527, -35610.670007487475, 1866.8536572543571, -5092.481671147015, 21005.514563862293, 19506.89116305538, 34554.74418229122, 43200.74540457488, 7154.304728982007, -29502.994351803496, -4743.45516615644, 1433.9473380470185, 5421.214338583378, -9227.191029451275], [-35945.53710441521, 61173.69267911687, -39602.41028397912, 1632.5070317994046, -843.0679926151646, -1215.1061634010225, -38424.383732164526, -106759.18583860493, -301.2088365872165, -635.5401740340582, 17964.016903183274, 17280.975945037906, 43200.745404648784, 110058.5677859767, 31590.347733927458, -60625.44793614625, 17656.70353232195, 2385.455590342908, -8575.998179595783, -9987.040145215078], [-25152.848905098046, 43301.98170290659, -7268.68977479784, 8110.738390618657, -1158.3890794193333, 18897.748297120965, -33829.422081024764, -31927.83382410373, -328.6114640843236, -250.49476648597775, -6125.196986198652, 2168.3532024730575, 7154.304729019694, 31590.34773383978, 16576.71722723299, -18785.512046545748, 15661.512802794528, 505.96343445816547, -17683.738257079076, -1490.839230451702], [12624.3061296683, -30316.725928645414, 26159.384087780658, -12236.844638447692, 730.7990877602331, -22199.36030030377, 22932.00413250468, 52570.49056498557, -2039.5972013367498, 5050.647362665084, 3379.6495801661613, -13666.398837680465, -29502.994351899364, -60625.44793588651, -18785.51204636953, 44478.38068435069, -3735.798020318671, -1242.340804798437, 20217.1763632809, 6212.734421311109], [-67080.34611664178, 89524.09796971026, -134.25566935570666, 5208.430312374582, -961.1679314319351, 12539.882721524522, -63627.95701247718, -27392.120479834684, -11611.94337781497, 4101.696647692929, -4628.41768448464, -3054.7697708402143, -4743.455166387164, 17656.70353212485, 15661.51280296832, -3735.798020593998, 54547.512712690994, 592.8105934355074, -12547.699728176975, -409.58385200520286], [-964.3838707866905, 1669.5155155033308, -2817.2942587998014, -1025.521325243319, -9.585763826618294, -1200.1148948459222, -1066.3109024988876, -2182.002963880854, -87.32449118852163, 1704.9787847335747, 2170.0558017260178, 1028.9066859577936, 1433.9473380446984, 2385.455590345386, 505.9634344691315, -1242.3408048080573, 592.8105934590161, 774.967037471063, 261.00127350774875, -1924.0388238010069], [21187.084396772858, -52700.938327833916, -2981.1850920058214, -33529.85910224885, 1719.1594641643405, -70865.53986023957, 49971.55452384913, 3468.2690744958095, -2051.9653403041093, 3831.0907808337174, 41808.58144761068, 3431.869003177681, 5421.214338441259, -8575.9981790961, -17683.73825673066, 20217.176363334864, -12547.699727152023, 261.0012735376065, 52264.712201800416, -2553.1358856254546], [1100.7814712541162, -1771.918049679145, 11058.146589000657, 5715.627360784498, 44.91451208563334, 6746.215818658017, 782.3796679970968, 8306.014526049978, -58.3686188701545, -2473.299631529046, -9594.015582968172, -6806.6713078128, -9227.191029431864, -9987.04014520433, -1490.8392304752497, 6212.7344213075685, -409.5838521173147, -1924.0388238007772, -2553.1358855781464, 6313.693385952144]], "optimal_y_mu": [[-4.300094021580884], [-4.250379046855107], [-3.140784586655819], [-3.416054462810016], [-4.395817011533046], [-3.8965042916548045], [-4.254543282101012], [-4.1148550834269235], [-4.361078405533891], [-2.6407068467267627], [-3.6136515843463313], [-2.0862596412974317], [-3.4408069921958684], [-4.0345302858378815], [-4.200114626298471], [-3.7944446296173577], [-4.3310977791179965], [1.2256868312930056], [-4.025345708173493], [-0.8548705630695563]], "training_R2": 0.9999993513188298, "training_rmse": 0.0011055579033206777}, "map": {"x_data_columns": "list", "x_data": "numpy", "x_data_min": "numpy", "x_data_max": "numpy", "x_data_scaled": "numpy", "optimal_weights": "numpy", "optimal_p": "str", "optimal_mean": "numpy", "optimal_variance": "numpy", "regularization_parameter": "str", "optimal_covariance_matrix": "numpy", "covariance_matrix_inverse": "numpy", "optimal_y_mu": "numpy", "training_R2": "str", "training_rmse": "str"}}, "S_fa": {"attr": {"x_data_columns": ["inf_fr", "temp", "hrt"], "x_data": [[9.62, 24.21, 9.97], [7.6, 29.05, 9.24], [9.06, 27.98, 3.67], [6.71, 27.84, 4.3], [5.36, 27.03, 11.82], [7.09, 24.66, 6.14], [6.31, 30.7, 9.3], [5.55, 31.95, 7.72], [7.79, 31.75, 11.08], [9.87, 32.81, 2.91], [6.06, 22.9, 4.9], [8.25, 29.43, 2.38], [9.41, 33.07, 4.37], [5.94, 34.29, 7.05], [5.16, 25.28, 8.6], [6.99, 34.67, 5.63], [8.78, 26.17, 10.5], [8.25, 22.25, 1.18], [7.34, 23.58, 6.97], [8.52, 30.11, 1.71]], "x_data_min": [[5.16, 22.25, 1.18]], "x_data_max": [[9.87, 34.67, 11.82]], "x_data_scaled": [[0.9469214437367304, 0.15780998389694045, 0.8261278195488723], [0.5180467091295117, 0.5475040257648953, 0.7575187969924813], [0.8280254777070066, 0.4613526570048309, 0.23402255639097744], [0.3290870488322718, 0.45008051529790655, 0.2932330827067669], [0.04246284501061576, 0.3848631239935588, 1.0], [0.40976645435244163, 0.1940418679549114, 0.46616541353383456], [0.24416135881104029, 0.6803542673107889, 0.7631578947368421], [0.08280254777070059, 0.7809983896940417, 0.6146616541353384], [0.5583864118895967, 0.7648953301127213, 0.9304511278195489], [1.0, 0.8502415458937199, 0.162593984962406], [0.19108280254777063, 0.052334943639291344, 0.349624060150376], [0.6560509554140128, 0.5780998389694041, 0.11278195488721804], [0.902335456475584, 0.8711755233494363, 0.299812030075188], [0.16560509554140135, 0.9694041867954909, 0.5516917293233082], [0.0, 0.2439613526570049, 0.6973684210526315], [0.38853503184713384, 1.0, 0.4182330827067669], [0.7685774946921443, 0.3156199677938809, 0.8759398496240601], [0.6560509554140128, 0.0, 0.0], [0.46284501061571126, 0.10708534621578085, 0.5441729323308271], [0.713375796178344, 0.6328502415458935, 0.04981203007518797]], "optimal_weights": [0.001, 0.008198042151568637, 8.850492794047565], "optimal_p": 2, "optimal_mean": [[56.30179950410318]], "optimal_variance": [[2485.300215373848]], "regularization_parameter": 1e-06, "optimal_covariance_matrix": [[1.000001, 0.9578252567814296, 0.04488499423310176, 0.08091009815727197, 0.7642925349599848, 0.31756155232009586, 0.962880040896251, 0.6705169331424066, 0.9052941109926157, 0.020229705147118714, 0.13395940047315325, 0.011051213294835362, 0.08579161997438454, 0.5103866352497315, 0.8626987917058426, 0.22794410000834966, 0.9780483695207561, 0.002380043326186605, 0.49467374142552833, 0.004816068032039483], [0.9578252567814296, 1.000001, 0.08842331844679036, 0.1483862540573674, 0.594029294050477, 0.47126914730548636, 0.9994989830220954, 0.8342195235896747, 0.7671535696705842, 0.04356559677758243, 0.22885988399491516, 0.02524697108330408, 0.15643028882179516, 0.6862367045398681, 0.9674946273685229, 0.36040819476358676, 0.8828333159149018, 0.00621247060584216, 0.6673528961105509, 0.011880496601912099], [0.04488499423310176, 0.08842331844679036, 1.000001, 0.9692053173130442, 0.0055528776739247636, 0.6201979993139789, 0.08384945507209919, 0.27700864491469784, 0.013657998589021293, 0.9546361765237724, 0.886873794889414, 0.8778871572980775, 0.9610877042068651, 0.4083254076983932, 0.1493922384514849, 0.7386728888703227, 0.026066812269765132, 0.614783248255025, 0.4263392146263179, 0.7403867329470781], [0.08091009815727197, 0.1483862540573674, 0.9692053173130442, 1.000001, 0.012020875211701913, 0.7670347622090636, 0.14158000625569972, 0.4003729466754425, 0.027472227935740303, 0.8582923903822892, 0.9709696721506879, 0.7494344648992846, 0.9978369720236545, 0.552413537685969, 0.23551831017937916, 0.8686876402392484, 0.049513931439166374, 0.46636676862777443, 0.5721780618701752, 0.591645914790029], [0.7642925349599848, 0.594029294050477, 0.0055528776739247636, 0.012020875211701913, 1.000001, 0.08024737338909017, 0.6082205869353473, 0.26835107249391926, 0.9567047871447033, 0.002011066425342965, 0.02364535778509555, 0.0009420993030232241, 0.01301374627161092, 0.1683700430202109, 0.4445269185782696, 0.04985206092463515, 0.87215878081642, 0.00014308330064097846, 0.1588571717576876, 0.000338263549585183], [0.31756155232009586, 0.47126914730548636, 0.6201979993139789, 0.7670347622090636, 0.08024737338909017, 1.000001, 0.4572066273863877, 0.8202921874432169, 0.14800389647354467, 0.4406514766193552, 0.8865490370417113, 0.33070840255949824, 0.7796383176180075, 0.9326481023497837, 0.6229494323353651, 0.9746666910164441, 0.22618971089646334, 0.1460696631819792, 0.9475064013575694, 0.2152608137808736], [0.962880040896251, 0.9994989830220954, 0.08384945507209919, 0.14158000625569972, 0.6082205869353473, 0.4572066273863877, 1.000001, 0.822610487136918, 0.7804720884027093, 0.04104947727940751, 0.21942143841852949, 0.023661281549825934, 0.14944324232796713, 0.6726925328856859, 0.9608585913653651, 0.3486003090003749, 0.8923098565727826, 0.005749860751361949, 0.6523577324998229, 0.011065523649404706], [0.6705169331424066, 0.8342195235896747, 0.27700864491469784, 0.4003729466754425, 0.26835107249391926, 0.8202921874432169, 0.822610487136918, 1.000001, 0.41361242084384553, 0.163717468715013, 0.5346907739028064, 0.10753307077453034, 0.41557582936392146, 0.9652270355989733, 0.9390258820320091, 0.7103654635388789, 0.5452907441175071, 0.03511508529601532, 0.953283694560911, 0.059345890850300814], [0.9052941109926157, 0.7671535696705842, 0.013657998589021293, 0.027472227935740303, 0.9567047871447033, 0.14800389647354467, 0.7804720884027093, 0.41361242084384553, 1.000001, 0.005415197489912013, 0.05028238891037089, 0.002691696759818492, 0.02959641373944105, 0.28078186791516035, 0.6167064796918197, 0.09802211959685013, 0.972390312506704, 0.0004680079045489045, 0.266030041681601, 0.00104478167647951], [0.020229705147118714, 0.04356559677758243, 0.9546361765237724, 0.8582923903822892, 0.002011066425342965, 0.4406514766193552, 0.04104947727940751, 0.163717468715013, 0.005415197489912013, 1.000001, 0.7294487894211711, 0.9775697451937436, 0.8464897229888259, 0.2616490528060415, 0.07925299661532682, 0.5604869110910875, 0.01104166932839312, 0.7866093786398874, 0.27431725559284464, 0.8931097444854899], [0.13395940047315325, 0.22885988399491516, 0.886873794889414, 0.9709696721506879, 0.02364535778509555, 0.8865490370417113, 0.21942143841852949, 0.5346907739028064, 0.05028238891037089, 0.7294487894211711, 1.000001, 0.6071717793914121, 0.972424492876972, 0.6919283701723042, 0.3428050071372955, 0.9521216991190065, 0.08607279958694873, 0.3388844143208921, 0.7152786695877467, 0.4499665635645801], [0.011051213294835362, 0.02524697108330408, 0.8778871572980775, 0.7494344648992846, 0.0009420993030232241, 0.33070840255949824, 0.023661281549825934, 0.10753307077453034, 0.002691696759818492, 0.9775697451937436, 0.6071717793914121, 1.000001, 0.7331849751802352, 0.181505270162639, 0.04851292907775233, 0.4372346564512254, 0.005769368009086109, 0.8910845096460603, 0.19225807615564391, 0.9654876815301989], [0.08579161997438454, 0.15643028882179516, 0.9610877042068651, 0.9978369720236545, 0.01301374627161092, 0.7796383176180075, 0.14944324232796713, 0.41557582936392146, 0.02959641373944105, 0.8464897229888259, 0.972424492876972, 0.7331849751802352, 1.000001, 0.5699953497057988, 0.24589042241863307, 0.8829247227411746, 0.05285343299839837, 0.4485078826071309, 0.586570572937313, 0.574843674556332], [0.5103866352497315, 0.6862367045398681, 0.4083254076983932, 0.552413537685969, 0.1683700430202109, 0.9326481023497837, 0.6726925328856859, 0.9652270355989733, 0.28078186791516035, 0.2616490528060415, 0.6919283701723042, 0.181505270162639, 0.5699953497057988, 1.000001, 0.825171301210314, 0.8541099376307464, 0.392829119534661, 0.0670904276044573, 0.9933375894003151, 0.10747259786487305], [0.8626987917058426, 0.9674946273685229, 0.1493922384514849, 0.23551831017937916, 0.4445269185782696, 0.6229494323353651, 0.9608585913653651, 0.9390258820320091, 0.6167064796918197, 0.07925299661532682, 0.3428050071372955, 0.04851292907775233, 0.24589042241863307, 0.825171301210314, 1.000001, 0.4993556732873989, 0.7536289395573345, 0.013499346410303628, 0.8121430594971076, 0.02440372489021679], [0.22794410000834966, 0.36040819476358676, 0.7386728888703227, 0.8686876402392484, 0.04985206092463515, 0.9746666910164441, 0.3486003090003749, 0.7103654635388789, 0.09802211959685013, 0.5604869110910875, 0.9521216991190065, 0.4372346564512254, 0.8829247227411746, 0.8541099376307464, 0.4993556732873989, 1.000001, 0.15596518425543726, 0.21089641875121742, 0.8633646895136298, 0.30043494570106777], [0.9780483695207561, 0.8828333159149018, 0.026066812269765132, 0.049513931439166374, 0.87215878081642, 0.22618971089646334, 0.8923098565727826, 0.5452907441175071, 0.972390312506704, 0.01104166932839312, 0.08607279958694873, 0.005769368009086109, 0.05285343299839837, 0.392829119534661, 0.7536289395573345, 0.15596518425543726, 1.000001, 0.0011232237130161045, 0.3773366900151798, 0.0023787601434809274], [0.002380043326186605, 0.00621247060584216, 0.614783248255025, 0.46636676862777443, 0.00014308330064097846, 0.1460696631819792, 0.005749860751361949, 0.03511508529601532, 0.0004680079045489045, 0.7866093786398874, 0.3388844143208921, 0.8910845096460603, 0.4485078826071309, 0.0670904276044573, 0.013499346410303628, 0.21089641875121742, 0.0011232237130161045, 1.000001, 0.07273182288243928, 0.9750692553467688], [0.49467374142552833, 0.6673528961105509, 0.4263392146263179, 0.5721780618701752, 0.1588571717576876, 0.9475064013575694, 0.6523577324998229, 0.953283694560911, 0.266030041681601, 0.27431725559284464, 0.7152786695877467, 0.19225807615564391, 0.586570572937313, 0.9933375894003151, 0.8121430594971076, 0.8633646895136298, 0.3773366900151798, 0.07273182288243928, 1.000001, 0.11471267157490589], [0.004816068032039483, 0.011880496601912099, 0.7403867329470781, 0.591645914790029, 0.000338263549585183, 0.2152608137808736, 0.011065523649404706, 0.059345890850300814, 0.00104478167647951, 0.8931097444854899, 0.4499665635645801, 0.9654876815301989, 0.574843674556332, 0.10747259786487305, 0.02440372489021679, 0.30043494570106777, 0.0023787601434809274, 0.9750692553467688, 0.11471267157490589, 1.000001]], "covariance_matrix_inverse": [[62702.955874606465, -87254.52438112738, 4631.267317130579, -7850.784968612306, 1108.5932523282888, -14907.074142063217, 61403.710781700865, 40457.569338643065, 9217.675966472852, -2463.964206373193, 5253.6536382674685, 784.0720545601012, -1389.4994548985344, -32247.370557738537, -18967.81320935669, 13218.495336399501, -48317.823191836746, -658.3849524278958, 14372.00211607165, 1012.9568547038895], [-87254.5243808645, 134925.32664068296, -7406.232800887179, 18564.43436801247, -2152.8428552317882, 37418.05614829544, -99286.3157987134, -57844.92654619908, -10090.656359665647, 2966.9517044705394, -16053.850560192272, -1335.0391039729454, 1954.2096781581433, 49089.25002315061, 30020.42498816465, -24848.447488263882, 64551.31920075852, 1032.5890446849226, -33045.55336897189, -1367.8971679757437], [4631.267317176795, -7406.232801019556, 17120.81401532245, 1122.5834802738093, 47.460337620143534, 5375.325988961781, 3675.9219015908498, 21675.887465371627, 114.70659997036962, -235.80916974645336, -8876.656372519468, -9533.516044245598, -15383.113649042089, -24174.28670137929, -4852.444451354856, 15557.940475819112, -2040.0105617721385, -1454.4639831545626, -1518.376637326974, 6132.954681129793], [-7850.784968552441, 18564.43436802366, 1122.583480422855, 24405.473144740514, -360.15633218819744, 31326.892880452546, -16202.145208074566, -2450.5627254120536, 138.61968948068375, -2971.7977721770617, -24607.480912802046, -3089.5638713287885, -5519.98977524541, 3381.940218253427, 5652.536885261903, -8863.847092218486, 4664.568409988609, -638.1864919564879, -19818.152801894557, 3056.8745464631024], [1108.5932523036981, -2152.842855199913, 47.46033761581262, -360.1563321792996, 179.52466422258428, -1300.8309534018038, 2093.7686441754313, 342.03995799792034, -207.1797503903009, 44.918832040111496, 520.00709464689, -30.63490046424785, -51.45399715977477, -439.58692656666824, -743.5999638576525, 457.5625761283297, -719.4757442385185, -7.0685223068306176, 1208.6253914182494, 17.82398375105217], [-14907.074141797517, 37418.05614803676, 5375.325989209227, 31326.89288031586, -1300.8309534118948, 60004.36546024395, -36279.40146722434, 2493.6729207343874, 1440.2003189422805, -5788.050005435423, -39220.10186516952, -3596.696197229536, -6282.94878225473, 1365.4317545703577, 12162.17773785567, -14785.346104564038, 9218.729308004396, -883.3339383944198, -41877.08546660621, 3991.88252840289], [61403.710781415204, -99286.31579857015, 3675.9219014688597, -16202.145208003154, 2093.7686441972232, -36279.40146733061, 76731.54984835211, 34828.634948323626, 5786.801859912093, -1600.747487030781, 16626.881798504968, 1519.248686747308, 286.90634135435727, -30357.226101493074, -22831.16810821596, 17854.945625593722, -45295.61988228781, -651.1973980156909, 31274.70503371522, 561.8941033475054], [40457.56933846121, -57844.92654611696, 21675.887465319447, -2450.5627255922896, 342.0399580073635, 2493.6729204047174, 34828.63494832531, 74231.11718762372, 4244.742921675098, 1043.5113017145309, -9385.463038644697, -9514.739411952567, -23588.99976851656, -70563.59745388999, -21845.743785117018, 34912.60863427152, -25683.585790467972, -1135.3504848106772, 2696.6058670279326, 5085.785423137433], [9217.6759665751, -10090.656359856064, 114.70659998015523, 138.61968943862578, -207.1797503846836, 1440.2003188515534, 5786.801860065539, 4244.742921760877, 2621.640871687548, -670.5839516291765, -734.9490092815097, 424.2681272958866, 530.8235330927665, -2402.4032735891024, -940.7019714105883, -189.96944316548277, -8152.769746565379, -77.13313056845917, -1097.6441688223429, 53.499562453094626], [-2463.964206359728, 2966.9517044230533, -235.80916980538814, -2971.7977722515875, 44.91883204226933, -5788.050005579168, -1600.747486970978, 1043.5113016218452, -670.583951631041, 6762.287018837, 4849.625065009792, -3854.7908165415065, -4821.353249216051, -2668.103738702636, -788.1385012931646, 5076.531571756772, 2176.120497239799, 1130.7200035528867, 3143.816950467184, -1304.0126127590058], [5253.65363816126, -16053.85056011044, -8876.65637269146, -24607.48091272529, 520.0070946539801, -39220.10186519276, 16626.881798501832, -9385.463038883448, -734.9490093246242, 4849.625064899558, 30703.87460871011, 5579.259697401545, 10154.500791973105, 8272.352335576728, -4338.877279097904, 3886.476511934913, -3274.682669832659, 1308.3062986200025, 24733.649705115116, -5314.232032667273], [784.0720545102832, -1335.0391038634875, -9533.516044233329, -3089.56387120473, -30.63490046681176, -3596.6961970284947, 1519.2486866474505, -9514.739411955989, 424.2681272949996, -3854.7908165829463, 5579.259697255064, 9239.716850009028, 12280.630209346104, 11925.831141213852, 1823.800600911356, -9384.196173330394, -1198.6176810946552, 408.337402452437, 1445.1624414234268, -3895.8064800562747], [-1389.4994549243818, 1954.2096782496872, -15383.113649021287, -5519.9897750643595, -51.4539971621856, -6282.948781974492, 286.9063412621868, -23588.999768509115, 530.8235330982512, -4821.353249287753, 10154.500791758668, 12280.630209350533, 20958.013886101202, 27261.91707438577, 5126.063800693673, -18602.472861554208, -631.1404676830598, 543.4358262568696, 2217.711295169537, -5029.040615791144], [-32247.370557541268, 49089.25002303356, -24174.286701304998, 3381.9402184445835, -439.5869265744678, 1365.431754919008, -30357.22610146992, -70563.59745383824, -2402.403273507577, -2668.103738794618, 8272.352335315312, 11925.83114119698, 27261.917074369347, 70380.51558468335, 21136.338528311277, -38569.561277174995, 19096.0527758872, 1154.5672527698646, -5819.321716205568, -5818.9227538333735], [-18967.81320919166, 30020.424988004637, -4852.444451298655, 5652.5368852483325, -743.5999638617925, 12162.177737889611, -22831.16810812923, -21845.743785061546, -940.7019713551001, -788.1385012883857, -4338.877279117136, 1823.8006008773225, 5126.063800657203, 21136.338528270815, 11071.807998989543, -12570.733739979902, 12593.389819935632, 255.78243358782456, -11091.278243857587, -908.0666233170231], [13218.495336292006, -24848.447488228845, 15557.940475705867, -8863.847092354994, 457.56257613523366, -14785.346104856724, 17854.945625628283, 34912.60863414661, -189.9694432168848, 5076.5315717841795, 3886.4765121495716, -9384.196173264116, -18602.472861457896, -38569.56127707314, -12570.733740005922, 27913.69582578546, -6665.457855036787, -428.0012709963257, 12663.336796792866, 3387.559251440434], [-48317.823191937576, 64551.319201110746, -2040.0105617535175, 4664.568410055355, -719.4757442597327, 9218.729308245944, -45295.61988261795, -25683.585790671827, -8152.769746500355, 2176.120497253046, -3274.6826699279914, -1198.617681128892, -631.1404676947111, 19096.05277609495, 12593.389820095335, -6665.45785515031, 38760.858334995966, 442.56834343844974, -9089.038363931564, -521.9705277046701], [-658.3849524278357, 1032.589044684696, -1454.4639831627003, -638.186491960034, -7.068522306793556, -883.3339384020825, -651.1973980133495, -1135.3504848276932, -77.13313056785749, 1130.720003549624, 1308.3062986271038, 408.3374024589712, 543.4358262686684, 1154.5672527879938, 255.78243359051106, -428.0012710066376, 442.5683434367671, 468.52227095890186, 282.8632773953834, -1087.1039000068592], [14372.002115822803, -33045.55336870585, -1518.376637490397, -19818.15280177632, 1208.6253914247334, -41877.0854665678, 31274.705033575778, 2696.6058668116334, -1097.644168899876, 3143.816950374065, 24733.649705071675, 1445.1624415524732, 2217.711295341498, -5819.321715983651, -11091.27824382741, 12663.336796598602, -9089.038363705817, 282.8632773907536, 31058.337885264427, -1650.5833422575138], [1012.9568547223145, -1367.8971680115596, 6132.954681148981, 3056.8745464319422, 17.82398375160214, 3991.8825283600613, 561.8941033735106, 5085.785423182939, 53.499562453195075, -1304.0126127368324, -5314.232032639412, -3895.8064800745888, -5029.040615821638, -5818.922753885981, -908.0666233341252, 3387.559251488966, -521.9705277143299, -1087.1039000048013, -1650.5833422298163, 3584.1259835683313]], "optimal_y_mu": [[-35.81125868404974], [-35.25510147723959], [-27.092334189318528], [-28.67618670461065], [-36.97372354985066], [-31.86024633005104], [-35.30105260997669], [-33.84082211328406], [-36.536939418805716], [-23.874042194001007], [-29.866765703611968], [-19.583223034331766], [-28.82137893279361], [-33.06875156221403], [-34.7103742620167], [-31.08754182684698], [-36.173695684699375], [11.667664931526495], [-32.97751141872899], [-8.90456511032194]], "training_R2": 0.9999995278696008, "training_rmse": 0.007787287145601142}, "map": {"x_data_columns": "list", "x_data": "numpy", "x_data_min": "numpy", "x_data_max": "numpy", "x_data_scaled": "numpy", "optimal_weights": "numpy", "optimal_p": "str", "optimal_mean": "numpy", "optimal_variance": "numpy", "regularization_parameter": "str", "optimal_covariance_matrix": "numpy", "covariance_matrix_inverse": "numpy", "optimal_y_mu": "numpy", "training_R2": "str", "training_rmse": "str"}}, "S_va": {"attr": {"x_data_columns": ["inf_fr", "temp", "hrt"], "x_data": [[9.62, 24.21, 9.97], [7.6, 29.05, 9.24], [9.06, 27.98, 3.67], [6.71, 27.84, 4.3], [5.36, 27.03, 11.82], [7.09, 24.66, 6.14], [6.31, 30.7, 9.3], [5.55, 31.95, 7.72], [7.79, 31.75, 11.08], [9.87, 32.81, 2.91], [6.06, 22.9, 4.9], [8.25, 29.43, 2.38], [9.41, 33.07, 4.37], [5.94, 34.29, 7.05], [5.16, 25.28, 8.6], [6.99, 34.67, 5.63], [8.78, 26.17, 10.5], [8.25, 22.25, 1.18], [7.34, 23.58, 6.97], [8.52, 30.11, 1.71]], "x_data_min": [[5.16, 22.25, 1.18]], "x_data_max": [[9.87, 34.67, 11.82]], "x_data_scaled": [[0.9469214437367304, 0.15780998389694045, 0.8261278195488723], [0.5180467091295117, 0.5475040257648953, 0.7575187969924813], [0.8280254777070066, 0.4613526570048309, 0.23402255639097744], [0.3290870488322718, 0.45008051529790655, 0.2932330827067669], [0.04246284501061576, 0.3848631239935588, 1.0], [0.40976645435244163, 0.1940418679549114, 0.46616541353383456], [0.24416135881104029, 0.6803542673107889, 0.7631578947368421], [0.08280254777070059, 0.7809983896940417, 0.6146616541353384], [0.5583864118895967, 0.7648953301127213, 0.9304511278195489], [1.0, 0.8502415458937199, 0.162593984962406], [0.19108280254777063, 0.052334943639291344, 0.349624060150376], [0.6560509554140128, 0.5780998389694041, 0.11278195488721804], [0.902335456475584, 0.8711755233494363, 0.299812030075188], [0.16560509554140135, 0.9694041867954909, 0.5516917293233082], [0.0, 0.2439613526570049, 0.6973684210526315], [0.38853503184713384, 1.0, 0.4182330827067669], [0.7685774946921443, 0.3156199677938809, 0.8759398496240601], [0.6560509554140128, 0.0, 0.0], [0.46284501061571126, 0.10708534621578085, 0.5441729323308271], [0.713375796178344, 0.6328502415458935, 0.04981203007518797]], "optimal_weights": [0.001, 0.01869349282905552, 7.271180511353679], "optimal_p": 2, "optimal_mean": [[8.320254586063983]], "optimal_variance": [[61.56524874065968]], "regularization_parameter": 2.1319442242953754e-06, "optimal_covariance_matrix": [[1.0000021319442243, 0.9634355927036071, 0.07800909736684658, 0.12658704129676035, 0.8012352316989733, 0.3896675785595762, 0.9661560210929712, 0.7166563911424603, 0.9174333755803854, 0.04034449773892639, 0.19171541832232278, 0.02463920281631236, 0.13216655733676128, 0.5708928384749463, 0.8855165071400265, 0.2942468881998109, 0.9816319070146841, 0.006991657763132758, 0.5608337311215904, 0.012445853765844348], [0.9634355927036071, 1.0000021319442243, 0.1363010017917106, 0.20854556872843522, 0.6516515874525116, 0.5381734311590323, 0.9993640448280449, 0.8610522952662758, 0.8038568977890197, 0.07611768267751338, 0.29687155003017657, 0.048676371785916925, 0.21753716865897418, 0.7323522772229726, 0.9720982689809873, 0.43133735220536706, 0.902094812264421, 0.01532793178091943, 0.7156333098899498, 0.026201546476974077], [0.07800909736684658, 0.1363010017917106, 1.0000021319442243, 0.9745852843719414, 0.014025418228958504, 0.6747879208223867, 0.13041244807599475, 0.347858849350209, 0.029351536539069436, 0.9608331202285401, 0.9042015736081612, 0.89837697109169, 0.9659755981740106, 0.47757901765612526, 0.2095874147818831, 0.7769699260212652, 0.04995926656748686, 0.6688296154358535, 0.49563375813900457, 0.7809066351508165], [0.12658704129676035, 0.20854556872843522, 0.9745852843719414, 1.0000021319442243, 0.026456380076437244, 0.8035780776213938, 0.20055066585641076, 0.47079177330538463, 0.0521127776561601, 0.8802602901823153, 0.9742392984034739, 0.7888477962651979, 0.9960497449554947, 0.6121429132137349, 0.3046868494032562, 0.8875691407192767, 0.08463224539038795, 0.5330655879819538, 0.6312273294156342, 0.6494578961707127], [0.8012352316989733, 0.6516515874525116, 0.014025418228958504, 0.026456380076437244, 1.0000021319442243, 0.12581383010389321, 0.663953053959928, 0.3387133967157042, 0.9625810515904734, 0.006073183693479406, 0.04606427851646973, 0.0032645711943456233, 0.028157189332380577, 0.23043957650775512, 0.513600094517526, 0.08474197131407346, 0.8935731892437635, 0.000693107204246659, 0.2203776177937037, 0.0014068005760092212], [0.3896675785595762, 0.5381734311590323, 0.6747879208223867, 0.8035780776213938, 0.12581383010389321, 1.0000021319442243, 0.5242432319415626, 0.846296996456398, 0.2073186329454473, 0.5073887274540771, 0.9055800908829026, 0.4021854313625606, 0.8105579716899197, 0.9375503956787744, 0.6778059679198419, 0.9715633994778515, 0.2948330611791937, 0.20579677079717754, 0.9565802841948063, 0.28247878690520145], [0.9661560210929712, 0.9993640448280449, 0.13041244807599475, 0.20055066585641076, 0.663953053959928, 0.5242432319415626, 1.0000021319442243, 0.8516725478902807, 0.8156817109860015, 0.07253700295094218, 0.2862693997933418, 0.046143762246696494, 0.20968283794855788, 0.7212855181394136, 0.9655174507546233, 0.42020781343377217, 0.909146012979645, 0.01435537886428703, 0.7012601139593472, 0.024716304552028313], [0.7166563911424603, 0.8610522952662758, 0.347858849350209, 0.47079177330538463, 0.3387133967157042, 0.846296996456398, 0.8516725478902807, 1.0000021319442243, 0.4841623952809272, 0.22607081791647982, 0.5941041840182946, 0.15999917251590948, 0.48596540046587167, 0.9709287586084847, 0.9463563642657027, 0.7546187618022366, 0.6059877993163155, 0.06336472656156657, 0.9562247786997539, 0.09820333388774259], [0.9174333755803854, 0.8038568977890197, 0.029351536539069436, 0.0521127776561601, 0.9625810515904734, 0.2073186329454473, 0.8156817109860015, 0.4841623952809272, 1.0000021319442243, 0.01373988168668094, 0.08521034379084501, 0.007734622634151232, 0.05545856123453224, 0.3520260558592388, 0.6700452044921642, 0.1482608134398976, 0.9748968636345122, 0.0018255149278834715, 0.3351969374250296, 0.0035552360131087964], [0.04034449773892639, 0.07611768267751338, 0.9608331202285401, 0.8802602901823153, 0.006073183693479406, 0.5073887274540771, 0.07253700295094218, 0.22607081791647982, 0.01373988168668094, 1.0000021319442243, 0.765747072221123, 0.9806454578971977, 0.8720353863781102, 0.33227346117319284, 0.12402025734963422, 0.6212792689997854, 0.02458973159316842, 0.8139479973732743, 0.343243692950795, 0.9107805245499826], [0.19171541832232278, 0.29687155003017657, 0.9042015736081612, 0.9742392984034739, 0.04606427851646973, 0.9055800908829026, 0.2862693997933418, 0.5941041840182946, 0.08521034379084501, 0.765747072221123, 1.0000021319442243, 0.6614938829336579, 0.9693966637100552, 0.731532053551437, 0.4147834314794622, 0.9502274318565458, 0.13321289165127834, 0.41103596280021004, 0.7593148854523051, 0.5167692108304449], [0.02463920281631236, 0.048676371785916925, 0.89837697109169, 0.7888477962651979, 0.0032645711943456233, 0.4021854313625606, 0.046143762246696494, 0.15999917251590948, 0.007734622634151232, 0.9806454578971977, 0.6614938829336579, 1.0000021319442243, 0.7741311247680503, 0.2456528060148129, 0.08312743816377423, 0.5057043899387171, 0.014463766725891251, 0.9059826769139301, 0.25734491987936986, 0.9715222672400301], [0.13216655733676128, 0.21753716865897418, 0.9659755981740106, 0.9960497449554947, 0.028157189332380577, 0.8105579716899197, 0.20968283794855788, 0.48596540046587167, 0.05545856123453224, 0.8720353863781102, 0.9693966637100552, 0.7741311247680503, 1.0000021319442243, 0.6300025374027948, 0.31430665963508403, 0.9025402823652958, 0.08898731392864219, 0.5128179000668941, 0.6406412844943357, 0.634101490128339], [0.5708928384749463, 0.7323522772229726, 0.47757901765612526, 0.6121429132137349, 0.23043957650775512, 0.9375503956787744, 0.7212855181394136, 0.9709287586084847, 0.3520260558592388, 0.33227346117319284, 0.731532053551437, 0.2456528060148129, 0.6300025374027948, 1.0000021319442243, 0.848596050977623, 0.8784680661563614, 0.4617079299357953, 0.10743260970758539, 0.9857034076486897, 0.15978823220431876], [0.8855165071400265, 0.9720982689809873, 0.2095874147818831, 0.3046868494032562, 0.513600094517526, 0.6778059679198419, 0.9655174507546233, 0.9463563642657027, 0.6700452044921642, 0.12402025734963422, 0.4147834314794622, 0.08312743816377423, 0.31430665963508403, 0.848596050977623, 1.0000021319442243, 0.5613665151257834, 0.7925114502276547, 0.029080622172699966, 0.8426439674873427, 0.047247530439145397], [0.2942468881998109, 0.43133735220536706, 0.7769699260212652, 0.8875691407192767, 0.08474197131407346, 0.9715633994778515, 0.42020781343377217, 0.7546187618022366, 0.1482608134398976, 0.6212792689997854, 0.9502274318565458, 0.5057043899387171, 0.9025402823652958, 0.8784680661563614, 0.5613665151257834, 1.0000021319442243, 0.21606424171183908, 0.27509685653344457, 0.8778874767394784, 0.3717356394972862], [0.9816319070146841, 0.902094812264421, 0.04995926656748686, 0.08463224539038795, 0.8935731892437635, 0.2948330611791937, 0.909146012979645, 0.6059877993163155, 0.9748968636345122, 0.02458973159316842, 0.13321289165127834, 0.014463766725891251, 0.08898731392864219, 0.4617079299357953, 0.7925114502276547, 0.21606424171183908, 1.0000021319442243, 0.0037694053850149227, 0.44877211997748, 0.006982336275330893], [0.006991657763132758, 0.01532793178091943, 0.6688296154358535, 0.5330655879819538, 0.000693107204246659, 0.20579677079717754, 0.01435537886428703, 0.06336472656156657, 0.0018255149278834715, 0.8139479973732743, 0.41103596280021004, 0.9059826769139301, 0.5128179000668941, 0.10743260970758539, 0.029080622172699966, 0.27509685653344457, 0.0037694053850149227, 1.0000021319442243, 0.11608599103297847, 0.9747916226445587], [0.5608337311215904, 0.7156333098899498, 0.49563375813900457, 0.6312273294156342, 0.2203776177937037, 0.9565802841948063, 0.7012601139593472, 0.9562247786997539, 0.3351969374250296, 0.343243692950795, 0.7593148854523051, 0.25734491987936986, 0.6406412844943357, 0.9857034076486897, 0.8426439674873427, 0.8778874767394784, 0.44877211997748, 0.11608599103297847, 1.0000021319442243, 0.1682585265919803], [0.012445853765844348, 0.026201546476974077, 0.7809066351508165, 0.6494578961707127, 0.0014068005760092212, 0.28247878690520145, 0.024716304552028313, 0.09820333388774259, 0.0035552360131087964, 0.9107805245499826, 0.5167692108304449, 0.9715222672400301, 0.634101490128339, 0.15978823220431876, 0.047247530439145397, 0.3717356394972862, 0.006982336275330893, 0.9747916226445587, 0.1682585265919803, 1.0000021319442243]], "covariance_matrix_inverse": [[36678.93766970725, -49186.02056068053, 2808.7955474364894, -761.2278469980965, 778.1861372672058, -2480.0434329037776, 34459.671396216094, 23304.679224515265, 5122.2445718165745, -1799.1786589350017, -1289.219272245073, 17.85419242658849, -1176.943304823378, -17884.553360214377, -10784.423278953182, 5427.785234137765, -28249.346467234856, -351.8764826282489, 4628.686773439574, 819.0223619518871], [-49186.020560767916, 78585.43715368237, -5722.039733963622, 3623.513118456489, -1231.870423594754, 13507.298797806974, -57991.41374123818, -33680.25428716645, -4917.261303142953, 4030.95472461838, -1284.3039411536515, 143.69016251589198, 1611.5915299611768, 28014.805765599336, 17110.525147583092, -11210.894704290784, 35206.49682603815, 944.6106056871661, -15432.620457715311, -2243.7637178164337], [2808.79554736891, -5722.039733787251, 13569.13439748391, -1717.2683765530799, 197.79051316486107, -425.8336927317977, 4191.270134250786, 14293.493796875617, -317.1742210974611, 2637.082799691451, -3749.6153604959345, -8859.536519538313, -13581.556575654848, -17753.248056316843, -4033.751580280382, 14196.753497338465, -1178.8298780469581, -589.6450605410272, 2024.7496567637315, 3995.3439712638888], [-761.2278470600544, 3623.513118563543, -1717.2683766308312, 15970.92652160287, 347.45282221742485, 11520.168178270633, -555.885117372317, -11116.836459373537, -179.29382534994204, 997.0748282424269, -12106.448532730685, -3457.979557649957, -3306.5559499328124, 10742.305636257139, 2259.4336737755298, -7558.322921216276, -929.8081168186689, 284.1613442737863, -5217.739346338857, 1132.7016304708275], [778.1861372683934, -1231.8704235939429, 197.790513165679, 347.4528222215878, 196.6891345675464, -325.73544501615993, 1539.8975679834418, -357.9120466831202, -189.0154737694602, 182.08941752177515, -221.14638273100837, -308.14235948400625, -442.4449079959085, 79.34271865682166, -474.8096366194752, 212.87695756774067, -685.8829765119641, 12.4388810019582, 617.8884425898851, 79.65650432211648], [-2480.043433031361, 13507.298798013362, -425.8336928588861, 11520.168178213902, -325.7354450237756, 28189.17624970597, -13566.875569525597, -3729.627027396819, 1659.0187895583072, -743.4973023096137, -15149.036062585583, -238.45488024418438, -180.06244224204158, 6392.5486377434345, 6802.2045812924525, -9990.372960380384, -555.0344176363939, 324.7496009015122, -20765.332019653135, -335.31936333108587], [34459.671396303675, -57991.41374128312, 4191.270134384147, -555.8851172842294, 1539.8975679848368, -13566.875569364229, 46816.52010851037, 16262.825252468252, 2133.5007715745346, -2162.3507524292663, 724.0397075181918, -1551.8554008518972, -2193.021172846719, -14459.73683933728, -13128.532939789444, 7252.06731871514, -24997.688969002524, -633.3773343121718, 15874.784917835115, 2096.3671713012304], [23304.67922443976, -33680.25428686117, 14293.493796970171, -11116.836459223861, -357.9120466842009, -3729.627027136276, 16262.825252217672, 62220.91045044157, 2743.133864474804, 1050.4968833004805, 1228.1014689993976, -3567.5748222489215, -15007.321388263728, -59394.71281266037, -15629.020546751823, 30393.517641351187, -12725.007163925558, -680.2918403765638, 2545.5928327714837, 1827.5475927212892], [5122.244571803485, -4917.261303118364, -317.17422110089444, -179.29382535334295, -189.0154737700344, 1659.0187895568902, 2133.500771555919, 2743.1338644585453, 1617.1948882805552, -489.6352623363567, -325.95913706074003, 621.9344460373045, 884.5349906606145, -1240.195886814409, -180.11529095747855, -636.043152045154, -4513.636631010415, -19.789771468606105, -1615.0523197224675, -152.06228777448695], [-1799.17865897738, 4030.95472469542, 2637.082799660519, 997.0748282795923, 182.08941752238056, -743.4973022784644, -2162.350752473895, 1050.4968831924207, -489.6352623396975, 8078.476428561168, 193.45588708106138, -6886.48521885861, -9377.214621638319, -3474.0002080210497, -554.311781466871, 6095.967204039195, 1034.6647990422705, 1146.3715078732596, 391.9883582236455, -324.96667427315225], [-1289.219272154984, -1284.3039413342142, -3749.615360422603, -12106.448532740767, -221.1463827257282, -15149.036062673107, 724.0397076655839, 1228.1014691725106, -325.95913706644365, 193.45588709887147, 13523.078993657846, 4126.815048604178, 5593.8259944675065, -883.1819056338668, -1233.089911905655, 2674.6846896079333, 2035.2642385268166, 122.54055623232243, 8104.90796808438, -2030.447522942831], [17.85419249325111, 143.69016237269736, -8859.536519508625, -3457.979557713627, -308.14235948364353, -238.45488033408148, -1551.855400752272, -3567.5748221149406, 621.9344460378553, -6886.485218867271, 4126.815048652207, 11068.489064673167, 13726.504150990984, 7096.3236184862435, 1881.7261172390067, -8990.880751101233, 15.299383365226461, -360.0001636018837, -1515.2901679271476, -2978.0340632756233], [-1176.9433047055713, 1611.5915296867263, -13581.556575612256, -3306.5559500515305, -442.4449079946533, -180.0624424255578, -2193.021172647723, -15007.321388043274, 884.5349906582197, -9377.214621660183, 5593.825994564975, 13726.504151000116, 22262.734996462266, 20642.409191438575, 4798.8127275587885, -18840.523223827193, 311.47181943381594, -429.719960241074, -2028.5908575417375, -3263.843069528265], [-17884.55336012408, 28014.805765263925, -17753.248056399345, 10742.30563608035, 79.3427186573805, 6392.5486374512375, -14459.736839068866, -59394.71281261864, -1240.1958868294755, -3474.0002081256753, -883.1819054391487, 7096.323618615548, 20642.40919165111, 60276.73576426223, 15636.364474371201, -34960.29830722738, 8677.785529959847, 617.4427679208005, -5375.483391537473, -2731.2626733340035], [-10784.423278960372, 17110.525147535216, -4033.7515803309398, 2259.433673710348, -474.8096366202967, 6802.204581190468, -13128.532939744486, -15629.020546802918, -180.11529096426835, -554.3117814970315, -1233.0899118230443, 1881.7261172906733, 4798.812727652088, 15636.36447443562, 7678.159023963631, -9200.77545754841, 6677.423428310692, 218.16808087480268, -6912.19626953179, -958.6571938046808], [5427.785234076356, -11210.894704084365, 14196.753497378422, -7558.322921080122, 212.8769575691591, -9990.372960192499, 7252.067318562181, 30393.517641287217, -636.0431520402359, 6095.967204097926, 2674.684689471057, -8990.880751176463, -18840.523223951834, -34960.29830719256, -9200.775457505912, 26191.16197700465, -1458.238908863661, -154.74562042710602, 8011.360696107518, 2553.8771257731537], [-28249.34646721825, 35206.49682595916, -1178.8298780732782, -929.8081168535804, -685.8829765104512, -555.0344177152215, -24997.688968930408, -12725.007163936496, -4513.636631018188, 1034.6647990215783, 2035.2642385743586, 15.299383395391152, 311.47181948397133, 8677.78552997688, 6677.423428293798, -1458.238908877012, 23150.176495500884, 137.9362784598071, -1630.9217226057863, -393.35152000144524], [-351.87648263069264, 944.6106056881783, -589.645060546957, 284.1613442731225, 12.438881002000677, 324.74960089747464, -633.3773343112166, -680.291840388133, -19.789771469163714, 1146.371507870631, 122.54055623572907, -360.00016359741034, -429.71996023278575, 617.4427679332225, 218.16808087675673, -154.74562043497008, 137.93627846147314, 328.75801828294226, -360.3881560067068, -551.1057266031601], [4628.686773531601, -15432.620457844137, 2024.7496568606862, -5217.739346276557, 617.8884425948465, -20765.332019604135, 15874.784917929434, 2545.592832964806, -1615.052319719659, 391.9883582454422, 8104.907967991889, -1515.2901679954925, -2028.5908576828824, -5375.4833917506785, -6912.1962695967195, 8011.360696235239, -1630.9217226671096, -360.38815600947913, 17500.75542813321, 1221.1392057459295], [819.0223619366667, -2243.763717775354, 3995.3439712662357, 1132.701630490967, 79.65650432182291, -335.3193632944913, 2096.367171268728, 1827.547592704218, -152.0622877733433, -324.96667426617205, -2030.447522964272, -2978.03406328355, -3263.8430695404977, -2731.262673319389, -958.6571937923673, 2553.877125764935, -393.3515199956351, -551.105726601881, 1221.1392057184205, 2232.746287824218]], "optimal_y_mu": [[-7.065669500440707], [-6.959478649829649], [-4.656598561042006], [-5.1981386520988675], [-7.266609466269645], [-6.206264491826866], [-6.968401063295277], [-6.669321466854877], [-7.194196111755042], [-3.67093372809566], [-5.602778030842716], [-2.4591046871317523], [-5.248075154377519], [-6.498333182226384], [-6.851654934473375], [-5.987739034392751], [-7.131197906138117], [3.546483179976164], [-6.4791237568557], [-0.30661327307839237]], "training_R2": 0.999999085595554, "training_rmse": 0.0025501563244446244}, "map": {"x_data_columns": "list", "x_data": "numpy", "x_data_min": "numpy", "x_data_max": "numpy", "x_data_scaled": "numpy", "optimal_weights": "numpy", "optimal_p": "str", "optimal_mean": "numpy", "optimal_variance": "numpy", "regularization_parameter": "str", "optimal_covariance_matrix": "numpy", "covariance_matrix_inverse": "numpy", "optimal_y_mu": "numpy", "training_R2": "str", "training_rmse": "str"}}, "S_bu": {"attr": {"x_data_columns": ["inf_fr", "temp", "hrt"], "x_data": [[9.62, 24.21, 9.97], [7.6, 29.05, 9.24], [9.06, 27.98, 3.67], [6.71, 27.84, 4.3], [5.36, 27.03, 11.82], [7.09, 24.66, 6.14], [6.31, 30.7, 9.3], [5.55, 31.95, 7.72], [7.79, 31.75, 11.08], [9.87, 32.81, 2.91], [6.06, 22.9, 4.9], [8.25, 29.43, 2.38], [9.41, 33.07, 4.37], [5.94, 34.29, 7.05], [5.16, 25.28, 8.6], [6.99, 34.67, 5.63], [8.78, 26.17, 10.5], [8.25, 22.25, 1.18], [7.34, 23.58, 6.97], [8.52, 30.11, 1.71]], "x_data_min": [[5.16, 22.25, 1.18]], "x_data_max": [[9.87, 34.67, 11.82]], "x_data_scaled": [[0.9469214437367304, 0.15780998389694045, 0.8261278195488723], [0.5180467091295117, 0.5475040257648953, 0.7575187969924813], [0.8280254777070066, 0.4613526570048309, 0.23402255639097744], [0.3290870488322718, 0.45008051529790655, 0.2932330827067669], [0.04246284501061576, 0.3848631239935588, 1.0], [0.40976645435244163, 0.1940418679549114, 0.46616541353383456], [0.24416135881104029, 0.6803542673107889, 0.7631578947368421], [0.08280254777070059, 0.7809983896940417, 0.6146616541353384], [0.5583864118895967, 0.7648953301127213, 0.9304511278195489], [1.0, 0.8502415458937199, 0.162593984962406], [0.19108280254777063, 0.052334943639291344, 0.349624060150376], [0.6560509554140128, 0.5780998389694041, 0.11278195488721804], [0.902335456475584, 0.8711755233494363, 0.299812030075188], [0.16560509554140135, 0.9694041867954909, 0.5516917293233082], [0.0, 0.2439613526570049, 0.6973684210526315], [0.38853503184713384, 1.0, 0.4182330827067669], [0.7685774946921443, 0.3156199677938809, 0.8759398496240601], [0.6560509554140128, 0.0, 0.0], [0.46284501061571126, 0.10708534621578085, 0.5441729323308271], [0.713375796178344, 0.6328502415458935, 0.04981203007518797]], "optimal_weights": [0.001, 0.024622956449789884, 6.586828001288079], "optimal_p": 2, "optimal_mean": [[11.569440946438178]], "optimal_variance": [[108.09373757880319]], "regularization_parameter": 3.983425304152077e-06, "optimal_covariance_matrix": [[1.000003983425304, 0.9656742521319245, 0.09910752189920585, 0.15366330447042653, 0.8177346711113765, 0.425795758658564, 0.9672141035736903, 0.7372275080499565, 0.92227430714936, 0.054375671851333046, 0.2239297395903086, 0.03486671297445514, 0.1592725380333814, 0.5987463142645351, 0.8955812584487667, 0.32834824852434885, 0.9831549843363492, 0.011152144750349112, 0.5921821442698147, 0.018774237882673368], [0.9656742521319245, 1.000003983425304, 0.16441066146276948, 0.2416816003687023, 0.6783010144910617, 0.569940837202634, 0.9992812127790229, 0.8728802240902991, 0.8202482279094686, 0.09692658470932913, 0.3321899606016335, 0.06469368960187435, 0.25091576800095067, 0.7531004758548306, 0.9739759418907498, 0.46612578848522696, 0.910503595488405, 0.022660075489943785, 0.7374269785469556, 0.03691184213867866], [0.09910752189920585, 0.16441066146276948, 1.000003983425304, 0.9769256412863099, 0.020954656165147932, 0.6998420916414912, 0.15791005721512277, 0.3838854268613516, 0.04088316087425819, 0.9633295800163608, 0.9116041315512086, 0.9073864581760315, 0.9678767390772786, 0.5109438404681307, 0.24268975746787486, 0.7938573239353359, 0.06622611504237058, 0.693496996410231, 0.5289654828108482, 0.7991140621424074], [0.15366330447042653, 0.2416816003687023, 0.9769256412863099, 1.000003983425304, 0.037237619564770064, 0.8198747691016631, 0.2331956036882675, 0.5049560385586164, 0.06876546686761416, 0.8897564045416939, 0.9754463010758314, 0.8065456680897047, 0.995032503181782, 0.6397528686263162, 0.3406326895773841, 0.8955036466535844, 0.10675944275780035, 0.5646961585314793, 0.658564667712558, 0.6762010408012277], [0.8177346711113765, 0.6783010144910617, 0.020954656165147932, 0.037237619564770064, 1.000003983425304, 0.15287394785689903, 0.6895794428938753, 0.3745930974045868, 0.9649460149211313, 0.009801154431565422, 0.06148883539112507, 0.005593465825815715, 0.03932707629446035, 0.2638825283156188, 0.546756877697847, 0.10658985353038139, 0.9030090992770778, 0.0013728702816319194, 0.2539350716592047, 0.0026086320348243557], [0.425795758658564, 0.569940837202634, 0.6998420916414912, 0.8198747691016631, 0.15287394785689903, 1.000003983425304, 0.5560823735929233, 0.857411785316011, 0.23980941610490636, 0.539040733228008, 0.9139276881981858, 0.43768545232730977, 0.8238121576412878, 0.9389025234895491, 0.703050156453245, 0.9693514491971666, 0.33070765557821125, 0.2387418041403327, 0.960529110006069, 0.31769580146574394], [0.9672141035736903, 0.9992812127790229, 0.15791005721512277, 0.2331956036882675, 0.6895794428938753, 0.5560823735929233, 1.000003983425304, 0.8645704613108733, 0.8314197911763143, 0.09282870376604636, 0.32105934358856497, 0.06163151095119787, 0.24281586736539235, 0.7433317828340957, 0.9672887243565086, 0.4555762525490558, 0.9163713757741864, 0.021326571651015494, 0.7232449491341436, 0.035012003377321695], [0.7372275080499565, 0.8728802240902991, 0.3838854268613516, 0.5049560385586164, 0.3745930974045868, 0.857411785316011, 0.8645704613108733, 1.000003983425304, 0.518357168946365, 0.25999897702971114, 0.6214023249042068, 0.19005271152429196, 0.5200522414744361, 0.9733621596608358, 0.9491723045253999, 0.7745896972232503, 0.6341553002205154, 0.08176465986004965, 0.9569014484058412, 0.12215077992625956], [0.92227430714936, 0.8202482279094686, 0.04088316087425819, 0.06876546686761416, 0.9649460149211313, 0.23980941610490636, 0.8314197911763143, 0.518357168946365, 1.000003983425304, 0.020568419554904783, 0.10701675513179719, 0.012219660506058008, 0.07280175018719474, 0.38824380711618844, 0.694307733207212, 0.1773627317230789, 0.9757128884638869, 0.0032899219547755827, 0.37028215128385306, 0.006043907233690555], [0.054375671851333046, 0.09692658470932913, 0.9633295800163608, 0.8897564045416939, 0.009801154431565422, 0.539040733228008, 0.09282870376604636, 0.25999897702971114, 0.020568419554904783, 1.000003983425304, 0.7813441620206041, 0.9818807689223282, 0.8833424370192937, 0.36851560779741327, 0.1505024032688057, 0.6496092738648005, 0.03477418801943108, 0.8252629800139901, 0.3779679375288411, 0.9184858847780559], [0.2239297395903086, 0.3321899606016335, 0.9116041315512086, 0.9754463010758314, 0.06148883539112507, 0.9139276881981858, 0.32105934358856497, 0.6214023249042068, 0.10701675513179719, 0.7813441620206041, 1.000003983425304, 0.6862553968077587, 0.9671912173347963, 0.7485195307448368, 0.45047154235624215, 0.9482305537383438, 0.16095242839377016, 0.44689231401801105, 0.7792259261855651, 0.5484591077979643], [0.03486671297445514, 0.06469368960187435, 0.9073864581760315, 0.8065456680897047, 0.005593465825815715, 0.43768545232730977, 0.06163151095119787, 0.19005271152429196, 0.012219660506058008, 0.9818807689223282, 0.6862553968077587, 1.000003983425304, 0.7924827910678484, 0.28001583632450966, 0.1049605279640974, 0.5384783023619971, 0.02153785075698111, 0.9120942857344877, 0.29191380202898703, 0.9741448578000228], [0.1592725380333814, 0.25091576800095067, 0.9678767390772786, 0.995032503181782, 0.03932707629446035, 0.8238121576412878, 0.24281586736539235, 0.5200522414744361, 0.07280175018719474, 0.8833424370192937, 0.9671912173347963, 0.7924827910678484, 1.000003983425304, 0.65792061141771, 0.3493936248605748, 0.9111540366876817, 0.11147677321881895, 0.5429054782623952, 0.665056559539375, 0.661588833354211], [0.5987463142645351, 0.7531004758548306, 0.5109438404681307, 0.6397528686263162, 0.2638825283156188, 0.9389025234895491, 0.7433317828340957, 0.9733621596608358, 0.38824380711618844, 0.36851560779741327, 0.7485195307448368, 0.28001583632450966, 0.65792061141771, 1.000003983425304, 0.8583276636795424, 0.8892364316067586, 0.4948965319949214, 0.13157587611160657, 0.9814048656340961, 0.18972102249101241], [0.8955812584487667, 0.9739759418907498, 0.24268975746787486, 0.3406326895773841, 0.546756877697847, 0.703050156453245, 0.9672887243565086, 0.9491723045253999, 0.694307733207212, 0.1505024032688057, 0.45047154235624215, 0.1049605279640974, 0.3493936248605748, 0.8583276636795424, 1.000003983425304, 0.5901089295282259, 0.8099714268794576, 0.04054998105719676, 0.856191796087183, 0.06289537878899222], [0.32834824852434885, 0.46612578848522696, 0.7938573239353359, 0.8955036466535844, 0.10658985353038139, 0.9693514491971666, 0.4555762525490558, 0.7745896972232503, 0.1773627317230789, 0.6496092738648005, 0.9482305537383438, 0.5384783023619971, 0.9111540366876817, 0.8892364316067586, 0.5901089295282259, 1.000003983425304, 0.24868009734016439, 0.30824655738780077, 0.8832826888876257, 0.4075948321667163], [0.9831549843363492, 0.910503595488405, 0.06622611504237058, 0.10675944275780035, 0.9030090992770778, 0.33070765557821125, 0.9163713757741864, 0.6341553002205154, 0.9757128884638869, 0.03477418801943108, 0.16095242839377016, 0.02153785075698111, 0.11147677321881895, 0.4948965319949214, 0.8099714268794576, 0.24868009734016439, 1.000003983425304, 0.006368794287132376, 0.4837574145202074, 0.011132276366089605], [0.011152144750349112, 0.022660075489943785, 0.693496996410231, 0.5646961585314793, 0.0013728702816319194, 0.2387418041403327, 0.021326571651015494, 0.08176465986004965, 0.0032899219547755827, 0.8252629800139901, 0.44689231401801105, 0.9120942857344877, 0.5429054782623952, 0.13157587611160657, 0.04054998105719676, 0.30824655738780077, 0.006368794287132376, 1.000003983425304, 0.14215479219715593, 0.974132199321308], [0.5921821442698147, 0.7374269785469556, 0.5289654828108482, 0.658564667712558, 0.2539350716592047, 0.960529110006069, 0.7232449491341436, 0.9569014484058412, 0.37028215128385306, 0.3779679375288411, 0.7792259261855651, 0.29191380202898703, 0.665056559539375, 0.9814048656340961, 0.856191796087183, 0.8832826888876257, 0.4837574145202074, 0.14215479219715593, 1.000003983425304, 0.1985643700877104], [0.018774237882673368, 0.03691184213867866, 0.7991140621424074, 0.6762010408012277, 0.0026086320348243557, 0.31769580146574394, 0.035012003377321695, 0.12215077992625956, 0.006043907233690555, 0.9184858847780559, 0.5484591077979643, 0.9741448578000228, 0.661588833354211, 0.18972102249101241, 0.06289537878899222, 0.4075948321667163, 0.011132276366089605, 0.974132199321308, 0.1985643700877104, 1.000003983425304]], "covariance_matrix_inverse": [[24325.097230878044, -30390.833713020824, 1185.4577759220508, -136.21831445542747, 560.1959684992853, 982.8731249267427, 20913.92638353485, 14882.658449027287, 3575.690676925017, -806.2255238750934, -1477.7911256575003, 346.9409693869056, -547.1797121143235, -10984.28252747545, -6568.323705380323, 2607.99694647912, -19185.76068718487, -86.8997888077721, 789.0626436875541, 75.0630116390159], [-30390.833712969634, 50905.50621075452, -3712.3360440989727, 1045.174601319277, -678.8973474715932, 7367.95449464115, -37581.85328228208, -21275.468659776616, -2774.4858669508726, 3173.768335170786, 636.0180346435053, 59.34636041336849, 534.8059023988491, 17444.603997228267, 10662.295010052974, -6101.8794852622095, 21059.0193585739, 616.6739317232983, -9494.883708174166, -1574.6692941378406], [1185.4577759263204, -3712.3360441138193, 12128.406690460964, -1412.451865357087, 243.57367793491406, -1496.8684800174417, 3685.7975281139848, 8880.942692361496, -564.1420728336531, 3091.6549451010173, -2965.9796569772984, -8534.948187935854, -12501.242130772669, -12798.461053238627, -3015.2436481734967, 12172.602622334376, -331.42584245526933, -403.7517521949924, 2831.177314709403, 3505.495509952852], [-136.21831445616476, 1045.1746013157822, -1412.4518653460177, 14156.54073186378, 430.6256901983617, 6205.363318180276, 2394.7595885654914, -11981.215087153669, -506.64834307025995, 2730.1705040505763, -9319.642001815975, -4681.497826446989, -4399.98408255673, 10930.571438118523, 1030.471553233598, -5812.379573260598, -1051.26816951412, 532.6376729001461, -1124.0634997517666, 952.0312947323891], [560.1959684956219, -678.8973474673656, 243.57367793146065, 430.6256901973999, 220.3641911326562, -43.89126957614581, 1225.0297840966548, -609.5273706017632, -219.28733463387465, 329.6651623455004, -342.53143645100687, -384.48144095150957, -663.5387566881152, 183.04049978548215, -383.70133812651767, 277.36848564057317, -622.5309173884542, 33.15816488978522, 408.6651431280701, 43.405307922473924], [982.8731250941721, 7367.9544943899855, -1496.8684799273053, 6205.363318179715, -43.89126957047, 20843.889112282584, -7852.394604350211, -3634.0980431561725, 1647.2081838334038, 364.6410422077226, -9246.646126471736, 804.2732343644984, 823.2248178575268, 5892.19404095373, 5074.757450165908, -7831.145909010784, -3172.3929286145494, 489.5635241134449, -15973.589845444993, -1309.8783375369217], [20913.926383446033, -37581.85328220232, 3685.797528072388, 2394.759588561739, 1225.0297840980368, -7852.394604522402, 32168.84943653327, 7245.985833745068, 480.8097113888812, -750.8183529831928, -2002.950478980144, -2517.52920521848, -3279.124360157146, -7378.48649002279, -8630.55426022348, 4394.541432720266, -14967.396757666005, -314.93175611830384, 11105.71321485594, 1736.7401142468887], [14882.658449175333, -21275.468660045088, 8880.942692439501, -11981.215087198065, -609.5273705920081, -3634.098043441418, 7245.985834005472, 50743.58071168321, 2165.6701247590527, -1209.8716549787987, 3873.2958292268036, 591.277605875887, -7599.530618079096, -47517.40589011862, -11085.320186268604, 22883.526835603934, -7047.657869340962, -710.7381657823794, 728.8577808950575, 651.5250742468329], [3575.6906769330903, -2774.485866968936, -564.1420728295689, -506.6483430658588, -219.28733463329075, 1647.2081838218573, 480.80971140649046, 2165.6701247542956, 1370.3058109185472, -458.16009170262043, 44.34344625309543, 793.8640953189043, 1161.456294743097, -748.7860380693378, 243.54793666347115, -824.5652498481938, -3239.367260948372, -6.977911769382205, -1886.8536560733978, -248.60231939259873], [-806.2255238970441, 3173.7683351952955, 3091.6549450597536, 2730.1705040328475, 329.6651623450555, 364.64104216364956, -750.8183529929715, -1209.8716550463553, -458.16009170556464, 8925.657354343448, -1228.4389029035206, -8001.561445015667, -10746.48344399957, -1609.9278397681426, -536.4509970093626, 5599.748356436445, -124.13052549221358, 1242.2007679913413, 217.56116187446355, -173.6484178108597], [-1477.79112571553, 636.0180347361538, -2965.979657019019, -9319.642001812383, -342.53143645486375, -9246.646126436523, -2002.9504790570666, 3873.2958291334344, 44.343446253239776, -1228.4389029441993, 9594.996751496672, 4236.379923559169, 5311.910496317519, -2797.805701991805, -499.15836190935363, 1800.132864591457, 2046.3444554911691, -131.24545027348753, 3916.737040994344, -1407.8614958862167], [346.9409694221583, 59.346360369450025, -8534.948187903135, -4681.497826436258, -384.48144095263694, 804.2732344248691, -2517.529205208508, 591.2776059821696, 793.8640953258327, -8001.56144503792, 4236.379923516883, 12126.791482474759, 14251.913780128903, 3400.2885839815044, 1590.956459320932, -7864.087372313684, 9.86322653077202, -597.6833132264603, -2758.8865268536238, -2892.2501978249734], [-547.1797121052733, 534.8059024055651, -12501.242130745586, -4399.984082523486, -663.5387566914477, 823.224818002093, -3279.124360200594, -7599.530617964695, 1161.4562947505453, -10746.483444044075, 5311.910496234822, 14251.91378014792, 22442.11420133914, 14254.889797878819, 3985.1816237169432, -16873.339891436575, 607.0873237164602, -710.8325663620374, -3269.284901632431, -2784.509591205658], [-10984.282527593621, 17444.603997448023, -12798.461053295037, 10930.57143817152, 183.04049977626187, 5892.194041247445, -7378.48649025096, -47517.405890070724, -748.7860380712132, -1609.9278398400454, -2797.8057021030045, 3400.2885840777512, 14254.88979797202, 48374.78965514611, 11504.396231628256, -27850.0793683298, 4442.86752817396, 612.2161931947542, -3741.5605840538847, -1589.4807416046226], [-6568.323705368524, 10662.295010050564, -3015.243648163781, 1030.4715532471666, -383.7013381277713, 5074.757450255441, -8630.554260246066, -11085.320186176194, 243.54793666681962, -536.4509970195461, -499.15836195207015, 1590.9564593322002, 3985.1816237065505, 11504.39623154888, 5852.000491179897, -6972.771124111575, 3765.374954995364, 139.19884809250325, -5433.518334357035, -741.0950961728362], [2607.9969464827873, -6101.879485289999, 12172.602622320008, -5812.379573297837, 277.3684856442082, -7831.1459091861725, 4394.541432785168, 22883.526835466702, -824.5652498526887, 5599.748356474278, 1800.13286468142, -7864.087372343214, -16873.339891435364, -27850.079368216684, -6972.771124124489, 22243.442021555948, -237.76497428829754, -102.881806610365, 6390.146032875486, 2105.7641892265615], [-19185.760687180056, 21059.01935860433, -331.4258424450146, -1051.2681695195583, -622.5309173908812, -3172.392928502944, -14967.396757724528, -7047.657869226214, -3239.3672609421765, -124.1305255074449, 2046.344455452218, 9.863226551960292, 607.0873237176949, 4442.867528078935, 3765.374954999104, -237.76497427666752, 16566.915810808394, -89.96183633690195, 1300.6701647655286, 215.10709650498072], [-86.89978880837297, 616.6739317234176, -403.75175220118916, 532.6376728975955, 33.15816488952899, 489.5635241119489, -314.9317561195579, -710.7381657835665, -6.977911769221154, 1242.200767988305, -131.24545026969727, -597.6833132204156, -710.8325663536177, 612.2161931985081, 139.19884809341164, -102.88180661565848, -89.96183633593876, 314.82507601127634, -370.1363371056777, -447.9958649505938], [789.0626435478224, -9494.883707968087, 2831.1773146376454, -1124.0634997543712, 408.6651431242316, -15973.589845466422, 11105.713214721736, 728.857780652885, -1886.8536560851176, 217.56116184960646, 3916.7370410323406, -2758.886526812234, -3269.2849015259226, -3741.560583811957, -5433.518334288522, 6390.146032743073, 1300.6701648586545, -370.1363371053553, 14569.118493775535, 1843.1884949324149], [75.0630116261147, -1574.669294119297, 3505.4955099552867, 952.0312947360168, 43.405307923322226, -1309.878337549127, 1736.74011424273, 651.5250742136038, -248.60231939548365, -173.64841779758774, -1407.8614958828728, -2892.250197837472, -2784.5095912173074, -1589.4807415801972, -741.0950961698122, 2105.7641892268143, 215.10709651179062, -447.99586494863416, 1843.1884949435039, 2039.003324984002]], "optimal_y_mu": [[-9.978844432600535], [-9.845140022110767], [-6.816044341192521], [-7.562543093064182], [-10.231481336817165], [-8.889090730199559], [-9.856326202971506], [-9.478644082243553], [-10.140486052463798], [-5.401899718873209], [-8.103653061269313], [-3.619847918168733], [-7.630101083429784], [-9.261820646233396], [-9.709109568864804], [-8.607300210835733], [-10.061283104508403], [4.735782884192037], [-9.23741431331001], [-0.6102344707862102]], "training_R2": 0.9999977052258839, "training_rmse": 0.005604465010192428}, "map": {"x_data_columns": "list", "x_data": "numpy", "x_data_min": "numpy", "x_data_max": "numpy", "x_data_scaled": "numpy", "optimal_weights": "numpy", "optimal_p": "str", "optimal_mean": "numpy", "optimal_variance": "numpy", "regularization_parameter": "str", "optimal_covariance_matrix": "numpy", "covariance_matrix_inverse": "numpy", "optimal_y_mu": "numpy", "training_R2": "str", "training_rmse": "str"}}, "S_pro": {"attr": {"x_data_columns": ["inf_fr", "temp", "hrt"], "x_data": [[9.62, 24.21, 9.97], [7.6, 29.05, 9.24], [9.06, 27.98, 3.67], [6.71, 27.84, 4.3], [5.36, 27.03, 11.82], [7.09, 24.66, 6.14], [6.31, 30.7, 9.3], [5.55, 31.95, 7.72], [7.79, 31.75, 11.08], [9.87, 32.81, 2.91], [6.06, 22.9, 4.9], [8.25, 29.43, 2.38], [9.41, 33.07, 4.37], [5.94, 34.29, 7.05], [5.16, 25.28, 8.6], [6.99, 34.67, 5.63], [8.78, 26.17, 10.5], [8.25, 22.25, 1.18], [7.34, 23.58, 6.97], [8.52, 30.11, 1.71]], "x_data_min": [[5.16, 22.25, 1.18]], "x_data_max": [[9.87, 34.67, 11.82]], "x_data_scaled": [[0.9469214437367304, 0.15780998389694045, 0.8261278195488723], [0.5180467091295117, 0.5475040257648953, 0.7575187969924813], [0.8280254777070066, 0.4613526570048309, 0.23402255639097744], [0.3290870488322718, 0.45008051529790655, 0.2932330827067669], [0.04246284501061576, 0.3848631239935588, 1.0], [0.40976645435244163, 0.1940418679549114, 0.46616541353383456], [0.24416135881104029, 0.6803542673107889, 0.7631578947368421], [0.08280254777070059, 0.7809983896940417, 0.6146616541353384], [0.5583864118895967, 0.7648953301127213, 0.9304511278195489], [1.0, 0.8502415458937199, 0.162593984962406], [0.19108280254777063, 0.052334943639291344, 0.349624060150376], [0.6560509554140128, 0.5780998389694041, 0.11278195488721804], [0.902335456475584, 0.8711755233494363, 0.299812030075188], [0.16560509554140135, 0.9694041867954909, 0.5516917293233082], [0.0, 0.2439613526570049, 0.6973684210526315], [0.38853503184713384, 1.0, 0.4182330827067669], [0.7685774946921443, 0.3156199677938809, 0.8759398496240601], [0.6560509554140128, 0.0, 0.0], [0.46284501061571126, 0.10708534621578085, 0.5441729323308271], [0.713375796178344, 0.6328502415458935, 0.04981203007518797]], "optimal_weights": [0.001, 0.009843069055263793, 10.684143424717366], "optimal_p": 2, "optimal_mean": [[13.222669426046018]], "optimal_variance": [[205.12350619368323]], "regularization_parameter": 1e-06, "optimal_covariance_matrix": [[1.000001, 0.9493563080213014, 0.023596417018753826, 0.04806161713339457, 0.7230162771787687, 0.2504046010688089, 0.9554752347531524, 0.6173357311986976, 0.8868690420759379, 0.00901643367265242, 0.08833862142677067, 0.0043456438091045956, 0.051580708239413325, 0.44407047949531897, 0.836857105685448, 0.16781367629010727, 0.973568740876989, 0.0006808826461910382, 0.42757154136537806, 0.001594415713330491], [0.9493563080213014, 1.000001, 0.053496415146391106, 0.09993691231517819, 0.5332933877994995, 0.40325580930739974, 0.9994116881748244, 0.8035066470602157, 0.726161799533891, 0.022762692365659698, 0.1686165614386262, 0.01178093441271435, 0.10651614887848165, 0.6347603939671651, 0.9609515869052502, 0.29172749252933, 0.860345175606016, 0.00216810417817149, 0.6137198908221138, 0.004742214827038149], [0.023596417018753826, 0.053496415146391106, 1.000001, 0.9629944950683756, 0.0018935711104434612, 0.5617771502707778, 0.05017670497514064, 0.21234453199728573, 0.005611565934043638, 0.945511599003285, 0.865167485032295, 0.8545220365117965, 0.953226809792756, 0.33920320077228977, 0.10076914843482729, 0.6937805335021847, 0.012244268401397035, 0.5558491221449845, 0.35732438985574394, 0.6956885416188376], [0.04806161713339457, 0.09993691231517819, 0.9629944950683756, 1.000001, 0.004809982960235829, 0.7260274875371485, 0.09442953594731435, 0.33121585433790623, 0.013045777607484562, 0.8316297024507704, 0.9650733271327167, 0.7059775693507007, 0.9974667804320606, 0.4885118886466544, 0.17455451516844175, 0.8437323700598987, 0.02656550149868116, 0.3982068206017059, 0.5096836542891329, 0.5307030321390056], [0.7230162771787687, 0.5332933877994995, 0.0018935711104434612, 0.004809982960235829, 1.000001, 0.04758423636121162, 0.5486917752116449, 0.2043362995151473, 0.9480315976702393, 0.0005556945530924565, 0.010884841279775211, 0.0002224451205324406, 0.005294379268328012, 0.116404878248661, 0.37579412746990654, 0.026784765637563563, 0.8478824757919377, 2.2863292827430833e-05, 0.10851470970605133, 6.45990383680211e-05], [0.2504046010688089, 0.40325580930739974, 0.5617771502707778, 0.7260274875371485, 0.04758423636121162, 1.000001, 0.38877861937816355, 0.7873396940207441, 0.09962753226401401, 0.3718775817166006, 0.8647141328202002, 0.26296168455768837, 0.7405050251142199, 0.9193126729820024, 0.5647842298637872, 0.9695326699973686, 0.16624326251490715, 0.09805717647925159, 0.9369811577660024, 0.15659612401376022], [0.9554752347531524, 0.9994116881748244, 0.05017670497514064, 0.09442953594731435, 0.5486917752116449, 0.38877861937816355, 1.000001, 0.7899993058682317, 0.7414211320759868, 0.02118672905011849, 0.16025598200437405, 0.010893965655293871, 0.10080535053057776, 