{"model_encoding": {"S_su": {"attr": {"x_data_columns": ["inf_fr", "temp", "hrt"], "x_data": [[9.62, 24.21, 9.97], [7.6, 29.05, 9.24], [9.06, 27.98, 3.67], [6.71, 27.84, 4.3], [5.36, 27.03, 11.82], [7.09, 24.66, 6.14], [6.31, 30.7, 9.3], [5.55, 31.95, 7.72], [7.79, 31.75, 11.08], [9.87, 32.81, 2.91], [6.06, 22.9, 4.9], [8.25, 29.43, 2.38], [9.41, 33.07, 4.37], [5.94, 34.29, 7.05], [5.16, 25.28, 8.6], [6.99, 34.67, 5.63], [8.78, 26.17, 10.5], [8.25, 22.25, 1.18], [7.34, 23.58, 6.97], [8.52, 30.11, 1.71]], "x_data_min": [[5.16, 22.25, 1.18]], "x_data_max": [[9.87, 34.67, 11.82]], "x_data_scaled": [[0.9469214437367304, 0.15780998389694045, 0.8261278195488723], [0.5180467091295117, 0.5475040257648953, 0.7575187969924813], [0.8280254777070066, 0.4613526570048309, 0.23402255639097744], [0.3290870488322718, 0.45008051529790655, 0.2932330827067669], [0.04246284501061576, 0.3848631239935588, 1.0], [0.40976645435244163, 0.1940418679549114, 0.46616541353383456], [0.24416135881104029, 0.6803542673107889, 0.7631578947368421], [0.08280254777070059, 0.7809983896940417, 0.6146616541353384], [0.5583864118895967, 0.7648953301127213, 0.9304511278195489], [1.0, 0.8502415458937199, 0.162593984962406], [0.19108280254777063, 0.052334943639291344, 0.349624060150376], [0.6560509554140128, 0.5780998389694041, 0.11278195488721804], [0.902335456475584, 0.8711755233494363, 0.299812030075188], [0.16560509554140135, 0.9694041867954909, 0.5516917293233082], [0.0, 0.2439613526570049, 0.6973684210526315], [0.38853503184713384, 1.0, 0.4182330827067669], [0.7685774946921443, 0.3156199677938809, 0.8759398496240601], [0.6560509554140128, 0.0, 0.0], [0.46284501061571126, 0.10708534621578085, 0.5441729323308271], [0.713375796178344, 0.6328502415458935, 0.04981203007518797]], "optimal_weights": [0.001, 0.005536380187241415, 9.236467756492779], "optimal_p": 2, "optimal_mean": [[10.707915650804605]], "optimal_variance": [[186.4363125879553]], "regularization_parameter": 1e-06, "optimal_covariance_matrix": [[1.000001, 0.9564731337571478, 0.03921386319320655, 0.07252693925057407, 0.7555297934969366, 0.3020713509754861, 0.9621064862524039, 0.6597247121187314, 0.9023839875383144, 0.017089979269319985, 0.12272284459909552, 0.009084796226731858, 0.0771967651912427, 0.49663332395922855, 0.857212879244803, 0.21417008961061418, 0.9771769160201195, 0.0018289865513227113, 0.47972874633007895, 0.003818831201488423], [0.9564731337571478, 1.000001, 0.07954951719224991, 0.13654342911132078, 0.5807409682544845, 0.45623030084640637, 0.9995336686250862, 0.8277942707211856, 0.7584447694040788, 0.03801198336867464, 0.2147650818365249, 0.021504548069580128, 0.14431945853569944, 0.6754267063185146, 0.9663814469090524, 0.34493321432913215, 0.8781933565044728, 0.004982195632776335, 0.656069711844524, 0.009792358915572567], [0.03921386319320655, 0.07954951719224991, 1.000001, 0.9678950181106731, 0.004427663765649804, 0.6075464669626096, 0.07527015842092159, 0.26201408190250114, 0.011329022409064518, 0.9531416954577071, 0.8827039938158243, 0.872952187025941, 0.959912475681888, 0.3929967255896236, 0.13752921647034833, 0.7296244513371993, 0.022235174564580636, 0.6022651331770199, 0.4109375154385631, 0.7308099624759977], [0.07252693925057407, 0.13654342911132078, 0.9678950181106731, 1.000001, 0.009913069614059794, 0.7583642420367017, 0.1300308224169473, 0.38483336938880475, 0.023493304870820665, 0.8530206547416533, 0.9701870957127253, 0.7401065372849566, 0.9982913532980799, 0.5387390447564083, 0.22115465152819436, 0.8641597707183085, 0.0434341277810125, 0.45138618388627705, 0.5586137217008001, 0.5783196622046067], [0.7555297934969366, 0.5807409682544845, 0.004427663765649804, 0.009913069614059794, 1.000001, 0.07189567066129297, 0.5953319068005984, 0.2535096861549929, 0.9552874568425517, 0.0015350717211660482, 0.020089514458112228, 0.0006953307422545131, 0.010776915244511754, 0.15594451749724036, 0.42911013092335204, 0.043791192267664834, 0.867004135745026, 9.73046000010162e-05, 0.14664484678650186, 0.00023877190994551407], [0.3020713509754861, 0.45623030084640637, 0.6075464669626096, 0.7583642420367017, 0.07189567066129297, 1.000001, 0.4421813836482534, 0.8140863226580625, 0.1363063234142414, 0.4257407563820858, 0.8819608077958492, 0.3152699077438096, 0.7722970511133711, 0.9315080267489735, 0.6102323302805363, 0.9754878533684316, 0.21200341829527516, 0.1343310904920107, 0.9453026063140114, 0.20143244748679284], [0.9621064862524039, 0.9995336686250862, 0.07527015842092159, 0.1300308224169473, 0.5953319068005984, 0.4421813836482534, 1.000001, 0.8156607978894934, 0.7721012623748998, 0.03571756650887404, 0.20562176120186326, 0.020097687164931592, 0.1375721985747334, 0.6613285335137854, 0.959741076788723, 0.33304490232435713, 0.8882542472178644, 0.0045979566827183274, 0.6409545817940534, 0.00909233897211156], [0.6597247121187314, 0.8277942707211856, 0.26201408190250114, 0.38483336938880475, 0.2535096861549929, 0.8140863226580625, 0.8156607978894934, 1.000001, 0.39799500940259086, 0.151301587081372, 0.5211245198656403, 0.09758144757062939, 0.39998415555227024, 0.963841972007026, 0.937269126252003, 0.6999540597664491, 0.5314167227204987, 0.030399602328517506, 0.9526080929806922, 0.05247275178289751], [0.9023839875383144, 0.7584447694040788, 0.011329022409064518, 0.023493304870820665, 0.9552874568425517, 0.1363063234142414, 0.7721012623748998, 0.39799500940259086, 1.000001, 0.004313096656757397, 0.04420304985397111, 0.002079668242280326, 0.02538551738268774, 0.2656867434901288, 0.6043457190353803, 0.08859479120982179, 0.9717976612427228, 0.0003355895166415613, 0.2514311838805042, 0.0007745454267820365], [0.017089979269319985, 0.03801198336867464, 0.9531416954577071, 0.8530206547416533, 0.0015350717211660482, 0.4257407563820858, 0.03571756650887404, 0.151301587081372, 0.004313096656757397, 1.000001, 0.7208868757591952, 0.9768265174130442, 0.8403611879569598, 0.2468069458161843, 0.07103985371640444, 0.5465586387116287, 0.009079588549665002, 0.780123298666244, 0.25970759735809595, 0.8888475557090304], [0.12272284459909552, 0.2147650818365249, 0.8827039938158243, 0.9701870957127253, 0.020089514458112228, 0.8819608077958492, 0.20562176120186326, 0.5211245198656403, 0.04420304985397111, 0.7208868757591952, 1.000001, 0.5946045472347953, 0.9732289701382397, 0.6826355143585175, 0.3272044054369997, 0.9526678934184375, 0.07735921290153816, 0.3232693781062261, 0.7049108387318498, 0.4350130463966294], [0.009084796226731858, 0.021504548069580128, 0.872952187025941, 0.7401065372849566, 0.0006953307422545131, 0.3152699077438096, 0.020097687164931592, 0.09758144757062939, 0.002079668242280326, 0.9768265174130442, 0.5946045472347953, 1.000001, 0.7235177956742113, 0.16856768045352263, 0.04253060406736744, 0.42196913954244214, 0.0046087204271272105, 0.8875095523110418, 0.1790383237230788, 0.9640188510269072], [0.0771967651912427, 0.14431945853569944, 0.959912475681888, 0.9982913532980799, 0.010776915244511754, 0.7722970511133711, 0.1375721985747334, 0.39998415555227024, 0.02538551738268774, 0.8403611879569598, 0.9732289701382397, 0.7235177956742113, 1.000001, 0.5562213503058727, 0.2315809132250357, 0.8781973846113744, 0.04653618112157637, 0.4340900874797243, 0.5740976618083206, 0.5612272355251532], [0.49663332395922855, 0.6754267063185146, 0.3929967255896236, 0.5387390447564083, 0.15594451749724036, 0.9315080267489735, 0.6613285335137854, 0.963841972007026, 0.2656867434901288, 0.2468069458161843, 0.6826355143585175, 0.16856768045352263, 0.5562213503058727, 1.000001, 0.8195871222432143, 0.8482604545513409, 0.37763654127736673, 0.0598036002995515, 0.9952838279340772, 0.09754528901687452], [0.857212879244803, 0.9663814469090524, 0.13752921647034833, 0.22115465152819436, 0.42911013092335204, 0.6102323302805363, 0.959741076788723, 0.937269126252003, 0.6043457190353803, 0.07103985371640444, 0.3272044054369997, 0.04253060406736744, 0.2315809132250357, 0.8195871222432143, 1.000001, 0.4852994740524343, 0.7444203908445256, 0.011190791954098231, 0.8048597037244677, 0.020765391120594542], [0.21417008961061418, 0.34493321432913215, 0.7296244513371993, 0.8641597707183085, 0.043791192267664834, 0.9754878533684316, 0.33304490232435713, 0.6999540597664491, 0.08859479120982179, 0.5465586387116287, 0.9526678934184375, 0.42196913954244214, 0.8781973846113744, 0.8482604545513409, 0.4852994740524343, 1.000001, 0.1440296889222698, 0.19765329257710848, 0.8599183388486671, 0.28520267833164403], [0.9771769160201195, 0.8781933565044728, 0.022235174564580636, 0.0434341277810125, 0.867004135745026, 0.21200341829527516, 0.8882542472178644, 0.5314167227204987, 0.9717976612427228, 0.009079588549665002, 0.07735921290153816, 0.0046087204271272105, 0.04653618112157637, 0.37763654127736673, 0.7444203908445256, 0.1440296889222698, 1.000001, 0.0008355381767472778, 0.36168353748603327, 0.0018283689748422114], [0.0018289865513227113, 0.004982195632776335, 0.6022651331770199, 0.45138618388627705, 9.73046000010162e-05, 0.1343310904920107, 0.0045979566827183274, 0.030399602328517506, 0.0003355895166415613, 0.780123298666244, 0.3232693781062261, 0.8875095523110418, 0.4340900874797243, 0.0598036002995515, 0.011190791954098231, 0.19765329257710848, 0.0008355381767472778, 1.000001, 0.06487828786376175, 0.9751748593294263], [0.47972874633007895, 0.656069711844524, 0.4109375154385631, 0.5586137217008001, 0.14664484678650186, 0.9453026063140114, 0.6409545817940534, 0.9526080929806922, 0.2514311838805042, 0.25970759735809595, 0.7049108387318498, 0.1790383237230788, 0.5740976618083206, 0.9952838279340772, 0.8048597037244677, 0.8599183388486671, 0.36168353748603327, 0.06487828786376175, 1.000001, 0.10446340198352944], [0.003818831201488423, 0.009792358915572567, 0.7308099624759977, 0.5783196622046067, 0.00023877190994551407, 0.20143244748679284, 0.00909233897211156, 0.05247275178289751, 0.0007745454267820365, 0.8888475557090304, 0.4350130463966294, 0.9640188510269072, 0.5612272355251532, 0.09754528901687452, 0.020765391120594542, 0.28520267833164403, 0.0018283689748422114, 0.9751748593294263, 0.10446340198352944, 1.000001]], "covariance_matrix_inverse": [[66051.06230870224, -91058.63914642777, 4973.7529537258615, -9047.630952548374, 987.3127560550531, -15921.932188832552, 63572.99250774359, 42704.47549686898, 10369.362172807827, -2126.1688515095652, 6140.434579456073, 808.1315062240076, -1817.3376784738487, -34270.727064595776, -19425.541573343817, 14555.525702788509, -51455.72354083733, -574.9437002241667, 14852.26298901432, 774.9138865367306], [-91058.63914581841, 140031.70804404453, -8247.81998838968, 21310.936271216477, -2140.168986181356, 40568.239103944274, -102728.01979804525, -61590.304321415606, -11056.891014511435, 1868.8081876298497, -18333.65789624078, -1083.054406649095, 3264.2161546091875, 53103.61160972223, 31273.34699269655, -28130.61556477417, 67885.95152854221, 807.034583675232, -35034.8276802102, -848.6146601300145], [4973.752953583335, -8247.819988206826, 20167.28328986674, 2367.205415433602, 51.428656367341574, 6888.722426035014, 4073.417612380024, 24637.198223620162, 27.061227172585, -1760.7175401920135, -11343.7586107384, -10616.072499960243, -17392.868159054888, -27455.585113543228, -5495.51160366245, 17334.573609418665, -1996.4714048976266, -2089.103986950323, -1969.1039734808073, 7826.988630159212], [-9047.630952000058, 21310.936270615482, 2367.205415329131, 27819.340978420776, -529.5253685910363, 37299.11116310532, -19428.455761580004, 1003.0024382723192, 171.77934006274123, -4231.052051043225, -29121.97357978849, -3546.6455085999983, -6703.388231088862, 379.69748289414514, 6004.223008264708, -9001.530914239505, 5849.466389950799, -1072.3210177227218, -23719.81686841536, 4146.932811919622], [987.3127560104698, -2140.1689861255504, 51.42865636704286, -529.5253685843991, 190.76175698792625, -1508.6545670948033, 2094.331213245348, 528.1519395414714, -298.27191545432834, 83.09938391776285, 682.4717921924138, -14.857370350369225, -61.53889520532153, -634.4283766114144, -822.1287653986224, 599.4828934086337, -529.4744528606734, 0.338667516327473, 1338.2546439646947, -9.90555547451682], [-15921.932187588007, 40568.23910240636, 6888.72242593678, 37299.111162939305, -1508.6545670972826, 69203.29913386345, -40159.05174308923, 6186.375182729172, 1553.7722755768207, -8006.636719122996, -46399.83887844453, -4196.504712864072, -7488.432685448398, -1300.0868104216477, 12722.097199602598, -16319.849381177157, 10305.888345543326, -1512.623715469277, -47679.55408553574, 5661.81044250052], [63572.992507027964, -102728.01979762537, 4073.417612499486, -19428.455761907735, 2094.3312132802894, -40159.051744033626, 79233.91572138933, 37677.18147238586, 6289.581248268057, -430.00779871343883, 19623.454568938523, 1488.5984302951376, -525.1508862203045, -33586.551463172, -23965.97631118616, 20841.22893360644, -47118.68938905591, -400.5455469522116, 33662.556820893114, -95.75337207288368], [42704.47549679268, -61590.304321760865, 24637.198223744228, 1003.0024380024898, 528.1519395739747, 6186.37518194561, 37677.18147283578, 79523.30125677827, 4051.8281774588327, -276.89120543150375, -14174.371443444184, -10856.25861099076, -26318.5671188299, -75916.94776038428, -23658.223959033192, 36741.008268409074, -26916.14731535729, -1572.60840011644, 1662.3928563999407, 6565.665121467505], [10369.36217297203, -11056.891014836181, 27.061227199617196, 171.77933992876123, -298.271915445584, 1553.7722753232417, 6289.5812485369825, 4051.8281775919754, 3223.8550096986964, -723.2008503761209, -748.3619139850596, 494.4223148852946, 675.6974930740902, -2083.8904403081688, -764.2687849648595, -406.60786405330515, -9478.139325571414, -77.38114769017231, -1247.0286889098309, 35.02911624388062], [-2126.1688516457284, 1868.808187808124, -1760.717540183731, -4231.052051014359, 83.09938391762003, -8006.636719117201, -430.00779882355425, -276.8912055318661, -723.2008504005471, 6941.171678278876, 6787.5842688719, -2978.614614055947, -3214.7772681379715, -1171.4412798637895, -908.2722032544099, 4311.173940462315, 1945.077026710016, 1273.2780719674229, 4553.245559463895, -1908.7241254953592], [6140.434578804038, -18333.657895465956, -11343.758610650233, -29121.973579763988, 682.471792195865, -46399.83887855187, 19623.45456848214, -14174.371443802747, -748.3619141271671, 6787.58426889033, 36802.94996988323, 6506.101610850295, 12241.508046986792, 12662.748022093334, -4384.634257355381, 3487.465275690645, -4350.704354827523, 1965.471828698865, 29100.411508611003, -7072.368360063917], [808.131506322315, -1083.0544068133136, -10616.07249993686, -3546.6455086922915, -14.857370347977403, -4196.50471298437, 1488.598430417305, -10856.258610874642, 494.4223148928774, -2978.6146140422657, 6506.101610930309, 9601.548161903049, 12741.22694457372, 13291.321945349719, 2079.741767527304, -9919.243008622274, -1419.4288840317918, 841.4442929795771, 1647.6503687026996, -4872.272305223929], [-1817.3376783100043, 3264.216154374251, -17392.868159036545, -6703.388231225097, -61.53889520402119, -7488.432685593715, -525.1508860588293, -26318.567118653827, 675.6974930972184, -3214.7772681208853, 12241.508047100608, 12741.226944587857, 21941.403208899916, 30065.915132736187, 5846.3308861241085, -19677.430133428446, -709.7006719270773, 1103.54928030744, 2418.915522326556, -6378.0910328461605], [-34270.727064292056, 53103.61160965864, -27455.585113645346, 379.6974829947063, -634.4283766352364, -1300.0868099254117, -33586.55146329897, -75916.94776020377, -2083.89044016344, -1171.441279931285, 12662.748021909945, 13291.321945464671, 30065.91513289555, 76081.30233827446, 23124.090751375454, -40912.85071280266, 20041.41157117958, 1664.4379815748866, -5629.156186363188, -7450.245154993483], [-19425.541573045815, 31273.346992470273, -5495.511603716314, 6004.223008317221, -822.1287654095621, 12722.097199851662, -23965.976311122762, -23658.223958856946, -764.2687848660988, -908.2722032859718, -4384.634257449869, 2079.741767584688, 5846.330886202485, 23124.090751316657, 11885.25236605182, -13802.787419462586, 12719.01200452963, 256.1715815373734, -11738.441511472192, -974.8050570840786], [14555.525702221055, -28130.615564139614, 17334.573609476243, -9001.530914125618, 599.4828934152064, -16319.849381217502, 20841.22893325107, 36741.008268024176, -406.6078641860582, 4311.173940472854, 3487.465275628117, -9919.243008707084, -19677.430133530033, -40912.85071256865, -13802.787419356726, 29712.92823399354, -7372.669424366751, -708.0724091713221, 14510.852204088525, 4175.649165877281], [-51455.72354096982, 67885.95152919064, -1996.4714050079954, 5849.466390410594, -529.4744528960285, 10305.888346539654, -47118.68938972708, -26916.147315512317, -9478.139325467153, 1945.077026605987, -4350.704355358784, -1419.4288839667988, -709.7006718093088, 20041.411571487337, 12719.01200479905, -7372.66942483182, 41925.86451394947, 368.2166338365709, -9523.003478460614, -246.65804245578863], [-574.9437002213848, 807.0345836657849, -2089.103986945622, -1072.3210177345554, 0.3386675167529553, -1512.6237154906105, -400.54554694221156, -1572.6084001093018, -77.38114769120907, 1273.2780719698796, 1965.4718287106332, 841.4442929778643, 1103.5492803026843, 1664.4379815638727, 256.1715815309884, -708.0724091578885, 368.2166338356478, 610.252339104702, 639.0395649475489, -1513.4426967143156], [14852.262988065864, -35034.827679037924, -1969.1039734212395, -23719.816868274076, 1338.2546439665246, -47679.554085514006, 33662.556820171136, 1662.3928557824443, -1247.0286891026408, 4553.245559464948, 29100.41150851956, 1647.65036861772, 2418.915522230913, -5629.1561859574085, -11738.441511272436, 14510.852204031493, -9523.003477702017, 639.0395649318727, 34815.566524468704, -2585.937226810534], [774.9138865180979, -848.614660079283, 7826.988630138568, 4146.932811971838, -9.905555476321608, 5661.810442586036, -95.75337212044019, 6565.665121425377, 35.02911624785023, -1908.7241255053918, -7072.36836011283, -4872.272305217221, -6378.091032827227, -7450.245154938282, -974.805057054996, 4175.649165819738, -246.65804244836733, -1513.4426967143957, -2585.9372268730535, 4756.095149605869]], "optimal_y_mu": [[-9.97683146905812], [-9.917876166762676], [-8.267196318672333], [-8.7388926071965], [-10.085742533523938], [-9.463270378003273], [-9.923168191371131], [-9.751667963132688], [-10.046917360967818], [-7.3317152923120705], [-9.052929467324898], [-6.1973162665442425], [-8.778442094143502], [-9.64823291364737], [-9.857655575522681], [-9.319594490780958], [-10.01274742026074], [2.1653551812971266], [-9.636866568869477], [-3.244351992863062]], "training_R2": 0.9999995713349376, "training_rmse": 0.001904012614905412}, "map": {"x_data_columns": "list", "x_data": "numpy", "x_data_min": "numpy", "x_data_max": "numpy", "x_data_scaled": "numpy", "optimal_weights": "numpy", "optimal_p": "str", "optimal_mean": "numpy", "optimal_variance": "numpy", "regularization_parameter": "str", "optimal_covariance_matrix": "numpy", "covariance_matrix_inverse": "numpy", "optimal_y_mu": "numpy", "training_R2": "str", "training_rmse": "str"}}, " S_aa": {"attr": {"x_data_columns": ["inf_fr", "temp", "hrt"], "x_data": [[9.62, 24.21, 9.97], [7.6, 29.05, 9.24], [9.06, 27.98, 3.67], [6.71, 27.84, 4.3], [5.36, 27.03, 11.82], [7.09, 24.66, 6.14], [6.31, 30.7, 9.3], [5.55, 31.95, 7.72], [7.79, 31.75, 11.08], [9.87, 32.81, 2.91], [6.06, 22.9, 4.9], [8.25, 29.43, 2.38], [9.41, 33.07, 4.37], [5.94, 34.29, 7.05], [5.16, 25.28, 8.6], [6.99, 34.67, 5.63], [8.78, 26.17, 10.5], [8.25, 22.25, 1.18], [7.34, 23.58, 6.97], [8.52, 30.11, 1.71]], "x_data_min": [[5.16, 22.25, 1.18]], "x_data_max": [[9.87, 34.67, 11.82]], "x_data_scaled": [[0.9469214437367304, 0.15780998389694045, 0.8261278195488723], [0.5180467091295117, 0.5475040257648953, 0.7575187969924813], [0.8280254777070066, 0.4613526570048309, 0.23402255639097744], [0.3290870488322718, 0.45008051529790655, 0.2932330827067669], [0.04246284501061576, 0.3848631239935588, 1.0], [0.40976645435244163, 0.1940418679549114, 0.46616541353383456], [0.24416135881104029, 0.6803542673107889, 0.7631578947368421], [0.08280254777070059, 0.7809983896940417, 0.6146616541353384], [0.5583864118895967, 0.7648953301127213, 0.9304511278195489], [1.0, 0.8502415458937199, 0.162593984962406], [0.19108280254777063, 0.052334943639291344, 0.349624060150376], [0.6560509554140128, 0.5780998389694041, 0.11278195488721804], [0.902335456475584, 0.8711755233494363, 0.299812030075188], [0.16560509554140135, 0.9694041867954909, 0.5516917293233082], [0.0, 0.2439613526570049, 0.6973684210526315], [0.38853503184713384, 1.0, 0.4182330827067669], [0.7685774946921443, 0.3156199677938809, 0.8759398496240601], [0.6560509554140128, 0.0, 0.0], [0.46284501061571126, 0.10708534621578085, 0.5441729323308271], [0.713375796178344, 0.6328502415458935, 0.04981203007518797]], "optimal_weights": [0.001, 0.00537919958181783, 8.011217192209358], "optimal_p": 2, "optimal_mean": [[5.0528780765242045]], "optimal_variance": [[31.61244913575308]], "regularization_parameter": 1e-06, "optimal_covariance_matrix": [[1.000001, 0.9620284913954117, 0.060256096365671294, 0.10271048760143037, 0.7840466530642098, 0.35404455525015527, 0.9668336301285957, 0.6969226078747462, 0.9145506937376184, 0.029312600424005682, 0.16208656635609753, 0.016947390765609242, 0.1084015221226904, 0.5447001496913999, 0.8748048761324287, 0.262627552215938, 0.9801560264261115, 0.004220627130494976, 0.528808779110826, 0.00799164791122232], [0.9620284913954117, 1.000001, 0.11129214751969368, 0.1778180310305445, 0.6241247066467089, 0.5062471341609024, 0.999575386403951, 0.8487615959652705, 0.7867568566660149, 0.05864929635610325, 0.2633379553405327, 0.03578696097737726, 0.18655577047888888, 0.7114321844893975, 0.9706890214283534, 0.3971950494338553, 0.893420721050295, 0.010064447099418228, 0.6937187404728146, 0.018088364423454732], [0.060256096365671294, 0.11129214751969368, 1.000001, 0.9720616596712458, 0.00908617273589397, 0.6490235615601606, 0.10607454473244347, 0.31291641600041203, 0.020525015738205133, 0.9591415116904592, 0.8972998638155405, 0.8888186606692579, 0.9650420785173899, 0.4447384795294391, 0.1789116489600159, 0.7606342450110529, 0.036838845729408404, 0.644087108732021, 0.46234979664758113, 0.7618389195611758], [0.10271048760143037, 0.1778180310305445, 0.9720616596712458, 1.000001, 0.01828152957205433, 0.7866755856815814, 0.17043450916195757, 0.4367740588200279, 0.03863815174596261, 0.8710677516117425, 0.9739987569724865, 0.7702337782362148, 0.9983721217199362, 0.5847132194833916, 0.27015163680010756, 0.8809049618468092, 0.0658433672191745, 0.5015528832684906, 0.6034310160076721, 0.6218710635502982], [0.7840466530642098, 0.6241247066467089, 0.00908617273589397, 0.01828152957205433, 1.000001, 0.10194086615614915, 0.6376963502235296, 0.304100674418019, 0.9609876817425796, 0.003624863654826677, 0.03373320735639306, 0.0018241267362519643, 0.01965120768902787, 0.1994982025430305, 0.4800702099961914, 0.06629945000263546, 0.8835096684938563, 0.0003313317404112802, 0.18916247121806654, 0.0007217975355068673], [0.35404455525015527, 0.5062471341609024, 0.6490235615601606, 0.7866755856815814, 0.10194086615614915, 1.000001, 0.4926652790237064, 0.8364265607961938, 0.1775180801887417, 0.476664078806621, 0.8967633384413587, 0.3674037706934733, 0.7989898434719439, 0.9399829194734824, 0.6515379904315014, 0.9783376259302835, 0.2604322573470189, 0.17531299716208634, 0.9523781237121621, 0.2491067947989128], [0.9668336301285957, 0.999575386403951, 0.10607454473244347, 0.17043450916195757, 0.6376963502235296, 0.4926652790237064, 1.000001, 0.8380001969711964, 0.7990375595821629, 0.055565742708094314, 0.25356767436279476, 0.033746399452565704, 0.17896725923900997, 0.6985833885631125, 0.9648731736007017, 0.38531657613923403, 0.9022249064354417, 0.009386597825520392, 0.6797781038824328, 0.01696099659945029], [0.6969226078747462, 0.8487615959652705, 0.31291641600041203, 0.4367740588200279, 0.304100674418019, 0.8364265607961938, 0.8380001969711964, 1.000001, 0.44971999628214754, 0.19435267345026913, 0.5680106141681162, 0.13286239021347182, 0.4516401127516952, 0.9685414776901772, 0.9452004390324026, 0.7338447804338717, 0.5777977308092154, 0.04830021580708948, 0.9584935395616392, 0.07757303732054126], [0.9145506937376184, 0.7867568566660149, 0.020525015738205133, 0.03863815174596261, 0.9609876817425796, 0.1775180801887417, 0.7990375595821629, 0.44971999628214754, 1.000001, 0.008882389705050174, 0.06683482163359497, 0.004718049218766667, 0.04132508512543897, 0.3167451044948278, 0.6459705601519877, 0.1221863658231157, 0.9753731823196056, 0.0009694493837312262, 0.30188858177724087, 0.002003181139690027], [0.029312600424005682, 0.05864929635610325, 0.9591415116904592, 0.8710677516117425, 0.003624863654826677, 0.476664078806621, 0.055565742708094314, 0.19435267345026913, 0.008882389705050174, 1.000001, 0.7525307545001737, 0.9798121300957465, 0.8599737296568909, 0.29711164989149663, 0.10085668028405587, 0.5921244912607467, 0.01693796667477948, 0.8058981090108295, 0.3104561654359968, 0.9028153750318271], [0.16208656635609753, 0.2633379553405327, 0.8972998638155405, 0.9739987569724865, 0.03373320735639306, 0.8967633384413587, 0.25356767436279476, 0.5680106141681162, 0.06683482163359497, 0.7525307545001737, 1.000001, 0.636936163638244, 0.9762951091485919, 0.7177504030510599, 0.3794624562383773, 0.9583135429724935, 0.10862212984671155, 0.3754995703641381, 0.7383711620356034, 0.4856865222442082], [0.016947390765609242, 0.03578696097737726, 0.8888186606692579, 0.7702337782362148, 0.0018241267362519643, 0.3674037706934733, 0.033746399452565704, 0.13286239021347182, 0.004718049218766667, 0.9798121300957465, 0.636936163638244, 1.000001, 0.7552117798609362, 0.21344855915894095, 0.06464819768308337, 0.47308568189375627, 0.0094079890771169, 0.9014970034684101, 0.22489905287273487, 0.9687142707057372], [0.1084015221226904, 0.18655577047888888, 0.9650420785173899, 0.9983721217199362, 0.01965120768902787, 0.7989898434719439, 0.17896725923900997, 0.4516401127516952, 0.04132508512543897, 0.8599737296568909, 0.9762951091485919, 0.7552117798609362, 1.000001, 0.6011845051789801, 0.2810811292824345, 0.8934195986417591, 0.0698931591549574, 0.48468819488064024, 0.6177314156006163, 0.60589879421832], [0.5447001496913999, 0.7114321844893975, 0.4447384795294391, 0.5847132194833916, 0.1994982025430305, 0.9399829194734824, 0.6985833885631125, 0.9685414776901772, 0.3167451044948278, 0.29711164989149663, 0.7177504030510599, 0.21344855915894095, 0.6011845051789801, 1.000001, 0.8412470052634082, 0.8669758061235905, 0.42958445735211576, 0.08684591428816452, 0.9954691120511546, 0.13281466355585567], [0.8748048761324287, 0.9706890214283534, 0.1789116489600159, 0.27015163680010756, 0.4800702099961914, 0.6515379904315014, 0.9648731736007017, 0.9452004390324026, 0.6459705601519877, 0.10085668028405587, 0.3794624562383773, 0.06464819768308337, 0.2810811292824345, 0.8412470052634082, 1.000001, 0.5339612641466035, 0.7740815375887443, 0.020307044158237298, 0.8283420369126577, 0.034712328774256354], [0.262627552215938, 0.3971950494338553, 0.7606342450110529, 0.8809049618468092, 0.06629945000263546, 0.9783376259302835, 0.38531657613923403, 0.7338447804338717, 0.1221863658231157, 0.5921244912607467, 0.9583135429724935, 0.47308568189375627, 0.8934195986417591, 0.8669758061235905, 0.5339612641466035, 1.000001, 0.18619183842913714, 0.24493457248943207, 0.8769028927734577, 0.3368135508514003], [0.9801560264261115, 0.893420721050295, 0.036838845729408404, 0.0658433672191745, 0.8835096684938563, 0.2604322573470189, 0.9022249064354417, 0.5777977308092154, 0.9753731823196056, 0.01693796667477948, 0.10862212984671155, 0.0094079890771169, 0.0698931591549574, 0.42958445735211576, 0.7740815375887443, 0.18619183842913714, 1.000001, 0.002139206956569905, 0.4139060084909757, 0.00421925221487594], [0.004220627130494976, 0.010064447099418228, 0.644087108732021, 0.5015528832684906, 0.0003313317404112802, 0.17531299716208634, 0.009386597825520392, 0.04830021580708948, 0.0009694493837312262, 0.8058981090108295, 0.3754995703641381, 0.9014970034684101, 0.48468819488064024, 0.08684591428816452, 0.020307044158237298, 0.24493457248943207, 0.002139206956569905, 1.000001, 0.09325532314908556, 0.9782056140366132], [0.528808779110826, 0.6937187404728146, 0.46234979664758113, 0.6034310160076721, 0.18916247121806654, 0.9523781237121621, 0.6797781038824328, 0.9584935395616392, 0.30188858177724087, 0.3104561654359968, 0.7383711620356034, 0.22489905287273487, 0.6177314156006163, 0.9954691120511546, 0.8283420369126577, 0.8769028927734577, 0.4139060084909757, 0.09325532314908556, 1.000001, 0.14093834633032024], [0.00799164791122232, 0.018088364423454732, 0.7618389195611758, 0.6218710635502982, 0.0007217975355068673, 0.2491067947989128, 0.01696099659945029, 0.07757303732054126, 0.002003181139690027, 0.9028153750318271, 0.4856865222442082, 0.9687142707057372, 0.60589879421832, 0.13281466355585567, 0.034712328774256354, 0.3368135508514003, 0.00421925221487594, 0.9782056140366132, 0.14093834633032024, 1.000001]], "covariance_matrix_inverse": [[86707.03430610165, -121938.79221340753, 3400.42184953213, -9754.174468464553, 1589.0430340614705, -21666.945583611443, 87182.41141462854, 47911.765882131745, 12581.49053920966, -5173.649448527093, 7672.607524708794, 3055.076618021333, 2778.1198796036824, -35945.530712620755, -25152.83348999865, 12624.305639266093, -67080.2831352378, -964.3838056235712, 21187.05886827786, 1100.7843008977954], [-121938.79221265849, 191977.51828291008, -7163.147875897317, 26612.852033529103, -3169.532720058937, 59352.53214664121, -143833.45739377112, -73622.82413843997, -13125.407804164466, 6923.015974910153, -25271.03859818329, -4628.894872155483, -3163.855149018519, 61173.654041433074, 43301.94230766779, -30316.69809041455, 89524.01939710724, 1669.5155602955103, -52700.86643244571, -1771.922878422356], [3400.421850959431, -7163.147878281245, 29587.15733827879, 5642.877334619551, 130.6443051180776, 10934.938782981746, 3233.1405040696936, 33837.183865840394, -670.0263814559264, -1931.209730391775, -18279.568224434395, -15854.790921023956, -27314.18296470432, -39602.34143795856, -7268.680659041517, 26159.339627991118, -134.26610974019644, -2817.285652031214, -2981.1732251884678, 11058.119100651878], [-9754.174467103696, 26612.852031513376, 5642.877335370304, 38908.182920128165, -423.57037832855076, 53709.68334579321, -23787.633741986334, -292.4679348439412, 504.36909430436896, -3931.7449527928366, -41984.12256959067, -7451.263186071418, -11683.451644439925, 1632.538810368674, 8110.729322435212, -12236.839532604914, 5208.417622195225, -1025.517268445787, -33529.79333261005, 5715.6117497279565], [1589.0430340025325, -3169.5327199815856, 130.6443050750249, -423.57037834247507, 256.3885313681123, -1773.0321467832096, 3070.0018516620203, 712.3407903901253, -341.4974935746167, 79.5141239645459, 627.116418820969, -98.70363779405058, -173.5237073399919, -843.0656414106206, -1158.387418244443, 730.797650741901, -961.1686241431014, -9.585786641762136, 1719.157302612749, 44.91464715269556], [-21666.945580667794, 59352.53214220126, 10934.938784371281, 53709.68334549303, -1773.0321467456388, 102595.67724420752, -57663.11075811895, 7082.995410089298, 2460.9759498363333, -7441.082210332233, -67572.81059758726, -8369.632973172598, -14481.148965940218, -1215.0728153830412, 18897.725743229013, -22199.336633842802, 12539.859920906725, -1200.109978183582, -70865.41797994966, 6746.19532624692], [87182.41141337293, -143833.45739260595, 3233.140502227841, -23787.63374315385, 3070.001851700939, -57663.11076084787, 113049.3761383744, 44743.80949675985, 7415.77365584116, -3892.80112326583, 26081.870231985045, 3713.9581278579176, 4097.573695964818, -38424.35425041082, -33829.38784146563, 22931.97752151553, -63627.90194489387, -1066.3114670538762, 49971.484422793124, 782.3853051843547], [47911.76588559357, -73622.82414483742, 33837.18386482368, -292.4679380093505, 712.3407905349018, 7082.9954040718185, 44743.8095022176, 109363.49572335176, 3017.0620676888007, -1643.2237169147293, -18736.620484667957, -12867.592392201583, -35610.61274802522, -106759.05157287828, -31927.79633109484, 52570.42783962128, -27392.12304113452, -2181.9978639784354, 3468.2758832874224, 8305.996008952583], [12581.490539285389, -13125.407804346567, -670.0263815704277, 504.3690942070825, -341.49749356780706, 2460.975949610859, 7415.773656028321, 3017.0620674692027, 3920.4997134711066, -1154.7314678751213, -975.3881342387729, 989.6363506528661, 1866.8483549460589, -301.22040213483933, -328.61544937278865, -2039.589685751713, -11611.926483335621, -87.32448885986163, -2051.9624906564454, -58.3681238947024], [-5173.649448637072, 6923.015975151405, -1931.2097304396534, -3931.7449526898336, 79.5141239592173, -7441.082210164987, -3892.801123449751, -1643.223717154387, -1154.7314678645062, 9266.838373673058, 6964.733655188716, -4275.129600749509, -5092.493262168502, -635.5539271634557, -250.49528873856255, 5050.653752063454, 4101.693075525401, 1704.976236601239, 3831.081557714095, -2473.291924702742], [7672.607522382232, -25271.03859454429, -18279.568225247007, -41984.12256907644, 627.1164187794184, -67572.81059697777, 26081.87022958601, -18736.620488699533, -975.3881344071956, 6964.73365527151, 53785.40274918575, 11793.885308948455, 21005.461902751507, 17963.952331052642, -6125.191005860345, 3379.6604868786726, -4628.4002742155535, 2170.048873708559, 41808.501494558026, -9593.99006462852], [3055.0766173100596, -4628.894871066283, -15854.79092113426, -7451.263185898934, -98.70363780921113, -8369.63297287706, 3713.9581270901913, -12867.592393008443, 989.6363505836471, -4275.1296007481205, 11793.885308837258, 14105.668373170918, 19506.86541761984, 17280.948144764567, 2168.35150713663, -13666.381983996816, -3054.7610799697813, 1028.9016605643415, 3431.8579941434214, -6806.6554014607855], [2778.119877866877, -3163.855146189042, -27314.18296477387, -11683.45164363442, -173.52370738676052, -14481.148964492611, 4097.573693833103, -35610.612749472966, 1866.8483547954193, -5092.493262208394, 21005.461901935025, 19506.865417512072, 34554.694095097315, 43200.67511391952, 7154.295662611031, -29502.953413470936, -4743.437576342182, 1433.940640985216, 5421.198046673521, -9227.168276252014], [-35945.53071604455, 61173.654047675045, -39602.341437037816, 1632.5388133807546, -843.0656415492012, -1215.0728096581563, -38424.35425570119, -106759.0515730313, -301.22040236781237, -635.5539274079487, 17963.95232723555, 17280.94814402863, 43200.67511260535, 110058.41715398028, 31590.3077437151, -60625.36817784855, 17656.715778674257, 2385.4492073160127, -8575.996067578844, -9987.017141400378], [-25152.833490320616, 43301.94230853678, -7268.680658375703, 8110.729323339434, -1158.387418280221, 18897.72574507688, -33829.387842467535, -31927.79632964221, -328.6154493745841, -250.49528884515564, -6125.19100725174, 2168.351506798341, 7154.295661795411, 31590.307742283163, 16576.697360490416, -18785.48799124232, 15661.507640792648, 505.96289919525583, -17683.715808481018, -1490.8378388254316], [12624.305640553619, -30316.69809281035, 26159.339627361205, -12236.839533951872, 730.7976508023663, -22199.336636516888, 22931.97752368001, 52570.42783882144, -2039.5896856473346, 5050.653752217792, 3379.6604887429176, -13666.381983629724, -29502.953412661125, -60625.36817700852, -18785.487991654107, 44478.3216135185, -3735.8071559926393, -1242.3364758255445, 20217.147199673247, 6212.720216947424], [-67080.28313506924, 89524.01939733209, -134.26610874308255, 5208.417622967598, -961.1686241788273, 12539.859922654201, -63627.90194552716, -27392.12303860703, -11611.926483270458, 4101.693075479947, -4628.400275641334, -3054.761080457124, -4743.437577549516, 17656.71577616699, 15661.507640471325, -3735.807154966794, 54547.45518604851, 592.8107362489516, -12547.684594984874, -409.5868893113261], [-964.3838057079693, 1669.5155604417325, -2817.285652039447, -1025.5172684030367, -9.585786644652664, -1200.1099781032126, -1066.3114671663466, -2181.997864059784, -87.32448886427422, 1704.976236597777, 2170.0488736657844, 1028.90166056209, 1433.9406409913431, 2385.4492073934007, 505.96289924088757, -1242.3364758754988, 592.8107363044115, 774.9651863047778, 260.999128127889, -1924.033393829511], [21187.0588664071, -52700.8664297211, -2981.17322624984, -33529.79333261538, 1719.1573025966202, -70865.41798035904, 49971.48442122229, 3468.2758790406924, -2051.9624908105247, 3831.0815578483857, 41808.50149526638, 3431.857994416272, 5421.198047802666, -8575.996063528695, -17683.715807276174, 20217.14719783617, -12547.684593894302, 260.99912819181355, 52264.62731372358, -2553.1260794445525], [1100.7843013183478, -1771.9228790988752, 11058.119100724596, 5715.611749594627, 44.91464716345063, 6746.19532601309, 782.3853056717367, 8305.996009455605, -58.368123863003454, -2473.2919247002174, -9593.990064529986, -6806.655401461492, -9227.168276321861, -9987.01714186929, -1490.837839045241, 6212.720217197405, -409.5868895889557, -1924.0333938315418, -2553.126079238637, 6313.67696659689]], "optimal_y_mu": [[-4.300091085922593], [-4.2503761111968155], [-3.1407816509975275], [-3.4160515271517244], [-4.395814075874754], [-3.896501355996513], [-4.25454034644272], [-4.114852147768632], [-4.361075469875599], [-2.640703911068471], [-3.6136486486880397], [-2.08625670563914], [-3.440804056537577], [-4.03452735017959], [-4.200111690640179], [-3.794441693959066], [-4.331094843459705], [1.2256897669512972], [-4.025342772515201], [-0.8548676274112648]], "training_R2": 0.9999993513195787, "training_rmse": 0.0011055572650827588}, "map": {"x_data_columns": "list", "x_data": "numpy", "x_data_min": "numpy", "x_data_max": "numpy", "x_data_scaled": "numpy", "optimal_weights": "numpy", "optimal_p": "str", "optimal_mean": "numpy", "optimal_variance": "numpy", "regularization_parameter": "str", "optimal_covariance_matrix": "numpy", "covariance_matrix_inverse": "numpy", "optimal_y_mu": "numpy", "training_R2": "str", "training_rmse": "str"}}, " S_fa": {"attr": {"x_data_columns": ["inf_fr", "temp", "hrt"], "x_data": [[9.62, 24.21, 9.97], [7.6, 29.05, 9.24], [9.06, 27.98, 3.67], [6.71, 27.84, 4.3], [5.36, 27.03, 11.82], [7.09, 24.66, 6.14], [6.31, 30.7, 9.3], [5.55, 31.95, 7.72], [7.79, 31.75, 11.08], [9.87, 32.81, 2.91], [6.06, 22.9, 4.9], [8.25, 29.43, 2.38], [9.41, 33.07, 4.37], [5.94, 34.29, 7.05], [5.16, 25.28, 8.6], [6.99, 34.67, 5.63], [8.78, 26.17, 10.5], [8.25, 22.25, 1.18], [7.34, 23.58, 6.97], [8.52, 30.11, 1.71]], "x_data_min": [[5.16, 22.25, 1.18]], "x_data_max": [[9.87, 34.67, 11.82]], "x_data_scaled": [[0.9469214437367304, 0.15780998389694045, 0.8261278195488723], [0.5180467091295117, 0.5475040257648953, 0.7575187969924813], [0.8280254777070066, 0.4613526570048309, 0.23402255639097744], [0.3290870488322718, 0.45008051529790655, 0.2932330827067669], [0.04246284501061576, 0.3848631239935588, 1.0], [0.40976645435244163, 0.1940418679549114, 0.46616541353383456], [0.24416135881104029, 0.6803542673107889, 0.7631578947368421], [0.08280254777070059, 0.7809983896940417, 0.6146616541353384], [0.5583864118895967, 0.7648953301127213, 0.9304511278195489], [1.0, 0.8502415458937199, 0.162593984962406], [0.19108280254777063, 0.052334943639291344, 0.349624060150376], [0.6560509554140128, 0.5780998389694041, 0.11278195488721804], [0.902335456475584, 0.8711755233494363, 0.299812030075188], [0.16560509554140135, 0.9694041867954909, 0.5516917293233082], [0.0, 0.2439613526570049, 0.6973684210526315], [0.38853503184713384, 1.0, 0.4182330827067669], [0.7685774946921443, 0.3156199677938809, 0.8759398496240601], [0.6560509554140128, 0.0, 0.0], [0.46284501061571126, 0.10708534621578085, 0.5441729323308271], [0.713375796178344, 0.6328502415458935, 0.04981203007518797]], "optimal_weights": [0.001, 0.008198079905471424, 8.85050149313026], "optimal_p": 2, "optimal_mean": [[56.301748583875835]], "optimal_variance": [[2485.2917322612734]], "regularization_parameter": 1e-06, "optimal_covariance_matrix": [[1.000001, 0.9578252120685512, 0.04488485718693797, 0.08090989802131965, 0.7642923324737311, 0.31756119436008035, 0.9628799977568182, 0.6705166624767018, 0.9052940126872003, 0.02022962730116058, 0.13395913582356112, 0.011051164301551338, 0.08579141159272982, 0.5103862881661105, 0.8626986670440187, 0.22794376399272723, 0.9780483474904903, 0.0023800291936441334, 0.4946733992787785, 0.004816042742148481], [0.9578252120685512, 1.000001, 0.0884231076238192, 0.14838597575279078, 0.5940289896225425, 0.47126879708004393, 0.9994989820796163, 0.8342193737716798, 0.7671533687259177, 0.04356546249230016, 0.22885955063923238, 0.02524687978742458, 0.15643000312188052, 0.6862364470262131, 0.9674945935522204, 0.36040783106744934, 0.882833206424138, 0.006212439523979679, 0.667352626984197, 0.011880444836316556], [0.04488485718693797, 0.0884231076238192, 1.000001, 0.9692052877495755, 0.0055528493312251735, 0.6201977068944516, 0.08384925069630249, 0.27700829471122534, 0.013657940916268532, 0.9546361287034031, 0.8868736861870239, 0.8778870445906611, 0.9610876619259313, 0.40832504526828883, 0.1493919591801406, 0.7386726627297647, 0.026066718811892202, 0.6147829504205338, 0.4263388558486319, 0.7403865135698736], [0.08090989802131965, 0.14838597575279078, 0.9692052877495755, 1.000001, 0.01202082297484009, 0.7670345607656679, 0.14157973399555196, 0.4003725851822468, 0.02747213079475304, 0.8582922577683778, 0.9709696394918255, 0.7494342521471761, 0.9978369649678709, 0.5524132110503339, 0.23551797518193088, 0.8686875122464914, 0.04951378515386168, 0.46636641622060987, 0.5721777458964565, 0.5916456090778224], [0.7642923324737311, 0.5940289896225425, 0.0055528493312251735, 0.01202082297484009, 1.000001, 0.08024717434104035, 0.6082202881382882, 0.2683507242782165, 0.9567047416720977, 0.0020110541409858965, 0.023645270680729656, 0.0009420928506602687, 0.013013690653986344, 0.1683697464796829, 0.44452656408481017, 0.04985191343682053, 0.8721586638879236, 0.00014308205515279942, 0.15885688416389965, 0.0003382608920784359], [0.31756119436008035, 0.47126879708004393, 0.6201977068944516, 0.7670345607656679, 0.08024717434104035, 1.000001, 0.4572062724902489, 0.8202920194215294, 0.14800361711824153, 0.44065111619918207, 0.8865489316238656, 0.33070804145620547, 0.7796381164369219, 0.932648021835427, 0.6229491426003598, 0.9746666476340683, 0.22618938037353137, 0.14606938684460524, 0.9475063509304303, 0.21526048760570418], [0.9628799977568182, 0.9994989820796163, 0.08384925069630249, 0.14157973399555196, 0.6082202881382882, 0.4572062724902489, 1.000001, 0.8226103290253965, 0.7804718981772663, 0.041049348439718115, 0.21942110873310602, 0.023661194476236914, 0.14944296302247204, 0.6726922690830487, 0.9608585482788777, 0.3485999468695053, 0.8923097533568366, 0.0057498315196725415, 0.6523574522686922, 0.011065474665531403], [0.6705166624767018, 0.8342193737716798, 0.27700829471122534, 0.4003725851822468, 0.2683507242782165, 0.8202920194215294, 0.8226103290253965, 1.000001, 0.41361206203177603, 0.16371717763042656, 0.5346904364532172, 0.10753283498623792, 0.4155754708677676, 0.9652270010111801, 0.9390258159303708, 0.7103652238205911, 0.5452904158357944, 0.035114969078632936, 0.9532836370120815, 0.05934572608762488], [0.9052940126872003, 0.7671533687259177, 0.013657940916268532, 0.02747213079475304, 0.9567047416720977, 0.14800361711824153, 0.7804718981772663, 0.41361206203177603, 1.000001, 0.00541516971384271, 0.050282240381818284, 0.002691681101254436, 0.029596311333038205, 0.2807815170677794, 0.6167061819181315, 0.09802189567127072, 0.9723902799610843, 0.0004680043695926621, 0.26602969202947135, 0.0010447746273442907], [0.02022962730116058, 0.04356546249230016, 0.9546361287034031, 0.8582922577683778, 0.0020110541409858965, 0.44065111619918207, 0.041049348439718115, 0.16371717763042656, 0.00541516971384271, 1.000001, 0.7294485499196205, 0.9775697213600134, 0.8464895843255565, 0.2616487080701421, 0.07925279835047318, 0.5604865919815918, 0.011041620331908454, 0.7866091762699856, 0.27431690242088086, 0.8931096440691154], [0.13395913582356112, 0.22885955063923238, 0.8868736861870239, 0.9709696394918255, 0.023645270680729656, 0.8865489316238656, 0.21942110873310602, 0.5346904364532172, 0.050282240381818284, 0.7294485499196205, 1.000001, 0.6071714767745237, 0.9724244472717373, 0.6919281024328425, 0.342804646049712, 0.952121627848971, 0.08607259195074969, 0.3388840539334254, 0.715278433998563, 0.4499662059944545], [0.011051164301551338, 0.02524687978742458, 0.8778870445906611, 0.7494342521471761, 0.0009420928506602687, 0.33070804145620547, 0.023661194476236914, 0.10753283498623792, 0.002691681101254436, 0.9775697213600134, 0.6071714767745237, 1.000001, 0.7331847496973776, 0.1815049649458648, 0.048512784652488095, 0.4372342986412624, 0.005769338764039989, 0.8910843998041665, 0.19225776330215671, 0.9654876481176895], [0.08579141159272982, 0.15643000312188052, 0.9610876619259313, 0.9978369649678709, 0.013013690653986344, 0.7796381164369219, 0.14944296302247204, 0.4155754708677676, 0.029596311333038205, 0.8464895843255565, 0.9724244472717373, 0.7331847496973776, 1.000001, 0.5699950349182493, 0.2458900806922269, 0.8829246144782426, 0.052853279772270625, 0.44850751905133923, 0.5865702553189304, 0.5748433607854421], [0.5103862881661105, 0.6862364470262131, 0.40832504526828883, 0.5524132110503339, 0.1683697464796829, 0.932648021835427, 0.6726922690830487, 0.9652270010111801, 0.2807815170677794, 0.2616487080701421, 0.6919281024328425, 0.1815049649458648, 0.5699950349182493, 1.000001, 0.825171132480991, 0.8541098052637593, 0.39282875391643857, 0.06709024759004004, 0.9933375610252829, 0.10747236191663105], [0.8626986670440187, 0.9674945935522204, 0.1493919591801406, 0.23551797518193088, 0.44452656408481017, 0.6229491426003598, 0.9608585482788777, 0.9390258159303708, 0.6167061819181315, 0.07925279835047318, 0.342804646049712, 0.048512784652488095, 0.2458900806922269, 0.825171132480991, 1.000001, 0.49935532404699157, 0.7536287303589507, 0.013499289270276112, 0.8121428931175543, 0.02440363573162032], [0.22794376399272723, 0.36040783106744934, 0.7386726627297647, 0.8686875122464914, 0.04985191343682053, 0.9746666476340683, 0.3485999468695053, 0.7103652238205911, 0.09802189567127072, 0.5604865919815918, 0.952121627848971, 0.4372342986412624, 0.8829246144782426, 0.8541098052637593, 0.49935532404699157, 1.000001, 0.1559648972639214, 0.2108960898821338, 0.863364544402874, 0.30043458943016715], [0.9780483474904903, 0.882833206424138, 0.026066718811892202, 0.04951378515386168, 0.8721586638879236, 0.22618938037353137, 0.8923097533568366, 0.5452904158357944, 0.9723902799610843, 0.011041620331908454, 0.08607259195074969, 0.005769338764039989, 0.052853279772270625, 0.39282875391643857, 0.7536287303589507, 0.1559648972639214, 1.000001, 0.0011232162118033511, 0.3773363280952724, 0.0023787460117567355], [0.0023800291936441334, 0.006212439523979679, 0.6147829504205338, 0.46636641622060987, 0.00014308205515279942, 0.14606938684460524, 0.0057498315196725415, 0.035114969078632936, 0.0004680043695926621, 0.7866091762699856, 0.3388840539334254, 0.8910843998041665, 0.44850751905133923, 0.06709024759004004, 0.013499289270276112, 0.2108960898821338, 0.0011232162118033511, 1.000001, 0.0727316354933817, 0.9750692195569364], [0.4946733992787785, 0.667352626984197, 0.4263388558486319, 0.5721777458964565, 0.15885688416389965, 0.9475063509304303, 0.6523574522686922, 0.9532836370120815, 0.26602969202947135, 0.27431690242088086, 0.715278433998563, 0.19225776330215671, 0.5865702553189304, 0.9933375610252829, 0.8121428931175543, 0.863364544402874, 0.3773363280952724, 0.0727316354933817, 1.000001, 0.11471242649973709], [0.004816042742148481, 0.011880444836316556, 0.7403865135698736, 0.5916456090778224, 0.0003382608920784359, 0.21526048760570418, 0.011065474665531403, 0.05934572608762488, 0.0010447746273442907, 0.8931096440691154, 0.4499662059944545, 0.9654876481176895, 0.5748433607854421, 0.10747236191663105, 0.02440363573162032, 0.30043458943016715, 0.0023787460117567355, 0.9750692195569364, 0.11471242649973709, 1.000001]], "covariance_matrix_inverse": [[62702.71761959077, -87254.17908059484, 4631.271249829824, -7850.758927310601, 1108.5884006150923, -14907.003280517767, 61403.45644293383, 40457.46846990271, 9217.6432791299, -2463.938235136318, 5253.627696760732, 784.0508558261045, -1389.5308484979269, -32247.304462285556, -18967.745777176162, 13218.48269209415, -48317.6389425756, -658.3814920351363, 14371.93230378484, 1012.9554112203259], [-87254.17908054231, 134924.76980600297, -7406.22746183229, 18564.34978124188, -2152.832802446263, 37417.84893094661, -99285.885701759, -57844.7475411612, -10090.624243329927, 2966.9161536282436, -16053.761296727314, -1335.0085615807855, 1954.2485932924994, 49089.106135740665, 30020.29263437007, -24848.378439278156, 64551.06868794568, 1032.5828500002012, -33045.3691443435, -1367.8938121708945], [4631.271249857134, -7406.22746171335, 17120.715556442578, 1122.5485511314462, 47.45968032105652, 5375.280510979835, 3675.9218859587763, 21675.782315256823, 114.71215322313, -235.79653019989996, -8876.582278077247, -9533.46555375503, -15383.019118653328, -24174.158217092667, -4852.422951503638, 15557.855488549703, -2040.0220933447717, -1454.453209725166, -1518.3636031712326, 6132.915646063472], [-7850.758927275131, 18564.349781198784, 1122.5485508000054, 24405.349231976263, -360.15493765190774, 31326.697655184587, -16202.065557547132, -2450.5790455445276, 138.6166311093327, -2971.785544584451, -24607.332628736523, -3089.5309360620786, -5519.943382419651, 3381.951327638658, 5652.511601369391, -8863.813198310212, 4664.555994683448, -638.1826780027836, -19818.030239183132, 3056.85198282377], [1108.5884006013052, -2152.832802429654, 47.459680327486325, -360.15493765556033, 179.52397105133699, -1300.825426362821, 2093.759148058756, 342.0367605498052, -207.1786716946528, 44.9185742020287, 520.0052199047255, -30.634481427394306, -51.453224219657805, -439.5833990026274, -743.5961316606844, 457.5598938014547, -719.4730959014834, -7.068484414998352, 1208.6200000796784, 17.823789444643925], [-14907.003280342538, 37417.84893078749, 5375.280510450124, 31326.69765533144, -1300.8254263593653, 60003.9943689813, -36279.19916023902, 2493.634645001164, 1440.191486566883, -5788.029652464572, -39219.85569263111, -3596.6587233498294, -6282.884583139392, 1365.4504116934547, 12162.114761324257, -14785.276489925494, 9218.68977743358, -883.330163086499, -41876.83043656774, 3991.857295870073], [61403.456442826966, -99285.88570170233, 3675.9218861121635, -16202.065557656244, 2093.759148070523, -36279.19916044391, 76731.20304351632, 34828.52250981881, 5786.783903270503, -1600.7271039779775, 16626.789056747995, 1519.2271836133143, 286.87527111395195, -30357.131323055663, -22831.060834564432, 17854.886480817062, -45295.437143067466, -651.193463903516, 31274.5303224391, 561.8930385413333], [40457.468469934174, -57844.747540875476, 21675.78231528312, -2450.5790448395514, 342.0367605392875, 2493.63464612111, 34828.52250947715, 74230.80223932875, 4244.746003431173, 1043.5342044384588, -9385.384745124215, -9514.709460185462, -23588.897616234168, -70563.28143112922, -21845.651683068303, 34912.457753095, -25683.54101711947, -1135.3411242719942, 2696.599185324694, 5085.756732170011], [9217.643279167403, -10090.624243403541, 114.71215318343606, 138.6166310764629, -207.17867169074918, 1440.1914864734897, 5786.783903349395, 4244.746003363601, 2621.629481438401, -670.5790970481327, -734.9460548232369, 424.26303948448276, 530.8131557329303, -2402.4143920511497, -940.7047406888597, -189.95633545251758, -8152.737784285175, -77.13290220998427, -1097.636608158099, 53.50032993618851], [-2463.93823515868, 2966.916153697679, -235.79653014003634, -2971.7855445119285, 44.91857419832689, -5788.029652303578, -1600.727104064083, 1043.5342045599002, -670.5790970461442, 6762.264308969612, 4849.602950468501, -3854.7856947946593, -4821.34923682767, -2668.11964251867, -788.1428099357285, 5076.528115566521, 2176.101336341045, 1130.7151454546754, 3143.807293389361, -1304.00310034241], [5253.627696681107, -16053.76129670342, -8876.582277713236, -24607.332628905286, 520.005219903482, -39219.855692735626, 16626.78905667868, -9385.384744339872, -734.9460548844733, 4849.602950583484, 30703.67881060854, 5579.2118928568025, 10154.4172318306, 8272.27522144477, -4338.858117521156, 3886.4728152766147, -3274.6667411157996, 1308.2985504975045, 24733.49794628938, -5314.1961209753445], [784.0508558257634, -1335.0085616752604, -9533.465553732532, -3089.5309362572357, -30.634481422950792, -3596.6587236626233, 1519.2271837198716, -9514.709460123948, 424.26303946093964, -3854.785694756417, 5579.21189306241, 9239.676902943786, 12280.57150615005, 11925.78527019671, 1823.797782302106, -9384.160050494338, -1198.5998217706838, 408.33256494233586, 1445.14600870026, -3895.7832488491017], [-1389.5308485027822, 1954.2485931072115, -15383.019118638475, -5519.943382813847, -51.45322421052229, -6282.884583780501, 286.87527133101594, -23588.89761616685, 530.8131556863902, -4821.349236754146, 10154.417232260063, 12280.571506166934, 20957.90560267418, 27261.785834307157, 5126.04651051807, -18602.384769769742, -631.1080493848282, 543.4288394817057, 2217.6850813249066, -5029.007114532069], [-32247.304462290136, 49089.10613538935, -24174.15821718232, 3381.9513268810524, -439.5833989881307, 1365.4504104442774, -30357.13132263298, -70563.28143125128, -2402.41439211946, -2668.11964240242, 8272.275222322422, 11925.785270298846, 27261.785834451624, 70380.17877717015, 21136.24495830155, -38569.37792585889, 19096.036846794148, 1154.5567999346192, -5819.297480322362, -5818.887346557714], [-18967.745777102755, 30020.292634206085, -4852.422951598071, 5652.511601224275, -743.5961316578715, 12162.114761058912, -22831.06083440367, -21845.65168324126, -940.7047406773194, -788.1428099399475, -4338.858117317583, 1823.7977823725819, 5126.046510647993, 21136.244958476324, 11071.757645722404, -12570.677861510412, 12593.351657029856, 255.7801877521692, -11091.218253996682, -908.0616651700551], [13218.482692059419, -24848.37843901836, 15557.855488750032, -8863.813197862655, 457.55989378946424, -14785.276489108852, 17854.88648048853, 34912.45775347565, -189.95633542695836, 5076.528115533133, 3886.4728146808943, -9384.16005064302, -18602.38477003163, -38569.37792619106, -12570.677861460648, 27913.558743250534, -6665.468703764781, -427.99511314051136, 12663.269222005165, 3387.5371184985474], [-48317.638942592785, 64551.068688048996, -2040.0220932859945, 4664.555994788168, -719.4730959150198, 9218.68977771881, -45295.43714322314, -25683.54101702725, -8152.737784252212, 2176.10133631765, -3274.666741283571, -1198.5998217970543, -631.108049436293, 19096.036846730385, 12593.351657099527, -6665.468703790208, 38760.70689511728, 442.56637951371187, -9088.998830573564, -521.9710553281943], [-658.3814920395326, 1032.5828500029431, -1454.453209717744, -638.1826780117617, -7.068484415188253, -883.3301630942917, -651.193463906661, -1135.3411242557022, -77.13290221167337, 1130.7151454573407, 1308.2985505026388, 408.3325649393578, 543.4288394738581, 1154.5567999156929, 255.7801877480919, -427.9951131259857, 442.5663795197604, 468.51975574434294, 282.86274030474283, -1087.0971134627373], [14371.932303630289, -33045.36914417808, -1518.363602818085, -19818.030239260403, 1208.6200000771894, -41876.83043653837, 31274.53032225935, 2696.5991860606127, -1097.6366082273373, 3143.807293498658, 24733.497946199175, 1445.1460084871003, 2217.685080890498, -5819.2974811478925, -11091.218254166119, 12663.26922254208, -9088.998830353034, 282.86274030003375, 31058.150922040117, -1650.5738570185663], [1012.9554112301215, -1367.8938121495114, 6132.915646028243, 3056.8519828998797, 17.823789443913572, 3991.857295972297, 561.8930385203007, 5085.756732090456, 53.5003299475985, -1304.0031003619026, -5314.196121039804, -3895.783248835201, -5029.007114495365, -5818.887346458819, -908.0616651353738, 3387.537118407202, -521.9710553518178, -1087.0971134632002, -1650.5738570877656, 3584.1039892031795]], "optimal_y_mu": [[-35.811207763822395], [-35.25505055701225], [-27.092283269091183], [-28.676135784383305], [-36.973672629623316], [-31.860195409823696], [-35.30100168974934], [-33.84077119305672], [-36.536888498578364], [-23.87399127377366], [-29.866714783384623], [-19.58317211410442], [-28.821328012566266], [-33.068700641986695], [-34.71032334178936], [-31.087490906619635], [-36.17364476447203], [11.66771585175384], [-32.97746049850164], [-8.904514190094595]], "training_R2": 0.9999995278740588, "training_rmse": 0.00778725038033657}, "map": {"x_data_columns": "list", "x_data": "numpy", "x_data_min": "numpy", "x_data_max": "numpy", "x_data_scaled": "numpy", "optimal_weights": "numpy", "optimal_p": "str", "optimal_mean": "numpy", "optimal_variance": "numpy", "regularization_parameter": "str", "optimal_covariance_matrix": "numpy", "covariance_matrix_inverse": "numpy", "optimal_y_mu": "numpy", "training_R2": "str", "training_rmse": "str"}}, " S_va": {"attr": {"x_data_columns": ["inf_fr", "temp", "hrt"], "x_data": [[9.62, 24.21, 9.97], [7.6, 29.05, 9.24], [9.06, 27.98, 3.67], [6.71, 27.84, 4.3], [5.36, 27.03, 11.82], [7.09, 24.66, 6.14], [6.31, 30.7, 9.3], [5.55, 31.95, 7.72], [7.79, 31.75, 11.08], [9.87, 32.81, 2.91], [6.06, 22.9, 4.9], [8.25, 29.43, 2.38], [9.41, 33.07, 4.37], [5.94, 34.29, 7.05], [5.16, 25.28, 8.6], [6.99, 34.67, 5.63], [8.78, 26.17, 10.5], [8.25, 22.25, 1.18], [7.34, 23.58, 6.97], [8.52, 30.11, 1.71]], "x_data_min": [[5.16, 22.25, 1.18]], "x_data_max": [[9.87, 34.67, 11.82]], "x_data_scaled": [[0.9469214437367304, 0.15780998389694045, 0.8261278195488723], [0.5180467091295117, 0.5475040257648953, 0.7575187969924813], [0.8280254777070066, 0.4613526570048309, 0.23402255639097744], [0.3290870488322718, 0.45008051529790655, 0.2932330827067669], [0.04246284501061576, 0.3848631239935588, 1.0], [0.40976645435244163, 0.1940418679549114, 0.46616541353383456], [0.24416135881104029, 0.6803542673107889, 0.7631578947368421], [0.08280254777070059, 0.7809983896940417, 0.6146616541353384], [0.5583864118895967, 0.7648953301127213, 0.9304511278195489], [1.0, 0.8502415458937199, 0.162593984962406], [0.19108280254777063, 0.052334943639291344, 0.349624060150376], [0.6560509554140128, 0.5780998389694041, 0.11278195488721804], [0.902335456475584, 0.8711755233494363, 0.299812030075188], [0.16560509554140135, 0.9694041867954909, 0.5516917293233082], [0.0, 0.2439613526570049, 0.6973684210526315], [0.38853503184713384, 1.0, 0.4182330827067669], [0.7685774946921443, 0.3156199677938809, 0.8759398496240601], [0.6560509554140128, 0.0, 0.0], [0.46284501061571126, 0.10708534621578085, 0.5441729323308271], [0.713375796178344, 0.6328502415458935, 0.04981203007518797]], "optimal_weights": [0.001, 0.0187940833672107, 7.3271183039156265], "optimal_p": 2, "optimal_mean": [[8.228521258702127]], "optimal_variance": [[60.94002581873788]], "regularization_parameter": 1.9406097064855743e-06, "optimal_covariance_matrix": [[1.0000019406097065, 0.9631672303330203, 0.07649344338720503, 0.12459101799438911, 0.7998772715924855, 0.38685341824230984, 0.9659152157772777, 0.7148380445270568, 0.9168410300389023, 0.03936112526859802, 0.18929562663298405, 0.023947319123206478, 0.13012772944002912, 0.5684550810149128, 0.8846950066605733, 0.29150028949220974, 0.9814932121256875, 0.006729752444827855, 0.558345110858032, 0.012033001737393459], [0.9631672303330203, 1.0000019406097065, 0.13422738760805522, 0.20604582563986382, 0.6495101096840442, 0.535617305483613, 0.9993604929638904, 0.860065172752032, 0.8025094727289895, 0.07462480864259179, 0.2941141817304258, 0.04755757606248052, 0.21500052568487238, 0.7306057274926252, 0.971892541344381, 0.4285599521512546, 0.9013825695186815, 0.014843284927525683, 0.7137996331791587, 0.02547764298941077], [0.07649344338720503, 0.13422738760805522, 1.0000019406097065, 0.974394163229523, 0.013572569131170949, 0.6727519967620399, 0.1283852594271447, 0.3450474364802463, 0.02856565397128637, 0.9605443279128979, 0.9035106979620711, 0.8976373576086103, 0.965725435470239, 0.4748784014716474, 0.20708449580632843, 0.7754738740205405, 0.04882079084508955, 0.6667695017630139, 0.49296777169969075, 0.779423444646716], [0.12459101799438911, 0.20604582563986382, 0.974394163229523, 1.0000019406097065, 0.025727356918754107, 0.8022296434260373, 0.19808750415671855, 0.46807362353802595, 0.05094195453155777, 0.8794061710990696, 0.974050516395115, 0.7874109351054761, 0.9960295672383083, 0.6098432465521049, 0.30191459867400816, 0.886766743735189, 0.08303979967563002, 0.5304969703786216, 0.6290003317357774, 0.647306638741402], [0.7998772715924855, 0.6495101096840442, 0.013572569131170949, 0.025727356918754107, 1.0000019406097065, 0.12382366487163472, 0.6618671640595725, 0.3359064062802226, 0.9623066575110968, 0.0058394397943235515, 0.044986641676385386, 0.003123933368293421, 0.02739484029412287, 0.22785556055366096, 0.5109745720486626, 0.08314953769414946, 0.8928037820510155, 0.000655390991489934, 0.2178293803764568, 0.001337507767756596], [0.38685341824230984, 0.535617305483613, 0.6727519967620399, 0.8022296434260373, 0.12382366487163472, 1.0000019406097065, 0.5216505937658817, 0.8452244476973417, 0.20482707785137386, 0.5047580143969251, 0.9048905182152052, 0.39937982760401963, 0.8092668797364927, 0.9371101834812829, 0.6757820873444177, 0.9713750724041406, 0.29207628425976095, 0.2033095089134418, 0.9562540008128824, 0.27974745899138537], [0.9659152157772777, 0.9993604929638904, 0.1283852594271447, 0.19808750415671855, 0.6618671640595725, 0.5216505937658817, 1.0000019406097065, 0.8506217977864013, 0.814405148346077, 0.07108799232466242, 0.28353277249960834, 0.04506471979420641, 0.20717900545562093, 0.7194774860527869, 0.9652652235784919, 0.41741628577864326, 0.9084872141263636, 0.013894588057817075, 0.6993584100268205, 0.02402267718992948], [0.7148380445270568, 0.860065172752032, 0.3450474364802463, 0.46807362353802595, 0.3359064062802226, 0.8452244476973417, 0.8506217977864013, 1.0000019406097065, 0.4814691062826685, 0.22350104386969746, 0.5917427184776468, 0.15775997152224233, 0.48327772168950733, 0.9707099594089406, 0.9459668781735135, 0.7529881810851372, 0.6036649957390746, 0.062035834169505054, 0.9559153753576665, 0.09646601007883865], [0.9168410300389023, 0.8025094727289895, 0.02856565397128637, 0.05094195453155777, 0.9623066575110968, 0.20482707785137386, 0.814405148346077, 0.4814691062826685, 1.0000019406097065, 0.013294105796989843, 0.08361313124583618, 0.007450671301618583, 0.05423834788790894, 0.3492109658003665, 0.6679938179330309, 0.14609997778249784, 0.9747150408447308, 0.0017391138503064579, 0.33239638245600844, 0.0034042972386964425], [0.03936112526859802, 0.07462480864259179, 0.9605443279128979, 0.8794061710990696, 0.0058394397943235515, 0.5047580143969251, 0.07108799232466242, 0.22350104386969746, 0.013294105796989843, 1.0000019406097065, 0.7642012440436788, 0.9805020540431021, 0.8711173680185225, 0.32947090932470313, 0.1220475406885789, 0.6190108638710344, 0.023898974618556054, 0.8126861082164093, 0.3404405225940253, 0.9101283937034943], [0.18929562663298405, 0.2941141817304258, 0.9035106979620711, 0.974050516395115, 0.044986641676385386, 0.9048905182152052, 0.28353277249960834, 0.5917427184776468, 0.08361313124583618, 0.7642012440436788, 1.0000019406097065, 0.6594031748417594, 0.9691967550454681, 0.7298013873446962, 0.4119856411003773, 0.9498914457014779, 0.131163722292658, 0.4082349101395256, 0.7577087329043739, 0.5141599381565436], [0.023947319123206478, 0.04755757606248052, 0.8976373576086103, 0.7874109351054761, 0.003123933368293421, 0.39937982760401963, 0.04506471979420641, 0.15775997152224233, 0.007450671301618583, 0.9805020540431021, 0.6594031748417594, 1.0000019406097065, 0.7726111741029039, 0.24301613068098132, 0.08155252923093129, 0.5030629774438534, 0.014000051625416331, 0.905307850664923, 0.25467419158470517, 0.9713065095915848], [0.13012772944002912, 0.21500052568487238, 0.965725435470239, 0.9960295672383083, 0.02739484029412287, 0.8092668797364927, 0.20717900545562093, 0.48327772168950733, 0.05423834788790894, 0.8711173680185225, 0.9691967550454681, 0.7726111741029039, 1.0000019406097065, 0.6277700855507379, 0.3115277849542698, 0.9018310602024667, 0.08734761377808536, 0.510206922653082, 0.6384675053838532, 0.6318848607687174], [0.5684550810149128, 0.7306057274926252, 0.4748784014716474, 0.6098432465521049, 0.22785556055366096, 0.9371101834812829, 0.7194774860527869, 0.9707099594089406, 0.3492109658003665, 0.32947090932470313, 0.7298013873446962, 0.24301613068098132, 0.6277700855507379, 1.0000019406097065, 0.8475444164766196, 0.8775931842622796, 0.45898080322271323, 0.10560902145234013, 0.9856265644264481, 0.15755084067134978], [0.8846950066605733, 0.971892541344381, 0.20708449580632843, 0.30191459867400816, 0.5109745720486626, 0.6757820873444177, 0.9652652235784919, 0.9459668781735135, 0.6679938179330309, 0.1220475406885789, 0.4119856411003773, 0.08155252923093129, 0.3115277849542698, 0.8475444164766196, 1.0000019406097065, 0.5588929995341497, 0.7910986746698829, 0.028300012367207462, 0.8415368876433453, 0.046151470305593474], [0.29150028949220974, 0.4285599521512546, 0.7754738740205405, 0.886766743735189, 0.08314953769414946, 0.9713750724041406, 0.41741628577864326, 0.7529881810851372, 0.14609997778249784, 0.6190108638710344, 0.9498914457014779, 0.5030629774438534, 0.9018310602024667, 0.8775931842622796, 0.5588929995341497, 1.0000019406097065, 0.21353696367434263, 0.27239087438087267, 0.8770386004688072, 0.3689188611092806], [0.9814932121256875, 0.9013825695186815, 0.04882079084508955, 0.08303979967563002, 0.8928037820510155, 0.29207628425976095, 0.9084872141263636, 0.6036649957390746, 0.9747150408447308, 0.023898974618556054, 0.131163722292658, 0.014000051625416331, 0.08734761377808536, 0.45898080322271323, 0.7910986746698829, 0.21353696367434263, 1.0000019406097065, 0.0036110111172192277, 0.44601555304069646, 0.006720728939500953], [0.006729752444827855, 0.014843284927525683, 0.6667695017630139, 0.5304969703786216, 0.000655390991489934, 0.2033095089134418, 0.013894588057817075, 0.062035834169505054, 0.0017391138503064579, 0.8126861082164093, 0.4082349101395256, 0.905307850664923, 0.510206922653082, 0.10560902145234013, 0.028300012367207462, 0.27239087438087267, 0.0036110111172192277, 1.0000019406097065, 0.11417878758404067, 0.9746170711786357], [0.558345110858032, 0.7137996331791587, 0.49296777169969075, 0.6290003317357774, 0.2178293803764568, 0.9562540008128824, 0.6993584100268205, 0.9559153753576665, 0.33239638245600844, 0.3404405225940253, 0.7577087329043739, 0.25467419158470517, 0.6384675053838532, 0.9856265644264481, 0.8415368876433453, 0.8770386004688072, 0.44601555304069646, 0.11417878758404067, 1.0000019406097065, 0.16596933642896122], [0.012033001737393459, 0.02547764298941077, 0.779423444646716, 0.647306638741402, 0.001337507767756596, 0.27974745899138537, 0.02402267718992948, 0.09646601007883865, 0.0034042972386964425, 0.9101283937034943, 0.5141599381565436, 0.9713065095915848, 0.6318848607687174, 0.15755084067134978, 0.046151470305593474, 0.3689188611092806, 0.006720728939500953, 0.9746170711786357, 0.16596933642896122, 1.0000019406097065]], "covariance_matrix_inverse": [[37655.45740854244, -50757.823999525404, 3106.519793921611, -989.3192375112718, 798.817449034224, -2931.722524665252, 35574.91147049818, 24456.871253205773, 5214.955181897137, -1812.744818728197, -1174.527134492067, -80.98062535209047, -1445.748056580501, -18983.22011742176, -11248.377114569235, 6042.722467121417, -28910.351917010456, -377.3082343589751, 5050.784945822257, 896.9972328603914], [-50757.82399970675, 80914.09338276235, -6102.7754828944135, 3991.354078927033, -1270.2586738357284, 14057.978445305045, -59620.42332366369, -35344.15916344188, -5094.313543939307, 3999.7574526744384, -1481.4660963439958, 266.00535124676566, 1995.5105880250708, 29571.225056862786, 17755.673822279467, -12074.070324188726, 36337.684070925665, 970.9473528665008, -15921.874587796603, -2319.532761412334], [3106.5197939384275, -6102.7754828800635, 13574.929614431714, -1823.3605063365244, 195.07095060438877, -433.8120785947301, 4378.06507965443, 14792.191844711064, -271.57444563651063, 2666.769388044202, -3690.449407894492, -8848.03492055294, -13599.372929931907, -18161.879973306965, -4159.360440735639, 14338.866705442231, -1371.8638981041688, -582.0347836672557, 2006.132517959554, 3972.45234144849], [-989.3192374196736, 3991.354078794218, -1823.3605062806635, 15852.025572946677, 334.5370194753023, 11561.57563566367, -887.4604044529418, -11174.92205238475, -183.29536415210444, 900.7357801296814, -12007.501777289533, -3299.642588407494, -3125.270692378828, 10821.174297314064, 2371.154494716287, -7644.368340606356, -765.0786061530962, 272.9593206277151, -5335.344701544677, 1099.650750377167], [798.8174490483158, -1270.2586738517787, 195.07095061177324, 334.5370194740082, 194.1764797113604, -343.39561105493664, 1556.9054420960254, -330.81256305261576, -182.75146873415426, 171.54560243845182, -208.74360099413244, -299.9849836341139, -427.1391325484436, 63.37521302490644, -479.39776794940116, 213.3662359986882, -696.9411364405713, 10.80636475609455, 627.1957969476999, 81.05864234775281], [-2931.7225247827537, 14057.97844546008, -433.81207863528954, 11561.575635647843, -343.3956110587181, 28127.709551669883, -13964.156835188223, -3982.168437572482, 1603.2950238486478, -795.4111699543206, -15146.96474766378, -240.5204282406683, -132.49919679838257, 6589.851498046851, 6914.891000663883, -10060.237165069142, -190.7109066046325, 313.6256302167987, -20736.830735896656, -302.1321365080011], [35574.911470739215, -59620.423323825, 4378.065079721479, -887.4604045307518, 1556.9054420882335, -13964.156835070318, 47895.48103841581, 17460.777125023695, 2281.896919145763, -2200.956450413789, 937.932049732477, -1545.356519882261, -2318.4410959535403, -15519.898288732275, -13546.212751758185, 7779.501903548495, -25798.888662725323, -656.5079297950177, 16176.47014000269, 2130.3281668760255], [24456.87125296482, -35344.159162947726, 14792.191844513874, -11174.922052582864, -330.812563080709, -3982.1684375116774, 17460.777124535616, 63389.795600125035, 2864.3032454143595, 1287.2638142479957, 1153.4221444431566, -3973.4165927352924, -15666.780024884689, -60553.56593874153, -16124.778781179964, 31148.239774222995, -13552.082170009911, -678.0573321794111, 2867.7576046138583, 1944.3187162500878], [5214.955181856989, -5094.313543859186, -271.574445648864, -183.29536416026303, -182.75146873644815, 1603.2950238655678, 2281.896919077891, 2864.3032453964306, 1612.7918565727155, -486.0933388094254, -332.38611949744495, 597.9636856340264, 831.3722747383777, -1371.2518430429839, -247.62091110768614, -553.937434509527, -4568.95052473716, -22.306133867824403, -1546.065651866795, -139.4858491695477], [-1812.7448187355103, 3999.7574526809, 2666.7693880638562, 900.7357801158815, 171.54560243675314, -795.4111699464654, -2200.9564504324208, 1287.2638143352053, -486.0933388121072, 7978.55395369056, 238.65739000913666, -6819.850711520067, -9313.848832028232, -3681.586430033798, -580.3359860063837, 6165.773662961785, 1080.9464269551665, 1127.262137114041, 405.0383646095975, -304.8091140119585], [-1174.5271345249237, -1481.4660963141341, -3690.4494079090236, -12007.501777260373, -208.74360099064359, -15146.964747690412, 937.9320497476858, 1153.422144271642, -332.38611950499603, 238.65739001319443, 13434.825718329097, 4045.2408240157633, 5492.8526245449975, -842.7340719263692, -1281.6321356609346, 2690.3544775349706, 1941.549513240822, 128.46603219102647, 8172.152900676345, -2014.2800085681015], [-80.9806254049376, 266.0053513065797, -8848.0349205939, -3299.642588378597, -299.98498363083735, -240.52042827250358, -1545.3565198855092, -3973.4165929630585, 597.9636856252007, -6819.850711518783, 4045.2408240294976, 10959.777327654721, 13656.10598724014, 7440.351169741961, 1938.0152214440448, -9100.512171613695, 58.82437449482489, -351.75609812444134, -1463.9666968609963, -2953.7469995504025], [-1445.748056594982, 1995.5105880104743, -13599.372929950621, -3125.2706923022456, -427.1391325388364, -132.49919684463555, -2318.44109586804, -15666.780025186137, 831.3722747273206, -9313.848832007174, 5492.852624529742, 13656.105987196568, 22200.699269131164, 21173.89720811715, 4923.428391004513, -19003.94406865993, 452.74595655634903, -420.1401346492577, -2008.098575317416, -3261.4615343749506], [-18983.220117230405, 29571.22505645739, -18161.879973142375, 10821.174297508862, 63.37521305176036, 6589.851497986279, -15519.898288305529, -60553.565938835614, -1371.2518430622883, -3681.586429946607, -842.7340720793038, 7440.351169529381, 21173.897207851212, 61357.397897452065, 16084.153588410907, -35597.93239462446, 9454.656234487524, 612.6429318174904, -5613.280179220547, -2826.2983467860868], [-11248.377114578298, 17755.673822230994, -4159.360440713552, 2371.1544947692987, -479.39776794252737, 6914.891000630858, -13546.212751674982, -16124.778781285888, -247.62091112508392, -580.3359859907841, -1281.6321356890676, 1938.0152213994138, 4923.428390964188, 16084.153588485997, 7843.466850320004, -9444.592266985326, 7015.223845784942, 223.6858085846582, -7002.491123651929, -983.0400676408123], [6042.722467068317, -12074.070324054017, 14338.866705395967, -7644.368340708205, 213.36623598523232, -10060.237165029655, 7779.501903372895, 31148.23977438888, -553.9374344971374, 6165.773662918802, 2690.354477593462, -9100.51217152055, -19003.944068565594, -35597.93239474154, -9444.59226697906, 26471.735890422355, -1871.936609471718, -150.82383951189755, 8081.045519116476, 2580.98548419255], [-28910.35191699943, 36337.68407077443, -1371.8638981069603, -765.078606096827, -696.9411364307501, -190.7109067016509, -25798.888662536756, -13552.082170194333, -4568.95052476401, 1080.946426938716, 1941.5495132299336, 58.824374472664324, 452.7459565732569, 9454.656234644073, 7015.223845778444, -1871.9366095282733, 23573.203056010803, 160.30264049757247, -1969.1251142879707, -452.3996591286762], [-377.30823436405603, 970.94735287099, -582.0347836665919, 272.9593206283177, 10.806364756194906, 313.62563021495674, -656.5079297968023, -678.0573321830788, -22.306133869211518, 1127.2621371145212, 128.46603219104, -351.7560981254066, -420.14013465049237, 612.6429318194239, 223.68580858520505, -150.82383951129543, 160.30264050189243, 323.8657678102729, -356.0657986357015, -543.419713732695], [5050.784945975498, -15921.874587987233, 2006.1325180121364, -5335.3447015435895, 627.1957969499281, -20736.830735879492, 16176.470140124859, 2867.7576047818625, -1546.0656518424253, 405.03836461679606, 8172.152900646685, -1463.9666968883105, -2008.0985753779803, -5613.280179376711, -7002.491123704971, 8081.045519193945, -1969.1251144059588, -356.0657986375662, 17450.468982999308, 1185.845690630504], [896.9972328963823, -2319.5327614527187, 3972.4523414637274, 1099.6507503682121, 81.05864234679247, -302.13213649324194, 2130.3281668893605, 1944.3187163391008, -139.48584916291944, -304.8091140121495, -2014.2800085750875, -2953.7469995511524, -3261.4615343914083, -2826.298346866631, -983.0400676594019, 2580.985484226033, -452.3996591511716, -543.419713733034, 1185.845690618628, 2204.6870710960734]], "optimal_y_mu": [[-6.973936173078851], [-6.867745322467792], [-4.56486523368015], [-5.106405324737011], [-7.174876138907789], [-6.11453116446501], [-6.87666773593342], [-6.57758813949302], [-7.102462784393186], [-3.5792004007338036], [-5.511044703480859], [-2.367371359769896], [-5.1563418270156625], [-6.4065998548645275], [-6.759921607111519], [-5.896005707030895], [-7.03946457877626], [3.6382165073380204], [-6.387390429493844], [-0.214879945716536]], "training_R2": 0.9999992212474542, "training_rmse": 0.0023534088303044337}, "map": {"x_data_columns": "list", "x_data": "numpy", "x_data_min": "numpy", "x_data_max": "numpy", "x_data_scaled": "numpy", "optimal_weights": "numpy", "optimal_p": "str", "optimal_mean": "numpy", "optimal_variance": "numpy", "regularization_parameter": "str", "optimal_covariance_matrix": "numpy", "covariance_matrix_inverse": "numpy", "optimal_y_mu": "numpy", "training_R2": "str", "training_rmse": "str"}}, " S_bu": {"attr": {"x_data_columns": ["inf_fr", "temp", "hrt"], "x_data": [[9.62, 24.21, 9.97], [7.6, 29.05, 9.24], [9.06, 27.98, 3.67], [6.71, 27.84, 4.3], [5.36, 27.03, 11.82], [7.09, 24.66, 6.14], [6.31, 30.7, 9.3], [5.55, 31.95, 7.72], [7.79, 31.75, 11.08], [9.87, 32.81, 2.91], [6.06, 22.9, 4.9], [8.25, 29.43, 2.38], [9.41, 33.07, 4.37], [5.94, 34.29, 7.05], [5.16, 25.28, 8.6], [6.99, 34.67, 5.63], [8.78, 26.17, 10.5], [8.25, 22.25, 1.18], [7.34, 23.58, 6.97], [8.52, 30.11, 1.71]], "x_data_min": [[5.16, 22.25, 1.18]], "x_data_max": [[9.87, 34.67, 11.82]], "x_data_scaled": [[0.9469214437367304, 0.15780998389694045, 0.8261278195488723], [0.5180467091295117, 0.5475040257648953, 0.7575187969924813], [0.8280254777070066, 0.4613526570048309, 0.23402255639097744], [0.3290870488322718, 0.45008051529790655, 0.2932330827067669], [0.04246284501061576, 0.3848631239935588, 1.0], [0.40976645435244163, 0.1940418679549114, 0.46616541353383456], [0.24416135881104029, 0.6803542673107889, 0.7631578947368421], [0.08280254777070059, 0.7809983896940417, 0.6146616541353384], [0.5583864118895967, 0.7648953301127213, 0.9304511278195489], [1.0, 0.8502415458937199, 0.162593984962406], [0.19108280254777063, 0.052334943639291344, 0.349624060150376], [0.6560509554140128, 0.5780998389694041, 0.11278195488721804], [0.902335456475584, 0.8711755233494363, 0.299812030075188], [0.16560509554140135, 0.9694041867954909, 0.5516917293233082], [0.0, 0.2439613526570049, 0.6973684210526315], [0.38853503184713384, 1.0, 0.4182330827067669], [0.7685774946921443, 0.3156199677938809, 0.8759398496240601], [0.6560509554140128, 0.0, 0.0], [0.46284501061571126, 0.10708534621578085, 0.5441729323308271], [0.713375796178344, 0.6328502415458935, 0.04981203007518797]], "optimal_weights": [0.001, 0.023873455257536695, 6.525651744279801], "optimal_p": 2, "optimal_mean": [[11.699163849071569]], "optimal_variance": [[111.2097820814345]], "regularization_parameter": 3.933476398731137e-06, "optimal_covariance_matrix": [[1.0000039334763988, 0.966062327466195, 0.10126310190346126, 0.15636617556577398, 0.8192800873093498, 0.4291847858934232, 0.9676467674694813, 0.7394622956585795, 0.923143529709359, 0.05588023334606829, 0.22706381567082742, 0.03597395764376484, 0.1620564216016469, 0.6018084337743244, 0.8964950407162462, 0.3318837569960795, 0.9833225856906536, 0.011627843341079355, 0.5950703396116419, 0.01948263590016204], [0.966062327466195, 1.0000039334763988, 0.16719121279120366, 0.24489156030114279, 0.6807587452817042, 0.5729619196734163, 0.9992963754437261, 0.8740064046746215, 0.8217793630098128, 0.09905497273067712, 0.3356500630379219, 0.06635999924791673, 0.2541721941187684, 0.7551555713333896, 0.9742588231390459, 0.46949201203592544, 0.9113217852985863, 0.023474959944106984, 0.7395907387105728, 0.03806053593717583], [0.10126310190346126, 0.16719121279120366, 1.0000039334763988, 0.9771352849020636, 0.02172054702191115, 0.7021907488292531, 0.16064387298389918, 0.38733281490237065, 0.04211730015470536, 0.9637395391534922, 0.9124641156268194, 0.9082120677532659, 0.9682549321328415, 0.5142073887316339, 0.24590695271405386, 0.7956800349873243, 0.06791785394417149, 0.6959354071318038, 0.5321375398977388, 0.8007923389543578], [0.15636617556577398, 0.24489156030114279, 0.9771352849020636, 1.0000039334763988, 0.03839324177147772, 0.8214164714782838, 0.23637673264591824, 0.5081994327183912, 0.07050025954934569, 0.8907927604892358, 0.9757517701189504, 0.8081638827180031, 0.9951673891480198, 0.6425025107888933, 0.34406418271294836, 0.8965632390057751, 0.10900174387707437, 0.5677606402836087, 0.6611648574356548, 0.6786736594251591], [0.8192800873093498, 0.6807587452817042, 0.02172054702191115, 0.03839324177147772, 1.0000039334763988, 0.15556676150640114, 0.6919951753598895, 0.3780557883943731, 0.9653360850334644, 0.010232431976273363, 0.06310596966350075, 0.005869575624249063, 0.04053164268171237, 0.2672154746773601, 0.5498370709328024, 0.1088506983124081, 0.9038629840493044, 0.00145964158683197, 0.25719834109315676, 0.0027568961805315238], [0.4291847858934232, 0.5729619196734163, 0.7021907488292531, 0.8214164714782838, 0.15556676150640114, 1.0000039334763988, 0.5591902288372962, 0.8587909447795918, 0.24305213797493297, 0.5422632632420384, 0.9147011429555504, 0.4410907964012699, 0.8254916528295243, 0.9397461110979209, 0.7053543282065523, 0.9699598162930931, 0.3341260324605728, 0.2419437098491276, 0.9608921965788001, 0.3211292072819316], [0.9676467674694813, 0.9992963754437261, 0.16064387298389918, 0.23637673264591824, 0.6919951753598895, 0.5591902288372962, 1.0000039334763988, 0.8657441315169047, 0.8328489802292918, 0.09490177421832072, 0.3245317429373284, 0.0632476513002761, 0.24603273430394845, 0.7454147588559963, 0.9676829946921891, 0.4589393271019602, 0.9171761700288039, 0.022107797697883572, 0.7255485183430256, 0.036119140764651336], [0.7394622956585795, 0.8740064046746215, 0.38733281490237065, 0.5081994327183912, 0.3780557883943731, 0.8587909447795918, 0.8657441315169047, 1.0000039334763988, 0.521529267022574, 0.26327091227465405, 0.6243268366821239, 0.1930099209480238, 0.5232188279419656, 0.9736242061564232, 0.9497748721195569, 0.7764481369095133, 0.636912624313682, 0.08371475289684488, 0.9575182328340138, 0.12456046109281019], [0.923143529709359, 0.8217793630098128, 0.04211730015470536, 0.07050025954934569, 0.9653360850334644, 0.24305213797493297, 0.8328489802292918, 0.521529267022574, 1.0000039334763988, 0.02132397719649832, 0.1092899446017103, 0.012730156692594592, 0.07459538233517281, 0.3916784111508534, 0.6967608452178276, 0.1802399549825315, 0.9760379228630375, 0.0034703832666858206, 0.37379883062262576, 0.006337646558382232], [0.05588023334606829, 0.09905497273067712, 0.9637395391534922, 0.8907927604892358, 0.010232431976273363, 0.5422632632420384, 0.09490177421832072, 0.26327091227465405, 0.02132397719649832, 1.0000039334763988, 0.7833917228649377, 0.9820843356365413, 0.8843608138143454, 0.3719485779952715, 0.15320087414661074, 0.6522225417573067, 0.035881430407415, 0.8270467527098658, 0.38150758080588626, 0.9192334400508286], [0.22706381567082742, 0.3356500630379219, 0.9124641156268194, 0.9757517701189504, 0.06310596966350075, 0.9147011429555504, 0.3245317429373284, 0.6243268366821239, 0.1092899446017103, 0.7833917228649377, 1.0000039334763988, 0.688757102654404, 0.9678242898970353, 0.7508647541923935, 0.4538288918849512, 0.9491423101884136, 0.16371172909759737, 0.45024762595303736, 0.7810340505864797, 0.551622684662557], [0.03597395764376484, 0.06635999924791673, 0.9082120677532659, 0.8081638827180031, 0.005869575624249063, 0.4410907964012699, 0.0632476513002761, 0.1930099209480238, 0.012730156692594592, 0.9820843356365413, 0.688757102654404, 1.0000039334763988, 0.7942316176960004, 0.2833678923776168, 0.1071869484682344, 0.5416328551032447, 0.02232022430879863, 0.9130329766598405, 0.2953052686545284, 0.9743833805536201], [0.1620564216016469, 0.2541721941187684, 0.9682549321328415, 0.9951673891480198, 0.04053164268171237, 0.8254916528295243, 0.24603273430394845, 0.5232188279419656, 0.07459538233517281, 0.8843608138143454, 0.9678242898970353, 0.7942316176960004, 1.0000039334763988, 0.660483890126091, 0.35289232331118386, 0.9119474016771902, 0.11378985928219079, 0.5462097332617417, 0.6677825823890974, 0.664151543938962], [0.6018084337743244, 0.7551555713333896, 0.5142073887316339, 0.6425025107888933, 0.2672154746773601, 0.9397461110979209, 0.7454147588559963, 0.9736242061564232, 0.3916784111508534, 0.3719485779952715, 0.7508647541923935, 0.2833678923776168, 0.660483890126091, 1.0000039334763988, 0.8597817870316424, 0.8902065168931739, 0.49824949978737704, 0.13414319721982304, 0.9819553750069062, 0.19268348310682787], [0.8964950407162462, 0.9742588231390459, 0.24590695271405386, 0.34406418271294836, 0.5498370709328024, 0.7053543282065523, 0.9676829946921891, 0.9497748721195569, 0.6967608452178276, 0.15320087414661074, 0.4538288918849512, 0.1071869484682344, 0.35289232331118386, 0.8597817870316424, 1.0000039334763988, 0.5931825534881123, 0.8115561632536729, 0.04177638906205994, 0.8574339850424624, 0.06453702164276884], [0.3318837569960795, 0.46949201203592544, 0.7956800349873243, 0.8965632390057751, 0.1088506983124081, 0.9699598162930931, 0.4589393271019602, 0.7764481369095133, 0.1802399549825315, 0.6522225417573067, 0.9491423101884136, 0.5416328551032447, 0.9119474016771902, 0.8902065168931739, 0.5931825534881123, 1.0000039334763988, 0.25197616981681614, 0.3117963839476536, 0.8846686580717716, 0.41103499506906904], [0.9833225856906536, 0.9113217852985863, 0.06791785394417149, 0.10900174387707437, 0.9038629840493044, 0.3341260324605728, 0.9171761700288039, 0.636912624313682, 0.9760379228630375, 0.035881430407415, 0.16371172909759737, 0.02232022430879863, 0.11378985928219079, 0.49824949978737704, 0.8115561632536729, 0.25197616981681614, 1.0000039334763988, 0.006675362959219014, 0.48704172242339, 0.011607786309266016], [0.011627843341079355, 0.023474959944106984, 0.6959354071318038, 0.5677606402836087, 0.00145964158683197, 0.2419437098491276, 0.022107797697883572, 0.08371475289684488, 0.0034703832666858206, 0.8270467527098658, 0.45024762595303736, 0.9130329766598405, 0.5462097332617417, 0.13414319721982304, 0.04177638906205994, 0.3117963839476536, 0.006675362959219014, 1.0000039334763988, 0.14475474744711106, 0.9745725750952817], [0.5950703396116419, 0.7395907387105728, 0.5321375398977388, 0.6611648574356548, 0.25719834109315676, 0.9608921965788001, 0.7255485183430256, 0.9575182328340138, 0.37379883062262576, 0.38150758080588626, 0.7810340505864797, 0.2953052686545284, 0.6677825823890974, 0.9819553750069062, 0.8574339850424624, 0.8846686580717716, 0.48704172242339, 0.14475474744711106, 1.0000039334763988, 0.20159717929452253], [0.01948263590016204, 0.03806053593717583, 0.8007923389543578, 0.6786736594251591, 0.0027568961805315238, 0.3211292072819316, 0.036119140764651336, 0.12456046109281019, 0.006337646558382232, 0.9192334400508286, 0.551622684662557, 0.9743833805536201, 0.664151543938962, 0.19268348310682787, 0.06453702164276884, 0.41103499506906904, 0.011607786309266016, 0.9745725750952817, 0.20159717929452253, 1.0000039334763988]], "covariance_matrix_inverse": [[25170.7478620871, -31419.634462086728, 1113.5154990655294, -48.69165013838075, 580.9123334100926, 1167.058804722801, 21639.331315668347, 15107.615688542335, 3708.0383201585255, -855.8147158007415, -1585.7608879037, 411.4705513322338, -439.2062229768229, -11036.667293469329, -6707.029444762733, 2464.120041724279, -19883.162196313497, -83.56868067478962, 706.6207310549776, 52.113149991886324], [-31419.634462022575, 52618.31534577851, -3743.620575254984, 956.3832943341663, -702.542506430261, 7621.243521272699, -38898.313359412445, -21715.02424371933, -2861.2867527823264, 3330.2556981654266, 714.7001213618202, 26.17254133342206, 417.105575784193, 17719.78013205119, 11027.922426038853, -6084.417568514223, 21776.257624180133, 634.7563530815515, -9875.80615064308, -1622.8891122216496], [1113.5154990196945, -3743.620575186788, 12546.102351000143, -1344.821243564191, 251.2903390131011, -1604.8808022048336, 3786.081722850219, 9051.922826974218, -605.2501374336556, 3115.790344344066, -3131.2513946074023, -8788.73695202894, -12950.690636445313, -13159.700267080709, -3102.528247233524, 12589.433297335887, -257.16026475037546, -437.3931189782483, 3005.9347300789555, 3653.3098342242606], [-48.69165009798751, 956.3832943086509, -1344.8212434871268, 14734.583202593614, 443.4773715442034, 6611.8208116050455, 2565.6309294437992, -12390.254631627482, -509.80451576814215, 2849.7013473726756, -9808.485843984856, -4941.838881227759, -4626.705301399547, 11320.712839496464, 1058.263631066195, -6053.387711128628, -1154.1954531580889, 554.1413998138809, -1247.4454315132048, 1013.4126637431472], [580.912333405726, -702.542506421089, 251.29033901802413, 443.47737154133745, 227.03401371370214, -38.502693897641116, 1265.9454927102083, -620.8854065702291, -226.3878138610669, 343.6055578320859, -354.78825272487825, -395.3703234892887, -690.4637070661881, 179.21313423731064, -398.1746899744161, 292.3787812425575, -643.8389521972157, 34.72080677939702, 416.85863041060986, 42.25569161873959], [1167.0588048948298, 7621.243521011959, -1604.8808021790876, 6611.820811541219, -38.50269389940572, 21942.23025789929, -8150.265987049164, -3739.8380350646516, 1737.3000901461942, 415.24872825919107, -9763.597139395733, 835.515089290387, 803.4989302123696, 6125.2757034559, 5268.799552783027, -8204.518242498969, -3436.84562599027, 517.5904275981748, -16790.06823807509, -1383.1503940934167], [21639.33131558981, -38898.31335933461, 3786.0817229302315, 2565.6309294336265, 1265.9454927176855, -8150.265987191029, 33342.201885438044, 7334.625811009567, 488.1974368040723, -777.0716073728287, -2119.7206216820596, -2612.0381375004044, -3371.54036637354, -7473.875035543385, -8957.420860236301, 4458.1997520495615, -15480.298809606025, -321.51903345725447, 11564.521008267122, 1793.908030305588], [15107.615688430264, -21715.024243686785, 9051.922826870812, -12390.254631748046, -620.8854065771111, -3739.8380353519365, 7334.625810993876, 52291.862826163044, 2173.9118294164646, -1446.5302079462576, 4005.9995520899192, 806.3014158492452, -7587.015667792388, -48968.68181837211, -11395.658255601296, 23482.490251515053, -7068.697329675045, -752.2454103136338, 745.8305563932415, 659.627492864585], [3708.038320183048, -2861.286752830276, -605.2501374312858, -509.8045157730996, -226.38781386050647, 1737.300090122197, 488.19743684030186, 2173.911829448725, 1424.838723468827, -479.5833470743115, 38.49373819920983, 829.5958826621552, 1230.7464309509508, -697.3246663623624, 279.2548716240729, -905.436868339641, -3370.434598523593, -6.676930267776045, -1983.5390279556552, -259.50752688753585], [-855.8147157982086, 3330.255698177749, 3115.790344361475, 2849.70134733041, 343.60555782940855, 415.24872827749056, -777.0716074078849, -1446.530207848895, -479.5833470688322, 9202.462038024058, -1276.6112609149498, -8203.692824205309, -11018.724335310973, -1463.2983452260287, -525.4938617949131, 5659.838722393063, -126.02441876460273, 1285.5518746149442, 209.80012236200628, -209.7827441899896], [-1585.7608879545758, 714.700121423646, -3131.251394659467, -9808.485843941222, -354.7882527247497, -9763.597139413276, -2119.7206217025114, 4005.9995519105796, 38.49373819277342, -1276.6112609283102, 10117.918879621682, 4438.840422865518, 5590.28547131863, -2890.764423145447, -511.23445335181526, 1885.6677980942936, 2163.8043409044267, -135.11445578365604, 4140.035459836612, -1477.2102790923168], [411.47055135393504, 26.172541279111094, -8788.736952067626, -4941.838881173611, -395.370323486617, 835.5150892693764, -2612.038137432861, 806.3014157239771, 829.5958826606078, -8203.692824215623, 4438.840422851774, 12488.612361001728, 14681.913696108475, 3328.6508315821247, 1619.0945538326334, -8023.516723295617, -28.030420223597318, -605.57977634403, -2890.6357217662994, -2997.555348376772], [-439.20622292797066, 417.1055756934628, -12950.690636463836, -4626.705301287784, -690.4637070592725, 803.4989302134321, -3371.540366255505, -7587.01566797642, 1230.7464309492207, -11018.724335297726, 5590.285471259346, 14681.91369606432, 23175.56150369266, 14535.795299772426, 4081.4879086696365, -17365.896895740385, 547.0775561769701, -717.3943833582344, -3403.828358586593, -2893.6390107187444], [-11036.667293326806, 17719.780131945332, -13159.700266981516, 11320.712839638287, 179.21313424668796, 6125.275703698, -7473.875035454987, -48968.68181839206, -697.3246663338523, -1463.2983451329476, -2890.7644233256938, 3328.6508314480543, 14535.795299593154, 49922.54440263302, 11848.566444990347, -28709.62027479775, 4343.534388349339, 656.6556402311344, -3916.2040838151315, -1639.6179764844082], [-6707.029444675956, 11027.922425933837, -3102.5282472300087, 1058.263631086781, -398.17468997391205, 5268.799552849327, -8957.42086017454, -11395.658255561444, 279.2548716419797, -525.49386179113, -511.234453386087, 1619.0945538267422, 4081.4879086653664, 11848.566444971706, 6032.4287797427705, -7180.555575931854, 3813.1732452604524, 145.62225203574178, -5650.793305762654, -763.6061898070026], [2464.120041606541, -6084.417568365634, 12589.433297285941, -6053.387711229844, 292.3787812345316, -8204.518242583408, 4458.199751914296, 23482.49025154373, -905.4368683517717, 5659.8387223462905, 1885.667798194824, -8023.516723211795, -17365.896895647413, -28709.620274816887, -7180.555575917502, 23001.01801701036, -70.93219008630282, -128.6556494359505, 6710.346146271619, 2187.0968396895496], [-19883.1621963426, 21776.257624259553, -257.1602647975313, -1154.1954531233264, -643.8389522004436, -3436.8456258828887, -15480.298809677928, -7068.697329809137, -3370.434598510869, -126.02441876677882, 2163.8043408751314, -28.03042020244957, 547.0775562283127, 4343.534388501323, 3813.173245332881, -70.93219019360544, 17200.065892669856, -99.19097889782105, 1470.7942844067043, 247.09169074659414], [-83.56868066896895, 634.7563530744437, -437.3931189754272, 554.1413998115702, 34.720806779325436, 517.5904276009069, -321.51903345426473, -752.2454103021213, -6.676930266652412, 1285.5518746155049, -135.11445578428015, -605.5797763446157, -717.3943833610253, 656.6556402205398, 145.62225203397023, -128.65564943103294, -99.19097890190632, 327.5219160882134, -390.3186183917881, -472.36578797035133], [706.6207309028487, -9875.806150404002, 3005.9347300871505, -1247.4454314711604, 416.85863041276883, -16790.06823806851, 11564.521008131276, 745.8305561982828, -1983.539027978226, 209.8001223918888, 4140.035459817492, -2890.6357218013354, -3403.8283586271446, -3916.2040836710676, -5650.7933057158525, 6710.346146247995, 1470.7942845034806, -390.31861838926324, 15289.675483846288, 1936.888677717422], [52.113149972980814, -1622.8891121889897, 3653.309834235431, 1013.4126637346978, 42.25569161847535, -1383.1503940904593, 1793.9080302796374, 659.6274928788116, -259.507526889919, -209.78274418433358, -1477.2102790908887, -2997.5553483811545, -2893.6390107351863, -1639.6179765062989, -763.6061898059703, 2187.096839710037, 247.09169076100446, -472.36578797033525, 1936.8886777119462, 2130.700617248199]], "optimal_y_mu": [[-10.108567335233927], [-9.974862924744158], [-6.945767243825912], [-7.692265995697573], [-10.361204239450556], [-9.018813632832952], [-9.986049105604899], [-9.608366984876945], [-10.27020895509719], [-5.5316226215066004], [-8.233375963902704], [-3.7495708208021243], [-7.759823986063175], [-9.391543548866787], [-9.838832471498195], [-8.737023113469125], [-10.191006007141794], [4.606059981558646], [-9.367137215943401], [-0.7399573734196014]], "training_R2": 0.9999976110188836, "training_rmse": 0.005718347574662592}, "map": {"x_data_columns": "list", "x_data": "numpy", "x_data_min": "numpy", "x_data_max": "numpy", "x_data_scaled": "numpy", "optimal_weights": "numpy", "optimal_p": "str", "optimal_mean": "numpy", "optimal_variance": "numpy", "regularization_parameter": "str", "optimal_covariance_matrix": "numpy", "covariance_matrix_inverse": "numpy", "optimal_y_mu": "numpy", "training_R2": "str", "training_rmse": "str"}}, " S_pro": {"attr": {"x_data_columns": ["inf_fr", "temp", "hrt"], "x_data": [[9.62, 24.21, 9.97], [7.6, 29.05, 9.24], [9.06, 27.98, 3.67], [6.71, 27.84, 4.3], [5.36, 27.03, 11.82], [7.09, 24.66, 6.14], [6.31, 30.7, 9.3], [5.55, 31.95, 7.72], [7.79, 31.75, 11.08], [9.87, 32.81, 2.91], [6.06, 22.9, 4.9], [8.25, 29.43, 2.38], [9.41, 33.07, 4.37], [5.94, 34.29, 7.05], [5.16, 25.28, 8.6], [6.99, 34.67, 5.63], [8.78, 26.17, 10.5], [8.25, 22.25, 1.18], [7.34, 23.58, 6.97], [8.52, 30.11, 1.71]], "x_data_min": [[5.16, 22.25, 1.18]], "x_data_max": [[9.87, 34.67, 11.82]], "x_data_scaled": [[0.9469214437367304, 0.15780998389694045, 0.8261278195488723], [0.5180467091295117, 0.5475040257648953, 0.7575187969924813], [0.8280254777070066, 0.4613526570048309, 0.23402255639097744], [0.3290870488322718, 0.45008051529790655, 0.2932330827067669], [0.04246284501061576, 0.3848631239935588, 1.0], [0.40976645435244163, 0.1940418679549114, 0.46616541353383456], [0.24416135881104029, 0.6803542673107889, 0.7631578947368421], [0.08280254777070059, 0.7809983896940417, 0.6146616541353384], [0.5583864118895967, 0.7648953301127213, 0.9304511278195489], [1.0, 0.8502415458937199, 0.162593984962406], [0.19108280254777063, 0.052334943639291344, 0.349624060150376], [0.6560509554140128, 0.5780998389694041, 0.11278195488721804], [0.902335456475584, 0.8711755233494363, 0.299812030075188], [0.16560509554140135, 0.9694041867954909, 0.5516917293233082], [0.0, 0.2439613526570049, 0.6973684210526315], [0.38853503184713384, 1.0, 0.4182330827067669], [0.7685774946921443, 0.3156199677938809, 0.8759398496240601], [0.6560509554140128, 0.0, 0.0], [0.46284501061571126, 0.10708534621578085, 0.5441729323308271], [0.713375796178344, 0.6328502415458935, 0.04981203007518797]], "optimal_weights": [0.001, 0.00858230328349883, 8.633688293917517], "optimal_p": 2, "optimal_mean": [[13.129401846534563]], "optimal_variance": [[323.68712268802244]], "regularization_parameter": 1.0000000005422338e-06, "optimal_covariance_matrix": [[1.0000010000000006, 0.9587473075557124, 0.04842795962041278, 0.08604524502915477, 0.7693031753510199, 0.3266088102433781, 0.9636070510555195, 0.6769482123732916, 0.9073042267895925, 0.022251777765253524, 0.14071818802854164, 0.012339382622218965, 0.0910840251572585, 0.5186576891058332, 0.8658027848729725, 0.23625208637620018, 0.9785652814015521, 0.002759571496588833, 0.5032731646430885, 0.005487824252028915], [0.9587473075557124, 1.0000010000000006, 0.0938359245752234, 0.15548506704873924, 0.6016440271801291, 0.4799995660891282, 0.999499095327444, 0.8379012197339338, 0.7721296755798013, 0.04703854503327412, 0.23724355280621023, 0.02762796099626481, 0.16369251824274342, 0.6925213691152869, 0.9682195602858314, 0.3694871602360751, 0.8855032421545264, 0.0070346885979647375, 0.6739208184368398, 0.013243165447543991], [0.04842795962041278, 0.0938359245752234, 1.0000010000000006, 0.9699422351647997, 0.006306102998617239, 0.6274694498157052, 0.08909528325980852, 0.28583691386333315, 0.015171867188223196, 0.9556371900902689, 0.8893898945310299, 0.8806847204131061, 0.9619279145162896, 0.41731602368949383, 0.15650732062531342, 0.7440443417917454, 0.02850247060849022, 0.6220755891155917, 0.4353029440365391, 0.7458453697160478], [0.08604524502915477, 0.15548506704873924, 0.9699422351647997, 1.0000010000000006, 0.01339579933293228, 0.7720046696861271, 0.14852026134649432, 0.40942504440635097, 0.029999187536427833, 0.8614210432837043, 0.9715802496686636, 0.7547392293061269, 0.9977783471127061, 0.5604141275076986, 0.2440033637011891, 0.8715340882347621, 0.05329606396843697, 0.47510537182016005, 0.5800169851352195, 0.5992878270363464], [0.7693031753510199, 0.6016440271801291, 0.006306102998617239, 0.01339579933293228, 1.0000010000000006, 0.08536061809838087, 0.6156419491292001, 0.2771137719438362, 0.9576554550555991, 0.002341088101708738, 0.02591521393527513, 0.0011173948972946037, 0.014471867510834931, 0.17584559895629975, 0.45343830246756245, 0.05363986355178723, 0.8750722671325831, 0.00017771383110333242, 0.1661719560064083, 0.0004113914491382638], [0.3266088102433781, 0.4799995660891282, 0.6274694498157052, 0.7720046696861271, 0.08536061809838087, 1.0000010000000006, 0.46599163793972487, 0.8241141097670897, 0.1550655644413213, 0.4494697478684846, 0.8891565682357051, 0.3397652258504775, 0.7841918188436572, 0.9339125646465442, 0.6302103406924761, 0.9749089318453495, 0.23457447846650245, 0.153114041406911, 0.9487545080873823, 0.22348839307714313], [0.9636070510555195, 0.999499095327444, 0.08909528325980852, 0.14852026134649432, 0.6156419491292001, 0.46599163793972487, 1.0000010000000006, 0.826549409580137, 